{"learner":{"attributes":{"best_iteration":"163","best_score":"0.5245529953150019"},"feature_names":["gold_diff_15","kill_diff_15","cs_diff_15","tower_diff_15","dragon_diff_15","grub_diff_15","experience_diff_15","early_impact_score","is_soloq"],"feature_types":["int","int","int","int","int","int","int","float","int"],"gradient_booster":{"model":{"cats":{"enc":[],"feature_segments":[],"sorted_idx":[]},"gbtree_model_param":{"num_parallel_tree":"1","num_trees":"194"},"iteration_indptr":[0,1,2,3,4,5,6,7,8,9,10,11,12,13,14,15,16,17,18,19,20,21,22,23,24,25,26,27,28,29,30,31,32,33,34,35,36,37,38,39,40,41,42,43,44,45,46,47,48,49,50,51,52,53,54,55,56,57,58,59,60,61,62,63,64,65,66,67,68,69,70,71,72,73,74,75,76,77,78,79,80,81,82,83,84,85,86,87,88,89,90,91,92,93,94,95,96,97,98,99,100,101,102,103,104,105,106,107,108,109,110,111,112,113,114,115,116,117,118,119,120,121,122,123,124,125,126,127,128,129,130,131,132,133,134,135,136,137,138,139,140,141,142,143,144,145,146,147,148,149,150,151,152,153,154,155,156,157,158,159,160,161,162,163,164,165,166,167,168,169,170,171,172,173,174,175,176,177,178,179,180,181,182,183,184,185,186,187,188,189,190,191,192,193,194],"tree_info":[0,0,0,0,0,0,0,0,0,0,0,0,0,0,0,0,0,0,0,0,0,0,0,0,0,0,0,0,0,0,0,0,0,0,0,0,0,0,0,0,0,0,0,0,0,0,0,0,0,0,0,0,0,0,0,0,0,0,0,0,0,0,0,0,0,0,0,0,0,0,0,0,0,0,0,0,0,0,0,0,0,0,0,0,0,0,0,0,0,0,0,0,0,0,0,0,0,0,0,0,0,0,0,0,0,0,0,0,0,0,0,0,0,0,0,0,0,0,0,0,0,0,0,0,0,0,0,0,0,0,0,0,0,0,0,0,0,0,0,0,0,0,0,0,0,0,0,0,0,0,0,0,0,0,0,0,0,0,0,0,0,0,0,0,0,0,0,0,0,0,0,0,0,0,0,0,0,0,0,0,0,0,0,0,0,0,0,0,0,0,0,0,0,0],"trees":[{"base_weights":[-1.6331343E-2,-1.1375504E0,8.575286E-1,-4.29394E-2,-2.2606032E-2,6.3587576E-3,3.850422E-2],"categories":[],"categories_nodes":[],"categories_segments":[],"categories_sizes":[],"default_left":[0,0,0,0,0,0,0],"id":0,"left_children":[1,3,5,-1,-1,-1,-1],"loss_changes":[2.4270343E2,1.0081207E1,3.7741714E1,0E0,0E0,0E0,0E0],"parents":[2147483647,0,0,1,1,2,2],"right_children":[2,4,6,-1,-1,-1,-1],"split_conditions":[-5.9575E2,0E0,1.493E3,-4.29394E-2,-2.2606032E-2,6.3587576E-3,3.850422E-2],"split_indices":[7,4,0,0,0,0,0],"split_type":[0,0,0,0,0,0,0],"sum_hessian":[2.4371883E2,1.06486374E2,1.3723244E2,5.7242676E1,4.9243702E1,5.574287E1,8.148958E1],"tree_param":{"num_deleted":"0","num_feature":"9","num_nodes":"7","size_leaf_vector":"1"}},{"base_weights":[-1.7224295E-2,-1.060556E0,8.7047446E-1,-3.8516894E-2,-1.3707428E-2,7.804113E-3,3.752187E-2],"categories":[],"categories_nodes":[],"categories_segments":[],"categories_sizes":[],"default_left":[0,0,0,0,0,0,0],"id":1,"left_children":[1,3,5,-1,-1,-1,-1],"loss_changes":[2.342265E2,1.4498413E1,3.1066368E1,0E0,0E0,0E0,0E0],"parents":[2147483647,0,0,1,1,2,2],"right_children":[2,4,6,-1,-1,-1,-1],"split_conditions":[-5.7425E2,-1.64265E3,1.57435E3,-3.8516894E-2,-1.3707428E-2,7.804113E-3,3.752187E-2],"split_indices":[7,7,7,0,0,0,0],"split_type":[0,0,0,0,0,0,0],"sum_hessian":[2.4890593E2,1.14243546E2,1.3466238E2,8.174502E1,3.2498528E1,5.298526E1,8.167713E1],"tree_param":{"num_deleted":"0","num_feature":"9","num_nodes":"7","size_leaf_vector":"1"}},{"base_weights":[4.0315513E-2,-9.789651E-1,8.57827E-1,-4.2822454E-2,-1.9528098E-2,5.2487906E-3,3.6243435E-2],"categories":[],"categories_nodes":[],"categories_segments":[],"categories_sizes":[],"default_left":[0,0,0,0,0,0,0],"id":2,"left_children":[1,3,5,-1,-1,-1,-1],"loss_changes":[2.0998055E2,1.4645866E1,3.301391E1,0E0,0E0,0E0,0E0],"parents":[2147483647,0,0,1,1,2,2],"right_children":[2,4,6,-1,-1,-1,-1],"split_conditions":[-5.9575E2,-3.38855E3,1.26895E3,-4.2822454E-2,-1.9528098E-2,5.2487906E-3,3.6243435E-2],"split_indices":[7,7,7,0,0,0,0],"split_type":[0,0,0,0,0,0,0],"sum_hessian":[2.4797908E2,1.1019366E2,1.3778542E2,4.3720314E1,6.647334E1,4.7732437E1,9.005298E1],"tree_param":{"num_deleted":"0","num_feature":"9","num_nodes":"7","size_leaf_vector":"1"}},{"base_weights":[-1.8895684E-2,-1.0242178E0,7.590893E-1,-3.709213E-2,-8.403725E-3,1.1246321E-2,4.1467268E-2],"categories":[],"categories_nodes":[],"categories_segments":[],"categories_sizes":[],"default_left":[0,0,0,0,0,0,0],"id":3,"left_children":[1,3,5,-1,-1,-1,-1],"loss_changes":[1.9918736E2,1.684665E1,3.334433E1,0E0,0E0,0E0,0E0],"parents":[2147483647,0,0,1,1,2,2],"right_children":[2,4,6,-1,-1,-1,-1],"split_conditions":[-7.85E2,-1.578E3,2.369E3,-3.709213E-2,-8.403725E-3,1.1246321E-2,4.1467268E-2],"split_indices":[0,0,6,0,0,0,0],"split_type":[0,0,0,0,0,0,0],"sum_hessian":[2.5068633E2,1.0908818E2,1.4159814E2,8.385324E1,2.5234941E1,8.957366E1,5.202448E1],"tree_param":{"num_deleted":"0","num_feature":"9","num_nodes":"7","size_leaf_vector":"1"}},{"base_weights":[-1.4794207E-2,-1.0173179E0,7.937786E-1,-3.628242E-2,-1.431879E-2,5.9500416E-3,3.541332E-2],"categories":[],"categories_nodes":[],"categories_segments":[],"categories_sizes":[],"default_left":[0,0,0,0,0,0,0],"id":4,"left_children":[1,3,5,-1,-1,-1,-1],"loss_changes":[2.0191444E2,1.0380386E1,3.1282043E1,0E0,0E0,0E0,0E0],"parents":[2147483647,0,0,1,1,2,2],"right_children":[2,4,6,-1,-1,-1,-1],"split_conditions":[-5.9575E2,-1.578E3,1.57435E3,-3.628242E-2,-1.431879E-2,5.9500416E-3,3.541332E-2],"split_indices":[7,0,7,0,0,0,0],"split_type":[0,0,0,0,0,0,0],"sum_hessian":[2.450961E2,1.09193825E2,1.3590227E2,7.8714584E1,3.0479237E1,5.469729E1,8.120499E1],"tree_param":{"num_deleted":"0","num_feature":"9","num_nodes":"7","size_leaf_vector":"1"}},{"base_weights":[-1.6910844E-2,-6.917776E-1,1.0949448E0,-3.451717E-2,-3.6927308E-3,2.3935428E-2,4.4088162E-2],"categories":[],"categories_nodes":[],"categories_segments":[],"categories_sizes":[],"default_left":[0,0,0,0,0,0,0],"id":5,"left_children":[1,3,5,-1,-1,-1,-1],"loss_changes":[1.8957854E2,4.0729652E1,8.278618E0,0E0,0E0,0E0,0E0],"parents":[2147483647,0,0,1,1,2,2],"right_children":[2,4,6,-1,-1,-1,-1],"split_conditions":[1.01845E3,-1.52105E3,3.46455E3,-3.451717E-2,-3.6927308E-3,2.3935428E-2,4.4088162E-2],"split_indices":[7,7,7,0,0,0,0],"split_type":[0,0,0,0,0,0,0],"sum_hessian":[2.4863304E2,1.5519154E2,9.344149E1,8.47622E1,7.0429344E1,5.560614E1,3.7835346E1],"tree_param":{"num_deleted":"0","num_feature":"9","num_nodes":"7","size_leaf_vector":"1"}},{"base_weights":[-1.1629281E-2,-9.8590326E-1,7.439726E-1,-3.5073515E-2,-1.6827734E-2,1.240345E-2,4.4857357E-2],"categories":[],"categories_nodes":[],"categories_segments":[],"categories_sizes":[],"default_left":[0,0,0,0,0,0,0],"id":6,"left_children":[1,3,5,-1,-1,-1,-1],"loss_changes":[1.7915422E2,6.9643097E0,3.2802498E1,0E0,0E0,0E0,0E0],"parents":[2147483647,0,0,1,1,2,2],"right_children":[2,4,6,-1,-1,-1,-1],"split_conditions":[-5.9575E2,-1.505E3,3.46455E3,-3.5073515E-2,-1.6827734E-2,1.240345E-2,4.4857357E-2],"split_indices":[7,6,7,0,0,0,0],"split_type":[0,0,0,0,0,0,0],"sum_hessian":[2.3936937E2,1.04289185E2,1.3508018E2,7.042573E1,3.386346E1,9.596208E1,3.9118095E1],"tree_param":{"num_deleted":"0","num_feature":"9","num_nodes":"7","size_leaf_vector":"1"}},{"base_weights":[1.9796924E-3,-6.531821E-1,1.0176368E0,-3.3213295E-2,-3.0652753E-3,1.0485667E-2,3.548567E-2],"categories":[],"categories_nodes":[],"categories_segments":[],"categories_sizes":[],"default_left":[0,0,0,0,0,0,0],"id":7,"left_children":[1,3,5,-1,-1,-1,-1],"loss_changes":[1.651717E2,3.751461E1,9.917061E0,0E0,0E0,0E0,0E0],"parents":[2147483647,0,0,1,1,2,2],"right_children":[2,4,6,-1,-1,-1,-1],"split_conditions":[9.09E2,-1.578E3,1.749E3,-3.3213295E-2,-3.0652753E-3,1.0485667E-2,3.548567E-2],"split_indices":[0,0,0,0,0,0,0],"split_type":[0,0,0,0,0,0,0],"sum_hessian":[2.4422398E2,1.4889273E2,9.533126E1,8.0531265E1,6.836146E1,2.013601E1,7.519525E1],"tree_param":{"num_deleted":"0","num_feature":"9","num_nodes":"7","size_leaf_vector":"1"}},{"base_weights":[1.9005649E-2,-8.5517806E-1,6.828878E-1,-4.1140415E-2,-1.8655432E-2,1.1299401E-2,4.30329E-2],"categories":[],"categories_nodes":[],"categories_segments":[],"categories_sizes":[],"default_left":[0,0,0,0,0,0,0],"id":8,"left_children":[1,3,5,-1,-1,-1,-1],"loss_changes":[1.4513156E2,1.12969055E1,3.162455E1,0E0,0E0,0E0,0E0],"parents":[2147483647,0,0,1,1,2,2],"right_children":[2,4,6,-1,-1,-1,-1],"split_conditions":[-5.9575E2,-4.18755E3,3.46455E3,-4.1140415E-2,-1.8655432E-2,1.1299401E-2,4.30329E-2],"split_indices":[7,7,7,0,0,0,0],"split_type":[0,0,0,0,0,0,0],"sum_hessian":[2.4606125E2,1.0595975E2,1.401015E2,2.9950104E1,7.600964E1,1.0167353E2,3.8427963E1],"tree_param":{"num_deleted":"0","num_feature":"9","num_nodes":"7","size_leaf_vector":"1"}},{"base_weights":[-4.635443E-2,-8.9269453E-1,6.734535E-1,-3.6279917E-2,-1.8523715E-2,3.0327104E-3,3.1753033E-2],"categories":[],"categories_nodes":[],"categories_segments":[],"categories_sizes":[],"default_left":[0,0,0,0,0,0,0],"id":9,"left_children":[1,3,5,-1,-1,-1,-1],"loss_changes":[1.4824448E2,8.249428E0,2.8778278E1,0E0,0E0,0E0,0E0],"parents":[2147483647,0,0,1,1,2,2],"right_children":[2,4,6,-1,-1,-1,-1],"split_conditions":[-5.9575E2,-3.11585E3,1.57435E3,-3.6279917E-2,-1.8523715E-2,3.0327104E-3,3.1753033E-2],"split_indices":[7,7,7,0,0,0,0],"split_type":[0,0,0,0,0,0,0],"sum_hessian":[2.3936823E2,1.0979382E2,1.295744E2,4.790074E1,6.189308E1,5.312178E1,7.645263E1],"tree_param":{"num_deleted":"0","num_feature":"9","num_nodes":"7","size_leaf_vector":"1"}},{"base_weights":[-4.1965216E-2,-8.6535877E-1,6.419654E-1,-3.415213E-2,-1.5631277E-2,1.1715003E-3,2.9039083E-2],"categories":[],"categories_nodes":[],"categories_segments":[],"categories_sizes":[],"default_left":[0,0,0,0,0,0,0],"id":10,"left_children":[1,3,5,-1,-1,-1,-1],"loss_changes":[1.3894136E2,9.334312E0,2.6428875E1,0E0,0E0,0E0,0E0],"parents":[2147483647,0,0,1,1,2,2],"right_children":[2,4,6,-1,-1,-1,-1],"split_conditions":[-5.9575E2,0E0,1.26895E3,-3.415213E-2,-1.5631277E-2,1.1715003E-3,2.9039083E-2],"split_indices":[7,4,7,0,0,0,0],"split_type":[0,0,0,0,0,0,0],"sum_hessian":[2.427514E2,1.0990486E2,1.3284654E2,5.872383E1,5.118103E1,4.7408443E1,8.5438095E1],"tree_param":{"num_deleted":"0","num_feature":"9","num_nodes":"7","size_leaf_vector":"1"}},{"base_weights":[4.6321653E-2,-8.111644E-1,7.2048265E-1,-3.2239906E-2,-1.1966049E-2,1.1326406E-2,3.7812624E-2],"categories":[],"categories_nodes":[],"categories_segments":[],"categories_sizes":[],"default_left":[0,0,0,0,0,0,0],"id":11,"left_children":[1,3,5,-1,-1,-1,-1],"loss_changes":[1.4386818E2,1.1048782E1,2.4833572E1,0E0,0E0,0E0,0E0],"parents":[2147483647,0,0,1,1,2,2],"right_children":[2,4,6,-1,-1,-1,-1],"split_conditions":[-5.9575E2,-1.831E3,2.95105E3,-3.2239906E-2,-1.1966049E-2,1.1326406E-2,3.7812624E-2],"split_indices":[7,6,7,0,0,0,0],"split_type":[0,0,0,0,0,0,0],"sum_hessian":[2.4484892E2,1.0759241E2,1.3725652E2,6.3680817E1,4.391159E1,8.602021E1,5.123631E1],"tree_param":{"num_deleted":"0","num_feature":"9","num_nodes":"7","size_leaf_vector":"1"}},{"base_weights":[5.5804737E-3,-8.222277E-1,6.5721333E-1,-3.1292103E-2,-1.0033064E-2,1.19652655E-2,3.8114484E-2],"categories":[],"categories_nodes":[],"categories_segments":[],"categories_sizes":[],"default_left":[0,0,0,0,0,0,0],"id":12,"left_children":[1,3,5,-1,-1,-1,-1],"loss_changes":[1.3481561E2,1.1161476E1,2.1143269E1,0E0,0E0,0E0,0E0],"parents":[2147483647,0,0,1,1,2,2],"right_children":[2,4,6,-1,-1,-1,-1],"split_conditions":[-5.9575E2,-1.505E3,3.46455E3,-3.1292103E-2,-1.0033064E-2,1.19652655E-2,3.8114484E-2],"split_indices":[7,6,7,0,0,0,0],"split_type":[0,0,0,0,0,0,0],"sum_hessian":[2.459202E2,1.08087105E2,1.378331E2,7.283513E1,3.5251972E1,9.929903E1,3.8534077E1],"tree_param":{"num_deleted":"0","num_feature":"9","num_nodes":"7","size_leaf_vector":"1"}},{"base_weights":[1.762489E-2,-7.825743E-1,6.28597E-1,-2.7234968E-2,2.9989434E-3,-1.0355465E-2,2.436184E-2],"categories":[],"categories_nodes":[],"categories_segments":[],"categories_sizes":[],"default_left":[0,0,0,0,0,0,0],"id":13,"left_children":[1,3,5,-1,-1,-1,-1],"loss_changes":[1.2041394E2,1.1971619E1,2.5505882E1,0E0,0E0,0E0,0E0],"parents":[2147483647,0,0,1,1,2,2],"right_children":[2,4,6,-1,-1,-1,-1],"split_conditions":[-5.84E2,9E0,-1E0,-2.7234968E-2,2.9989434E-3,-1.0355465E-2,2.436184E-2],"split_indices":[6,2,1,0,0,0,0],"split_type":[0,0,0,0,0,0,0],"sum_hessian":[2.4228355E2,1.0465441E2,1.3762915E2,9.159683E1,1.3057576E1,2.153963E1,1.1608952E2],"tree_param":{"num_deleted":"0","num_feature":"9","num_nodes":"7","size_leaf_vector":"1"}},{"base_weights":[-7.071062E-3,-8.5844934E-1,6.437939E-1,-3.5892434E-2,-1.6450591E-2,6.662694E-3,2.902486E-2],"categories":[],"categories_nodes":[],"categories_segments":[],"categories_sizes":[],"default_left":[0,0,0,0,0,0,0],"id":14,"left_children":[1,3,5,-1,-1,-1,-1],"loss_changes":[1.3664072E2,9.88372E0,1.8648571E1,0E0,0E0,0E0,0E0],"parents":[2147483647,0,0,1,1,2,2],"right_children":[2,4,6,-1,-1,-1,-1],"split_conditions":[-5.9575E2,-1E0,1.749E3,-3.5892434E-2,-1.6450591E-2,6.662694E-3,2.902486E-2],"split_indices":[7,5,0,0,0,0,0],"split_type":[0,0,0,0,0,0,0],"sum_hessian":[2.425903E2,1.04828804E2,1.377615E2,4.7425114E1,5.740369E1,6.128902E1,7.647248E1],"tree_param":{"num_deleted":"0","num_feature":"9","num_nodes":"7","size_leaf_vector":"1"}},{"base_weights":[3.6964513E-2,-7.712422E-1,5.95238E-1,-2.5935538E-2,-4.4619846E-3,3.522681E-3,2.847209E-2],"categories":[],"categories_nodes":[],"categories_segments":[],"categories_sizes":[],"default_left":[0,0,0,0,0,0,0],"id":15,"left_children":[1,3,5,-1,-1,-1,-1],"loss_changes":[1.100146E2,5.529297E0,2.4145775E1,0E0,0E0,0E0,0E0],"parents":[2147483647,0,0,1,1,2,2],"right_children":[2,4,6,-1,-1,-1,-1],"split_conditions":[-8.0765E2,6E0,1.57435E3,-2.5935538E-2,-4.4619846E-3,3.522681E-3,2.847209E-2],"split_indices":[7,2,7,0,0,0,0],"split_type":[0,0,0,0,0,0,0],"sum_hessian":[2.3979158E2,9.765479E1,1.421368E2,8.425295E1,1.3401842E1,6.1606678E1,8.0530106E1],"tree_param":{"num_deleted":"0","num_feature":"9","num_nodes":"7","size_leaf_vector":"1"}},{"base_weights":[3.499819E-2,-7.5711286E-1,6.530749E-1,-3.0421313E-2,-1.3530234E-2,3.5926052E-3,2.8384292E-2],"categories":[],"categories_nodes":[],"categories_segments":[],"categories_sizes":[],"default_left":[0,0,0,0,0,0,0],"id":16,"left_children":[1,3,5,-1,-1,-1,-1],"loss_changes":[1.1984132E2,7.5263557E0,2.1254307E1,0E0,0E0,0E0,0E0],"parents":[2147483647,0,0,1,1,2,2],"right_children":[2,4,6,-1,-1,-1,-1],"split_conditions":[-5.9575E2,0E0,1.26895E3,-3.0421313E-2,-1.3530234E-2,3.5926052E-3,2.8384292E-2],"split_indices":[7,4,7,0,0,0,0],"split_type":[0,0,0,0,0,0,0],"sum_hessian":[2.4076135E2,1.0532705E2,1.3543431E2,5.474831E1,5.057874E1,4.9029095E1,8.640522E1],"tree_param":{"num_deleted":"0","num_feature":"9","num_nodes":"7","size_leaf_vector":"1"}},{"base_weights":[2.8613945E-3,-7.7418965E-1,5.276807E-1,-3.382116E-2,-1.6780136E-2,8.3250925E-3,3.4421172E-2],"categories":[],"categories_nodes":[],"categories_segments":[],"categories_sizes":[],"default_left":[0,0,0,0,0,0,0],"id":17,"left_children":[1,3,5,-1,-1,-1,-1],"loss_changes":[9.966189E1,6.2147293E0,2.1976109E1,0E0,0E0,0E0,0E0],"parents":[2147483647,0,0,1,1,2,2],"right_children":[2,4,6,-1,-1,-1,-1],"split_conditions":[-8.0765E2,-3.85665E3,3.46455E3,-3.382116E-2,-1.6780136E-2,8.3250925E-3,3.4421172E-2],"split_indices":[7,7,7,0,0,0,0],"split_type":[0,0,0,0,0,0,0],"sum_hessian":[2.4037883E2,9.652014E1,1.4385869E2,3.3294624E1,6.3225513E1,1.0454724E2,3.931145E1],"tree_param":{"num_deleted":"0","num_feature":"9","num_nodes":"7","size_leaf_vector":"1"}},{"base_weights":[-2.9295683E-2,-5.419154E-1,7.671853E-1,-2.8329747E-2,-3.671852E-3,1.3501679E-2,3.542396E-2],"categories":[],"categories_nodes":[],"categories_segments":[],"categories_sizes":[],"default_left":[0,0,0,0,0,0,0],"id":18,"left_children":[1,3,5,-1,-1,-1,-1],"loss_changes":[9.705841E1,2.4174175E1,1.1151142E1,0E0,0E0,0E0,0E0],"parents":[2147483647,0,0,1,1,2,2],"right_children":[2,4,6,-1,-1,-1,-1],"split_conditions":[9.09E2,-1.505E3,4.2E1,-2.8329747E-2,-3.671852E-3,1.3501679E-2,3.542396E-2],"split_indices":[0,6,2,0,0,0,0],"split_type":[0,0,0,0,0,0,0],"sum_hessian":[2.3368167E2,1.4256514E2,9.111652E1,7.1489525E1,7.107562E1,5.3937386E1,3.717914E1],"tree_param":{"num_deleted":"0","num_feature":"9","num_nodes":"7","size_leaf_vector":"1"}},{"base_weights":[1.5140091E-2,-6.8110013E-1,5.522163E-1,-2.9032795E-2,-1.0096486E-2,5.7535213E-3,2.8896872E-2],"categories":[],"categories_nodes":[],"categories_segments":[],"categories_sizes":[],"default_left":[0,0,0,0,0,0,0],"id":19,"left_children":[1,3,5,-1,-1,-1,-1],"loss_changes":[8.856866E1,9.537991E0,1.9434288E1,0E0,0E0,0E0,0E0],"parents":[2147483647,0,0,1,1,2,2],"right_children":[2,4,6,-1,-1,-1,-1],"split_conditions":[-5.9575E2,0E0,1E0,-2.9032795E-2,-1.0096486E-2,5.7535213E-3,2.8896872E-2],"split_indices":[7,4,4,0,0,0,0],"split_type":[0,0,0,0,0,0,0],"sum_hessian":[2.3284471E2,1.0116407E2,1.3168065E2,5.324647E1,4.79176E1,7.1719986E1,5.9960663E1],"tree_param":{"num_deleted":"0","num_feature":"9","num_nodes":"7","size_leaf_vector":"1"}},{"base_weights":[-3.9893694E-2,-5.3364605E-1,7.5780326E-1,-2.7547458E-2,-2.897353E-3,1.3757514E-2,3.4734257E-2],"categories":[],"categories_nodes":[],"categories_segments":[],"categories_sizes":[],"default_left":[0,0,0,0,0,0,0],"id":20,"left_children":[1,3,5,-1,-1,-1,-1],"loss_changes":[9.3621254E1,2.44869E1,9.820183E0,0E0,0E0,0E0,0E0],"parents":[2147483647,0,0,1,1,2,2],"right_children":[2,4,6,-1,-1,-1,-1],"split_conditions":[9.71E2,-1.578E3,3.567E3,-2.7547458E-2,-2.897353E-3,1.3757514E-2,3.4734257E-2],"split_indices":[0,0,0,0,0,0,0],"split_type":[0,0,0,0,0,0,0],"sum_hessian":[2.3364551E2,1.4472609E2,8.891942E1,7.5812325E1,6.891377E1,5.3323936E1,3.559548E1],"tree_param":{"num_deleted":"0","num_feature":"9","num_nodes":"7","size_leaf_vector":"1"}},{"base_weights":[-9.203158E-3,-7.3835546E-1,5.0335634E-1,-2.8449135E-2,-7.7222344E-3,9.227501E-3,3.2202736E-2],"categories":[],"categories_nodes":[],"categories_segments":[],"categories_sizes":[],"default_left":[0,0,0,0,0,0,0],"id":21,"left_children":[1,3,5,-1,-1,-1,-1],"loss_changes":[8.719141E1,9.234802E0,1.4631363E1,0E0,0E0,0E0,0E0],"parents":[2147483647,0,0,1,1,2,2],"right_children":[2,4,6,-1,-1,-1,-1],"split_conditions":[-7.65E2,-1.578E3,3.796E3,-2.8449135E-2,-7.7222344E-3,9.227501E-3,3.2202736E-2],"split_indices":[6,0,0,0,0,0,0],"split_type":[0,0,0,0,0,0,0],"sum_hessian":[2.2930919E2,9.429161E1,1.3501758E2,6.428546E1,3.000615E1,1.0279486E2,3.2222713E1],"tree_param":{"num_deleted":"0","num_feature":"9","num_nodes":"7","size_leaf_vector":"1"}},{"base_weights":[4.284713E-2,-6.5578073E-1,5.2611583E-1,-2.831962E-2,-5.7596965E-3,3.620487E-3,2.82969E-2],"categories":[],"categories_nodes":[],"categories_segments":[],"categories_sizes":[],"default_left":[0,0,0,0,0,0,0],"id":22,"left_children":[1,3,5,-1,-1,-1,-1],"loss_changes":[7.786287E1,1.2249481E1,2.2809162E1,0E0,0E0,0E0,0E0],"parents":[2147483647,0,0,1,1,2,2],"right_children":[2,4,6,-1,-1,-1,-1],"split_conditions":[-8.84E2,-1.807E3,1.749E3,-2.831962E-2,-5.7596965E-3,3.620487E-3,2.82969E-2],"split_indices":[0,6,0,0,0,0,0],"split_type":[0,0,0,0,0,0,0],"sum_hessian":[2.265756E2,9.235315E1,1.3422246E2,5.568125E1,3.66719E1,6.937193E1,6.4850525E1],"tree_param":{"num_deleted":"0","num_feature":"9","num_nodes":"7","size_leaf_vector":"1"}},{"base_weights":[-1.7227722E-2,-4.6057183E-1,6.841205E-1,-2.4256509E-2,-2.4320835E-3,1.0771977E-2,3.239487E-2],"categories":[],"categories_nodes":[],"categories_segments":[],"categories_sizes":[],"default_left":[0,0,0,0,0,0,0],"id":23,"left_children":[1,3,5,-1,-1,-1,-1],"loss_changes":[7.356791E1,1.9006453E1,1.1013939E1,0E0,0E0,0E0,0E0],"parents":[2147483647,0,0,1,1,2,2],"right_children":[2,4,6,-1,-1,-1,-1],"split_conditions":[9.09E2,-1.578E3,4.2E1,-2.4256509E-2,-2.4320835E-3,1.0771977E-2,3.239487E-2],"split_indices":[0,0,2,0,0,0,0],"split_type":[0,0,0,0,0,0,0],"sum_hessian":[2.325728E2,1.4291707E2,8.965574E1,7.33755E1,6.9541565E1,5.131657E1,3.8339165E1],"tree_param":{"num_deleted":"0","num_feature":"9","num_nodes":"7","size_leaf_vector":"1"}},{"base_weights":[7.7913916E-3,-3.9042568E-1,7.30322E-1,-2.1215111E-2,-1.2761726E-3,1.2946031E-2,3.2260712E-2],"categories":[],"categories_nodes":[],"categories_segments":[],"categories_sizes":[],"default_left":[0,0,0,0,0,0,0],"id":24,"left_children":[1,3,5,-1,-1,-1,-1],"loss_changes":[6.847117E1,1.6848108E1,7.78817E0,0E0,0E0,0E0,0E0],"parents":[2147483647,0,0,1,1,2,2],"right_children":[2,4,6,-1,-1,-1,-1],"split_conditions":[1.26895E3,-1.52105E3,3.46455E3,-2.1215111E-2,-1.2761726E-3,1.2946031E-2,3.2260712E-2],"split_indices":[7,7,7,0,0,0,0],"split_type":[0,0,0,0,0,0,0],"sum_hessian":[2.3399316E2,1.5144482E2,8.254834E1,7.81893E1,7.325552E1,4.665137E1,3.589697E1],"tree_param":{"num_deleted":"0","num_feature":"9","num_nodes":"7","size_leaf_vector":"1"}},{"base_weights":[3.0842733E-3,-6.883225E-1,4.3188685E-1,-3.209558E-2,-1.4354778E-2,2.9143356E-3,2.5884314E-2],"categories":[],"categories_nodes":[],"categories_segments":[],"categories_sizes":[],"default_left":[0,0,0,0,0,0,0],"id":25,"left_children":[1,3,5,-1,-1,-1,-1],"loss_changes":[6.78801E1,5.9927025E0,2.0215433E1,0E0,0E0,0E0,0E0],"parents":[2147483647,0,0,1,1,2,2],"right_children":[2,4,6,-1,-1,-1,-1],"split_conditions":[-1.019E3,-4.143E3,1E0,-3.209558E-2,-1.4354778E-2,2.9143356E-3,2.5884314E-2],"split_indices":[0,0,4,0,0,0,0],"split_type":[0,0,0,0,0,0,0],"sum_hessian":[2.2495029E2,8.5644905E1,1.3930537E2,2.74804E1,5.8164505E1,7.978168E1,5.95237E1],"tree_param":{"num_deleted":"0","num_feature":"9","num_nodes":"7","size_leaf_vector":"1"}},{"base_weights":[2.4763043E-3,-3.9211866E-1,7.469203E-1,-1.7578632E-2,8.691506E-3,7.337075E-5,2.6100338E-2],"categories":[],"categories_nodes":[],"categories_segments":[],"categories_sizes":[],"default_left":[0,0,0,0,0,0,0],"id":26,"left_children":[1,3,5,-1,-1,-1,-1],"loss_changes":[6.757661E1,2.0211615E1,7.2985497E0,0E0,0E0,0E0,0E0],"parents":[2147483647,0,0,1,1,2,2],"right_children":[2,4,6,-1,-1,-1,-1],"split_conditions":[1.239E3,1E0,-5E0,-1.7578632E-2,8.691506E-3,7.337075E-5,2.6100338E-2],"split_indices":[0,4,2,0,0,0,0],"split_type":[0,0,0,0,0,0,0],"sum_hessian":[2.2605095E2,1.483592E2,7.769174E1,1.15737885E2,3.2621326E1,1.1312375E1,6.6379364E1],"tree_param":{"num_deleted":"0","num_feature":"9","num_nodes":"7","size_leaf_vector":"1"}},{"base_weights":[-1.7727444E-2,-6.0613614E-1,4.5452458E-1,-3.1948354E-2,-1.1909078E-2,6.669644E-3,3.1429015E-2],"categories":[],"categories_nodes":[],"categories_segments":[],"categories_sizes":[],"default_left":[0,0,0,0,0,0,0],"id":27,"left_children":[1,3,5,-1,-1,-1,-1],"loss_changes":[6.3928074E1,8.982185E0,1.7117058E1,0E0,0E0,0E0,0E0],"parents":[2147483647,0,0,1,1,2,2],"right_children":[2,4,6,-1,-1,-1,-1],"split_conditions":[-5.7425E2,-4.05565E3,3.46455E3,-3.1948354E-2,-1.1909078E-2,6.669644E-3,3.1429015E-2],"split_indices":[7,7,7,0,0,0,0],"split_type":[0,0,0,0,0,0,0],"sum_hessian":[2.2607579E2,1.00406265E2,1.25669525E2,2.8878448E1,7.152782E1,9.228824E1,3.338129E1],"tree_param":{"num_deleted":"0","num_feature":"9","num_nodes":"7","size_leaf_vector":"1"}},{"base_weights":[7.842633E-3,-3.714982E-1,7.214385E-1,-1.6894963E-2,7.5347917E-3,1.4304511E-2,3.0171847E-2],"categories":[],"categories_nodes":[],"categories_segments":[],"categories_sizes":[],"default_left":[0,0,0,0,0,0,0],"id":28,"left_children":[1,3,5,-1,-1,-1,-1],"loss_changes":[6.234991E1,1.823384E1,4.5999947E0,0E0,0E0,0E0,0E0],"parents":[2147483647,0,0,1,1,2,2],"right_children":[2,4,6,-1,-1,-1,-1],"split_conditions":[1.239E3,1E0,3.46455E3,-1.6894963E-2,7.5347917E-3,1.4304511E-2,3.0171847E-2],"split_indices":[0,4,7,0,0,0,0],"split_type":[0,0,0,0,0,0,0],"sum_hessian":[2.2635161E2,1.4841461E2,7.7937004E1,1.1362846E2,3.4786144E1,4.4769142E1,3.316786E1],"tree_param":{"num_deleted":"0","num_feature":"9","num_nodes":"7","size_leaf_vector":"1"}},{"base_weights":[-4.409253E-2,-4.1730273E-1,6.277506E-1,-3.319736E-2,-7.5910115E-3,1.1042473E-2,2.9290797E-2],"categories":[],"categories_nodes":[],"categories_segments":[],"categories_sizes":[],"default_left":[0,0,0,0,0,0,0],"id":29,"left_children":[1,3,5,-1,-1,-1,-1],"loss_changes":[5.713848E1,1.6011599E1,6.6528053E0,0E0,0E0,0E0,0E0],"parents":[2147483647,0,0,1,1,2,2],"right_children":[2,4,6,-1,-1,-1,-1],"split_conditions":[1.26895E3,-4.18755E3,3.46455E3,-3.319736E-2,-7.5910115E-3,1.1042473E-2,2.9290797E-2],"split_indices":[7,7,7,0,0,0,0],"split_type":[0,0,0,0,0,0,0],"sum_hessian":[2.2379106E2,1.4435777E2,7.94333E1,2.5574387E1,1.1878338E2,4.788041E1,3.1552889E1],"tree_param":{"num_deleted":"0","num_feature":"9","num_nodes":"7","size_leaf_vector":"1"}},{"base_weights":[-1.524802E-2,-5.991535E-1,3.890315E-1,-2.111164E-2,-1.2003472E-3,8.994077E-4,2.4777548E-2],"categories":[],"categories_nodes":[],"categories_segments":[],"categories_sizes":[],"default_left":[0,0,0,0,0,0,0],"id":30,"left_children":[1,3,5,-1,-1,-1,-1],"loss_changes":[5.3243793E1,5.337696E0,2.0863815E1,0E0,0E0,0E0,0E0],"parents":[2147483647,0,0,1,1,2,2],"right_children":[2,4,6,-1,-1,-1,-1],"split_conditions":[-1E0,1E0,1E0,-2.111164E-2,-1.2003472E-3,8.994077E-4,2.4777548E-2],"split_indices":[1,4,4,0,0,0,0],"split_type":[0,0,0,0,0,0,0],"sum_hessian":[2.2157613E2,9.025531E1,1.3132082E2,7.559986E1,1.4655445E1,7.325453E1,5.8066288E1],"tree_param":{"num_deleted":"0","num_feature":"9","num_nodes":"7","size_leaf_vector":"1"}},{"base_weights":[-3.403023E-2,-6.135617E-1,3.4989333E-1,-2.8070975E-2,-9.835318E-3,-3.9471488E-4,2.3683673E-2],"categories":[],"categories_nodes":[],"categories_segments":[],"categories_sizes":[],"default_left":[0,0,0,0,0,0,0],"id":31,"left_children":[1,3,5,-1,-1,-1,-1],"loss_changes":[4.9520535E1,7.5456505E0,2.1403482E1,0E0,0E0,0E0,0E0],"parents":[2147483647,0,0,1,1,2,2],"right_children":[2,4,6,-1,-1,-1,-1],"split_conditions":[-8.0765E2,-3.17295E3,1E0,-2.8070975E-2,-9.835318E-3,-3.9471488E-4,2.3683673E-2],"split_indices":[7,7,4,0,0,0,0],"split_type":[0,0,0,0,0,0,0],"sum_hessian":[2.1863864E2,8.664779E1,1.3199086E2,3.858954E1,4.8058254E1,7.334922E1,5.8641636E1],"tree_param":{"num_deleted":"0","num_feature":"9","num_nodes":"7","size_leaf_vector":"1"}},{"base_weights":[-4.94308E-2,-3.53615E-1,6.4730954E-1,-2.114306E-2,-2.408919E-3,1.150741E-2,2.8685307E-2],"categories":[],"categories_nodes":[],"categories_segments":[],"categories_sizes":[],"default_left":[0,0,0,0,0,0,0],"id":32,"left_children":[1,3,5,-1,-1,-1,-1],"loss_changes":[4.91138E1,1.5348768E1,5.0072346E0,0E0,0E0,0E0,0E0],"parents":[2147483647,0,0,1,1,2,2],"right_children":[2,4,6,-1,-1,-1,-1],"split_conditions":[1.749E3,-1.578E3,3.796E3,-2.114306E-2,-2.408919E-3,1.150741E-2,2.8685307E-2],"split_indices":[0,0,0,0,0,0,0],"split_type":[0,0,0,0,0,0,0],"sum_hessian":[2.2757724E2,1.591014E2,6.847584E1,6.825345E1,9.0847946E1,3.9355545E1,2.9120296E1],"tree_param":{"num_deleted":"0","num_feature":"9","num_nodes":"7","size_leaf_vector":"1"}},{"base_weights":[2.1013534E-2,-5.382412E-1,4.2314503E-1,-2.9519873E-2,-1.1125196E-2,-2.1317867E-3,1.9152684E-2],"categories":[],"categories_nodes":[],"categories_segments":[],"categories_sizes":[],"default_left":[0,0,0,0,0,0,0],"id":33,"left_children":[1,3,5,-1,-1,-1,-1],"loss_changes":[5.01904E1,6.238409E0,1.3896635E1,0E0,0E0,0E0,0E0],"parents":[2147483647,0,0,1,1,2,2],"right_children":[2,4,6,-1,-1,-1,-1],"split_conditions":[-5.84E2,-4.60965E3,0E0,-2.9519873E-2,-1.1125196E-2,-2.1317867E-3,1.9152684E-2],"split_indices":[6,7,4,0,0,0,0],"split_type":[0,0,0,0,0,0,0],"sum_hessian":[2.191482E2,9.1382805E1,1.27765396E2,2.2285389E1,6.909742E1,3.9174316E1,8.859108E1],"tree_param":{"num_deleted":"0","num_feature":"9","num_nodes":"7","size_leaf_vector":"1"}},{"base_weights":[-5.165402E-2,-5.456391E-1,3.513192E-1,-2.0102713E-2,4.039408E-3,2.8568027E-3,2.7770553E-2],"categories":[],"categories_nodes":[],"categories_segments":[],"categories_sizes":[],"default_left":[0,0,0,0,0,0,0],"id":34,"left_children":[1,3,5,-1,-1,-1,-1],"loss_changes":[4.4469578E1,8.670561E0,1.794336E1,0E0,0E0,0E0,0E0],"parents":[2147483647,0,0,1,1,2,2],"right_children":[2,4,6,-1,-1,-1,-1],"split_conditions":[-5.9575E2,4E0,4.3E1,-2.0102713E-2,4.039408E-3,2.8568027E-3,2.7770553E-2],"split_indices":[7,2,2,0,0,0,0],"split_type":[0,0,0,0,0,0,0],"sum_hessian":[2.1946878E2,9.8281845E1,1.2118694E2,8.3108055E1,1.5173791E1,8.542853E1,3.5758415E1],"tree_param":{"num_deleted":"0","num_feature":"9","num_nodes":"7","size_leaf_vector":"1"}},{"base_weights":[3.223737E-2,-5.198536E-1,4.6270704E-1,-2.2527039E-2,-9.067934E-3,7.3246225E-3,2.6723726E-2],"categories":[],"categories_nodes":[],"categories_segments":[],"categories_sizes":[],"default_left":[0,0,0,0,0,0,0],"id":35,"left_children":[1,3,5,-1,-1,-1,-1],"loss_changes":[5.252672E1,4.4168034E0,1.1176474E1,0E0,0E0,0E0,0E0],"parents":[2147483647,0,0,1,1,2,2],"right_children":[2,4,6,-1,-1,-1,-1],"split_conditions":[-5.9575E2,-1E0,2.95105E3,-2.2527039E-2,-9.067934E-3,7.3246225E-3,2.6723726E-2],"split_indices":[7,5,7,0,0,0,0],"split_type":[0,0,0,0,0,0,0],"sum_hessian":[2.1699345E2,9.488506E1,1.2210838E2,4.3641834E1,5.124323E1,8.291688E1,3.919151E1],"tree_param":{"num_deleted":"0","num_feature":"9","num_nodes":"7","size_leaf_vector":"1"}},{"base_weights":[-3.168436E-2,-2.9858547E-1,6.160215E-1,-2.7505057E-2,-5.16255E-3,8.657925E-3,2.8078517E-2],"categories":[],"categories_nodes":[],"categories_segments":[],"categories_sizes":[],"default_left":[0,0,0,0,0,0,0],"id":36,"left_children":[1,3,5,-1,-1,-1,-1],"loss_changes":[3.839372E1,1.19726925E1,6.2522182E0,0E0,0E0,0E0,0E0],"parents":[2147483647,0,0,1,1,2,2],"right_children":[2,4,6,-1,-1,-1,-1],"split_conditions":[1.749E3,-4.18755E3,3.46455E3,-2.7505057E-2,-5.16255E-3,8.657925E-3,2.8078517E-2],"split_indices":[0,7,7,0,0,0,0],"split_type":[0,0,0,0,0,0,0],"sum_hessian":[2.1796355E2,1.5512074E2,6.284281E1,2.422581E1,1.3089493E2,3.293766E1,2.9905151E1],"tree_param":{"num_deleted":"0","num_feature":"9","num_nodes":"7","size_leaf_vector":"1"}},{"base_weights":[-2.7982676E-2,-2.897739E-1,6.057174E-1,-1.539125E-2,7.2107057E-4,9.256037E-3,2.5938924E-2],"categories":[],"categories_nodes":[],"categories_segments":[],"categories_sizes":[],"default_left":[0,0,0,0,0,0,0],"id":37,"left_children":[1,3,5,-1,-1,-1,-1],"loss_changes":[3.6612926E1,1.0956873E1,4.433071E0,0E0,0E0,0E0,0E0],"parents":[2147483647,0,0,1,1,2,2],"right_children":[2,4,6,-1,-1,-1,-1],"split_conditions":[1.749E3,-1.2E1,3.8E1,-1.539125E-2,7.2107057E-4,9.256037E-3,2.5938924E-2],"split_indices":[0,2,2,0,0,0,0],"split_type":[0,0,0,0,0,0,0],"sum_hessian":[2.1658055E2,1.5403273E2,6.254783E1,8.925806E1,6.477467E1,3.116253E1,3.1385296E1],"tree_param":{"num_deleted":"0","num_feature":"9","num_nodes":"7","size_leaf_vector":"1"}},{"base_weights":[2.8272532E-3,-3.0886713E-1,6.8378484E-1,-1.8400054E-2,-9.828967E-4,1.4079517E-2,2.6872791E-2],"categories":[],"categories_nodes":[],"categories_segments":[],"categories_sizes":[],"default_left":[0,0,0,0,0,0,0],"id":38,"left_children":[1,3,5,-1,-1,-1,-1],"loss_changes":[4.6365185E1,1.2558245E1,2.2774124E0,0E0,0E0,0E0,0E0],"parents":[2147483647,0,0,1,1,2,2],"right_children":[2,4,6,-1,-1,-1,-1],"split_conditions":[1.493E3,-1.52105E3,3.46455E3,-1.8400054E-2,-9.828967E-4,1.4079517E-2,2.6872791E-2],"split_indices":[0,7,7,0,0,0,0],"split_type":[0,0,0,0,0,0,0],"sum_hessian":[2.1445534E2,1.4786569E2,6.6589645E1,6.9159096E1,7.87066E1,3.6295437E1,3.029421E1],"tree_param":{"num_deleted":"0","num_feature":"9","num_nodes":"7","size_leaf_vector":"1"}},{"base_weights":[-5.8613974E-3,-4.9801466E-1,3.4105742E-1,-2.3268482E-2,-8.279535E-3,5.493447E-4,2.3195082E-2],"categories":[],"categories_nodes":[],"categories_segments":[],"categories_sizes":[],"default_left":[0,0,0,0,0,0,0],"id":39,"left_children":[1,3,5,-1,-1,-1,-1],"loss_changes":[3.6654037E1,5.0421467E0,1.7535583E1,0E0,0E0,0E0,0E0],"parents":[2147483647,0,0,1,1,2,2],"right_children":[2,4,6,-1,-1,-1,-1],"split_conditions":[-1E0,-1E0,1E0,-2.3268482E-2,-8.279535E-3,5.493447E-4,2.3195082E-2],"split_indices":[1,5,4,0,0,0,0],"split_type":[0,0,0,0,0,0,0],"sum_hessian":[2.1069136E2,8.675131E1,1.2394005E2,3.633525E1,5.0416065E1,7.214182E1,5.1798225E1],"tree_param":{"num_deleted":"0","num_feature":"9","num_nodes":"7","size_leaf_vector":"1"}},{"base_weights":[3.0455092E-2,-5.8140945E-1,2.9444948E-1,-2.4726776E-2,-8.468567E-3,4.3599302E-4,2.1234063E-2],"categories":[],"categories_nodes":[],"categories_segments":[],"categories_sizes":[],"default_left":[0,0,0,0,0,0,0],"id":40,"left_children":[1,3,5,-1,-1,-1,-1],"loss_changes":[3.5492874E1,4.347492E0,1.7722458E1,0E0,0E0,0E0,0E0],"parents":[2147483647,0,0,1,1,2,2],"right_children":[2,4,6,-1,-1,-1,-1],"split_conditions":[-1.578E3,0E0,1E0,-2.4726776E-2,-8.468567E-3,4.3599302E-4,2.1234063E-2],"split_indices":[0,4,4,0,0,0,0],"split_type":[0,0,0,0,0,0,0],"sum_hessian":[2.1561125E2,6.426301E1,1.5134824E2,3.3532097E1,3.0730915E1,9.1473816E1,5.987442E1],"tree_param":{"num_deleted":"0","num_feature":"9","num_nodes":"7","size_leaf_vector":"1"}},{"base_weights":[2.7774539E-2,-3.74129E-1,4.8714665E-1,-1.6571237E-2,8.962795E-3,-4.7164103E-3,2.0457666E-2],"categories":[],"categories_nodes":[],"categories_segments":[],"categories_sizes":[],"default_left":[0,0,0,0,0,0,0],"id":41,"left_children":[1,3,5,-1,-1,-1,-1],"loss_changes":[3.9485317E1,1.4020925E1,1.273324E1,0E0,0E0,0E0,0E0],"parents":[2147483647,0,0,1,1,2,2],"right_children":[2,4,6,-1,-1,-1,-1],"split_conditions":[-2E0,1E0,-1E0,-1.6571237E-2,8.962795E-3,-4.7164103E-3,2.0457666E-2],"split_indices":[2,4,1,0,0,0,0],"split_type":[0,0,0,0,0,0,0],"sum_hessian":[2.098953E2,1.1214822E2,9.774707E1,8.89452E1,2.3203024E1,2.2778036E1,7.496903E1],"tree_param":{"num_deleted":"0","num_feature":"9","num_nodes":"7","size_leaf_vector":"1"}},{"base_weights":[4.19971E-3,-4.3984306E-1,3.1288218E-1,-2.1703068E-2,-6.7319996E-3,3.0516693E-3,2.329702E-2],"categories":[],"categories_nodes":[],"categories_segments":[],"categories_sizes":[],"default_left":[0,0,0,0,0,0,0],"id":42,"left_children":[1,3,5,-1,-1,-1,-1],"loss_changes":[2.9396067E1,5.04928E0,1.222772E1,0E0,0E0,0E0,0E0],"parents":[2147483647,0,0,1,1,2,2],"right_children":[2,4,6,-1,-1,-1,-1],"split_conditions":[-1E0,-1E0,2.369E3,-2.1703068E-2,-6.7319996E-3,3.0516693E-3,2.329702E-2],"split_indices":[1,5,6,0,0,0,0],"split_type":[0,0,0,0,0,0,0],"sum_hessian":[2.10455E2,8.595626E1,1.2449873E2,3.5073036E1,5.0883224E1,8.721859E1,3.7280148E1],"tree_param":{"num_deleted":"0","num_feature":"9","num_nodes":"7","size_leaf_vector":"1"}},{"base_weights":[4.591088E-3,-3.065992E-1,6.223817E-1,-1.3712117E-2,5.1436177E-3,8.342006E-3,2.496434E-2],"categories":[],"categories_nodes":[],"categories_segments":[],"categories_sizes":[],"default_left":[0,0,0,0,0,0,0],"id":43,"left_children":[1,3,5,-1,-1,-1,-1],"loss_changes":[4.0958836E1,1.0349815E1,4.691334E0,0E0,0E0,0E0,0E0],"parents":[2147483647,0,0,1,1,2,2],"right_children":[2,4,6,-1,-1,-1,-1],"split_conditions":[1.26895E3,1E0,5E0,-1.3712117E-2,5.1436177E-3,8.342006E-3,2.496434E-2],"split_indices":[7,4,1,0,0,0,0],"split_type":[0,0,0,0,0,0,0],"sum_hessian":[2.0906425E2,1.3970181E2,6.936244E1,1.0632338E2,3.337843E1,2.802013E1,4.1342308E1],"tree_param":{"num_deleted":"0","num_feature":"9","num_nodes":"7","size_leaf_vector":"1"}},{"base_weights":[2.7788825E-2,-3.2677415E-1,3.9573997E-1,-1.6358068E-2,2.546222E-3,6.2379576E-3,2.195377E-2],"categories":[],"categories_nodes":[],"categories_segments":[],"categories_sizes":[],"default_left":[0,0,0,0,0,0,0],"id":44,"left_children":[1,3,5,-1,-1,-1,-1],"loss_changes":[2.7248413E1,9.66713E0,6.1601963E0,0E0,0E0,0E0,0E0],"parents":[2147483647,0,0,1,1,2,2],"right_children":[2,4,6,-1,-1,-1,-1],"split_conditions":[-3E0,-5.84E2,2.403E3,-1.6358068E-2,2.546222E-3,6.2379576E-3,2.195377E-2],"split_indices":[2,6,6,0,0,0,0],"split_type":[0,0,0,0,0,0,0],"sum_hessian":[2.0487871E2,1.0445154E2,1.0042718E2,6.781008E1,3.664146E1,6.6500084E1,3.3927094E1],"tree_param":{"num_deleted":"0","num_feature":"9","num_nodes":"7","size_leaf_vector":"1"}},{"base_weights":[-1.8414108E-2,-5.8668476E-1,2.1630688E-1,-2.3357274E-2,-4.5865355E-3,2.151514E-3,1.9158717E-2],"categories":[],"categories_nodes":[],"categories_segments":[],"categories_sizes":[],"default_left":[0,0,0,0,0,0,0],"id":45,"left_children":[1,3,5,-1,-1,-1,-1],"loss_changes":[2.814244E1,4.8942947E0,9.032881E0,0E0,0E0,0E0,0E0],"parents":[2147483647,0,0,1,1,2,2],"right_children":[2,4,6,-1,-1,-1,-1],"split_conditions":[-1.66E3,3E0,2.369E3,-2.3357274E-2,-4.5865355E-3,2.151514E-3,1.9158717E-2],"split_indices":[6,5,6,0,0,0,0],"split_type":[0,0,0,0,0,0,0],"sum_hessian":[2.0708363E2,5.96556E1,1.4742804E2,4.0257973E1,1.9397627E1,1.1156938E2,3.5858658E1],"tree_param":{"num_deleted":"0","num_feature":"9","num_nodes":"7","size_leaf_vector":"1"}},{"base_weights":[-3.207326E-2,-3.6744124E-1,3.2828736E-1,-1.6781481E-2,7.0805126E-4,5.1434065E-4,1.7577825E-2],"categories":[],"categories_nodes":[],"categories_segments":[],"categories_sizes":[],"default_left":[0,0,0,0,0,0,0],"id":46,"left_children":[1,3,5,-1,-1,-1,-1],"loss_changes":[2.5632782E1,8.265334E0,8.183251E0,0E0,0E0,0E0,0E0],"parents":[2147483647,0,0,1,1,2,2],"right_children":[2,4,6,-1,-1,-1,-1],"split_conditions":[-4E0,-6.16E2,1.442E3,-1.6781481E-2,7.0805126E-4,5.1434065E-4,1.7577825E-2],"split_indices":[2,6,0,0,0,0,0],"split_type":[0,0,0,0,0,0,0],"sum_hessian":[2.0810187E2,1.077684E2,1.00333466E2,7.1709274E1,3.6059128E1,4.641403E1,5.391944E1],"tree_param":{"num_deleted":"0","num_feature":"9","num_nodes":"7","size_leaf_vector":"1"}},{"base_weights":[-1.1894558E-2,-5.34468E-1,2.284255E-1,-2.4989929E-2,-1.0464081E-2,-6.7469305E-3,1.3436155E-2],"categories":[],"categories_nodes":[],"categories_segments":[],"categories_sizes":[],"default_left":[0,0,0,0,0,0,0],"id":47,"left_children":[1,3,5,-1,-1,-1,-1],"loss_changes":[2.7104803E1,3.1865082E0,1.4915504E1,0E0,0E0,0E0,0E0],"parents":[2147483647,0,0,1,1,2,2],"right_children":[2,4,6,-1,-1,-1,-1],"split_conditions":[-1.52105E3,-4.18755E3,0E0,-2.4989929E-2,-1.0464081E-2,-6.7469305E-3,1.3436155E-2],"split_indices":[7,7,4,0,0,0,0],"split_type":[0,0,0,0,0,0,0],"sum_hessian":[2.1188426E2,6.597479E1,1.4590947E2,2.2624287E1,4.3350506E1,4.7577065E1,9.83324E1],"tree_param":{"num_deleted":"0","num_feature":"9","num_nodes":"7","size_leaf_vector":"1"}},{"base_weights":[1.9788581E-3,-4.192601E-1,2.8544974E-1,-2.291663E-2,-8.43165E-3,6.695389E-4,1.9147603E-2],"categories":[],"categories_nodes":[],"categories_segments":[],"categories_sizes":[],"default_left":[0,0,0,0,0,0,0],"id":48,"left_children":[1,3,5,-1,-1,-1,-1],"loss_changes":[2.5488781E1,3.6604252E0,1.1815784E1,0E0,0E0,0E0,0E0],"parents":[2147483647,0,0,1,1,2,2],"right_children":[2,4,6,-1,-1,-1,-1],"split_conditions":[-1E0,-4.143E3,1E0,-2.291663E-2,-8.43165E-3,6.695389E-4,1.9147603E-2],"split_indices":[1,0,4,0,0,0,0],"split_type":[0,0,0,0,0,0,0],"sum_hessian":[2.0945331E2,8.386762E1,1.2558569E2,2.141439E1,6.245323E1,7.3152695E1,5.2433E1],"tree_param":{"num_deleted":"0","num_feature":"9","num_nodes":"7","size_leaf_vector":"1"}},{"base_weights":[3.2737136E-2,-2.011607E-1,5.286515E-1,-1.3714475E-2,5.634383E-3,-2.11789E-3,2.0432657E-2],"categories":[],"categories_nodes":[],"categories_segments":[],"categories_sizes":[],"default_left":[0,0,0,0,0,0,0],"id":49,"left_children":[1,3,5,-1,-1,-1,-1],"loss_changes":[2.4382545E1,1.441461E1,6.246855E0,0E0,0E0,0E0,0E0],"parents":[2147483647,0,0,1,1,2,2],"right_children":[2,4,6,-1,-1,-1,-1],"split_conditions":[1E0,-1E0,-9.1E2,-1.3714475E-2,5.634383E-3,-2.11789E-3,2.0432657E-2],"split_indices":[4,2,0,0,0,0,0],"split_type":[0,0,0,0,0,0,0],"sum_hessian":[2.0637291E2,1.4104012E2,6.53328E1,8.484921E1,5.6190903E1,1.3466846E1,5.186595E1],"tree_param":{"num_deleted":"0","num_feature":"9","num_nodes":"7","size_leaf_vector":"1"}},{"base_weights":[-2.2547938E-2,-1.7292783E-1,2.615996E-2,-1.4365802E-2,2.0484624E-3],"categories":[],"categories_nodes":[],"categories_segments":[],"categories_sizes":[],"default_left":[0,0,0,0,0],"id":50,"left_children":[1,3,-1,-1,-1],"loss_changes":[2.7695612E1,1.305329E1,0E0,0E0,0E0],"parents":[2147483647,0,0,1,1],"right_children":[2,4,-1,-1,-1],"split_conditions":[3.46455E3,0E0,2.615996E-2,-1.4365802E-2,2.0484624E-3],"split_indices":[7,4,0,0,0],"split_type":[0,0,0,0,0],"sum_hessian":[2.0164001E2,1.7400232E2,2.7637697E1,7.584095E1,9.816136E1],"tree_param":{"num_deleted":"0","num_feature":"9","num_nodes":"5","size_leaf_vector":"1"}},{"base_weights":[8.428311E-3,-3.5533866E-1,3.2380888E-1,-2.143406E-2,-3.099149E-3,2.7939808E-3,1.8819088E-2],"categories":[],"categories_nodes":[],"categories_segments":[],"categories_sizes":[],"default_left":[0,0,0,0,0,0,0],"id":51,"left_children":[1,3,5,-1,-1,-1,-1],"loss_changes":[2.3944387E1,8.626948E0,7.7075167E0,0E0,0E0,0E0,0E0],"parents":[2147483647,0,0,1,1,2,2],"right_children":[2,4,6,-1,-1,-1,-1],"split_conditions":[0E0,-1E0,1E0,-2.143406E-2,-3.099149E-3,2.7939808E-3,1.8819088E-2],"split_indices":[1,5,4,0,0,0,0],"split_type":[0,0,0,0,0,0,0],"sum_hessian":[2.047052E2,9.494273E1,1.0976247E2,3.7639503E1,5.730323E1,6.3847645E1,4.5914825E1],"tree_param":{"num_deleted":"0","num_feature":"9","num_nodes":"7","size_leaf_vector":"1"}},{"base_weights":[-1.1135933E-2,-4.885592E-1,3.359907E-1,-2.0969817E-2,6.9608686E-5,5.203514E-3,2.1470627E-2],"categories":[],"categories_nodes":[],"categories_segments":[],"categories_sizes":[],"default_left":[0,0,0,0,0,0,0],"id":52,"left_children":[1,3,5,-1,-1,-1,-1],"loss_changes":[3.3826138E1,8.8774185E0,7.0477333E0,0E0,0E0,0E0,0E0],"parents":[2147483647,0,0,1,1,2,2],"right_children":[2,4,6,-1,-1,-1,-1],"split_conditions":[-6.16E2,-1.2E1,3.07025E3,-2.0969817E-2,6.9608686E-5,5.203514E-3,2.1470627E-2],"split_indices":[6,2,7,0,0,0,0],"split_type":[0,0,0,0,0,0,0],"sum_hessian":[2.0012741E2,8.390843E1,1.1621898E2,5.8137566E1,2.5770872E1,8.3421585E1,3.2797394E1],"tree_param":{"num_deleted":"0","num_feature":"9","num_nodes":"7","size_leaf_vector":"1"}},{"base_weights":[-3.5093436E-3,-1.4860445E-1,7.478147E-1,-9.953041E-3,9.618135E-3,6.83942E-3,2.7309988E-2],"categories":[],"categories_nodes":[],"categories_segments":[],"categories_sizes":[],"default_left":[0,0,0,0,0,0,0],"id":53,"left_children":[1,3,5,-1,-1,-1,-1],"loss_changes":[2.252266E1,1.5091261E1,2.410246E0,0E0,0E0,0E0,0E0],"parents":[2147483647,0,0,1,1,2,2],"right_children":[2,4,6,-1,-1,-1,-1],"split_conditions":[3.07025E3,1E0,2.704E3,-9.953041E-3,9.618135E-3,6.83942E-3,2.7309988E-2],"split_indices":[7,4,6,0,0,0,0],"split_type":[0,0,0,0,0,0,0],"sum_hessian":[2.0256561E2,1.7112291E2,3.1442701E1,1.2349889E2,4.762402E1,8.633385E0,2.2809317E1],"tree_param":{"num_deleted":"0","num_feature":"9","num_nodes":"7","size_leaf_vector":"1"}},{"base_weights":[-1.8365294E-2,-1.4320956E-1,2.3590585E-2,-8.87414E-3,7.2126617E-3],"categories":[],"categories_nodes":[],"categories_segments":[],"categories_sizes":[],"default_left":[0,0,0,0,0],"id":54,"left_children":[1,3,-1,-1,-1],"loss_changes":[2.06173E1,1.0527814E1,0E0,0E0,0E0],"parents":[2147483647,0,0,1,1],"right_children":[2,4,-1,-1,-1],"split_conditions":[3.46455E3,1E0,2.3590585E-2,-8.87414E-3,7.2126617E-3],"split_indices":[7,4,0,0,0],"split_type":[0,0,0,0,0],"sum_hessian":[2.0097801E2,1.7540906E2,2.5568949E1,1.2582014E2,4.958893E1],"tree_param":{"num_deleted":"0","num_feature":"9","num_nodes":"5","size_leaf_vector":"1"}},{"base_weights":[-5.096306E-3,-2.5090622E-2,9.489862E-2,-3.7226907E-4,2.1190625E-2],"categories":[],"categories_nodes":[],"categories_segments":[],"categories_sizes":[],"default_left":[0,0,0,0,0],"id":55,"left_children":[1,-1,3,-1,-1],"loss_changes":[1.7020916E1,0E0,1.2016672E1,0E0,0E0],"parents":[2147483647,0,0,2,2],"right_children":[2,-1,4,-1,-1],"split_conditions":[-4.05565E3,-2.5090622E-2,3.46455E3,-3.7226907E-4,2.1190625E-2],"split_indices":[7,0,7,0,0],"split_type":[0,0,0,0,0],"sum_hessian":[2.0086168E2,1.9986444E1,1.8087523E2,1.5553838E2,2.533685E1],"tree_param":{"num_deleted":"0","num_feature":"9","num_nodes":"5","size_leaf_vector":"1"}},{"base_weights":[6.112137E-3,-3.6579543E-1,3.850172E-1,-1.5699474E-2,5.493112E-3,2.3718218E-3,1.9245677E-2],"categories":[],"categories_nodes":[],"categories_segments":[],"categories_sizes":[],"default_left":[0,0,0,0,0,0,0],"id":56,"left_children":[1,3,5,-1,-1,-1,-1],"loss_changes":[2.9327085E1,9.274054E0,7.9875975E0,0E0,0E0,0E0,0E0],"parents":[2147483647,0,0,1,1,2,2],"right_children":[2,4,6,-1,-1,-1,-1],"split_conditions":[-4E0,1E0,1.442E3,-1.5699474E-2,5.493112E-3,2.3718218E-3,1.9245677E-2],"split_indices":[2,4,0,0,0,0,0],"split_type":[0,0,0,0,0,0,0],"sum_hessian":[2.0411618E2,1.03044174E2,1.01072E2,8.013939E1,2.2904783E1,4.7286125E1,5.378587E1],"tree_param":{"num_deleted":"0","num_feature":"9","num_nodes":"7","size_leaf_vector":"1"}},{"base_weights":[-2.8076572E-3,-3.4158543E-1,3.2132116E-1,-1.714782E-2,-2.8464564E-3,-2.6938815E-3,1.5026863E-2],"categories":[],"categories_nodes":[],"categories_segments":[],"categories_sizes":[],"default_left":[0,0,0,0,0,0,0],"id":57,"left_children":[1,3,5,-1,-1,-1,-1],"loss_changes":[2.1747139E1,5.3859053E0,7.562703E0,0E0,0E0,0E0,0E0],"parents":[2147483647,0,0,1,1,2,2],"right_children":[2,4,6,-1,-1,-1,-1],"split_conditions":[-8E0,0E0,0E0,-1.714782E-2,-2.8464564E-3,-2.6938815E-3,1.5026863E-2],"split_indices":[2,4,4,0,0,0,0],"split_type":[0,0,0,0,0,0,0],"sum_hessian":[1.9404848E2,9.482752E1,9.9220955E1,4.7711197E1,4.711633E1,3.046783E1,6.875313E1],"tree_param":{"num_deleted":"0","num_feature":"9","num_nodes":"7","size_leaf_vector":"1"}},{"base_weights":[-1.6620474E-2,-4.0429696E-1,2.6882607E-1,-1.5577293E-2,5.164183E-3,-2.4238667E-3,1.3082804E-2],"categories":[],"categories_nodes":[],"categories_segments":[],"categories_sizes":[],"default_left":[0,0,0,0,0,0,0],"id":58,"left_children":[1,3,5,-1,-1,-1,-1],"loss_changes":[2.2317114E1,5.8430634E0,6.8670406E0,0E0,0E0,0E0,0E0],"parents":[2147483647,0,0,1,1,2,2],"right_children":[2,4,6,-1,-1,-1,-1],"split_conditions":[-5.84E2,6E0,0E0,-1.5577293E-2,5.164183E-3,-2.4238667E-3,1.3082804E-2],"split_indices":[6,2,4,0,0,0,0],"split_type":[0,0,0,0,0,0,0],"sum_hessian":[1.9770685E2,8.348702E1,1.14219826E2,6.9772285E1,1.3714734E1,3.729659E1,7.692323E1],"tree_param":{"num_deleted":"0","num_feature":"9","num_nodes":"7","size_leaf_vector":"1"}},{"base_weights":[1.8678E-2,-3.262708E-1,2.579833E-1,-2.0198679E-2,-2.0087713E-3,3.8362932E-3,2.1022987E-2],"categories":[],"categories_nodes":[],"categories_segments":[],"categories_sizes":[],"default_left":[0,0,0,0,0,0,0],"id":59,"left_children":[1,3,5,-1,-1,-1,-1],"loss_changes":[1.7311132E1,7.643504E0,6.948593E0,0E0,0E0,0E0,0E0],"parents":[2147483647,0,0,1,1,2,2],"right_children":[2,4,6,-1,-1,-1,-1],"split_conditions":[-1E0,-1E0,2E0,-2.0198679E-2,-2.0087713E-3,3.8362932E-3,2.1022987E-2],"split_indices":[1,5,4,0,0,0,0],"split_type":[0,0,0,0,0,0,0],"sum_hessian":[2.0567035E2,8.3943054E1,1.21727295E2,3.4534748E1,4.9408306E1,9.607448E1,2.5652815E1],"tree_param":{"num_deleted":"0","num_feature":"9","num_nodes":"7","size_leaf_vector":"1"}},{"base_weights":[3.883657E-2,-9.505099E-2,6.4667E-1,-1.5883604E-2,7.412504E-4,5.7240936E-4,2.3514668E-2],"categories":[],"categories_nodes":[],"categories_segments":[],"categories_sizes":[],"default_left":[0,0,0,0,0,0,0],"id":60,"left_children":[1,3,5,-1,-1,-1,-1],"loss_changes":[1.635009E1,8.617747E0,3.0902567E0,0E0,0E0,0E0,0E0],"parents":[2147483647,0,0,1,1,2,2],"right_children":[2,4,6,-1,-1,-1,-1],"split_conditions":[2.354E3,-2.469E3,9E0,-1.5883604E-2,7.412504E-4,5.7240936E-4,2.3514668E-2],"split_indices":[6,6,2,0,0,0,0],"split_type":[0,0,0,0,0,0,0],"sum_hessian":[1.9739655E2,1.6314731E2,3.4249237E1,3.377899E1,1.2936832E2,6.551002E0,2.7698235E1],"tree_param":{"num_deleted":"0","num_feature":"9","num_nodes":"7","size_leaf_vector":"1"}},{"base_weights":[3.526163E-2,-9.592887E-2,6.478286E-1,-7.368013E-3,8.681096E-3,-6.4336243E-3,2.2011496E-2],"categories":[],"categories_nodes":[],"categories_segments":[],"categories_sizes":[],"default_left":[0,0,0,0,0,0,0],"id":61,"left_children":[1,3,5,-1,-1,-1,-1],"loss_changes":[1.6159136E1,9.719536E0,2.9403276E0,0E0,0E0,0E0,0E0],"parents":[2147483647,0,0,1,1,2,2],"right_children":[2,4,6,-1,-1,-1,-1],"split_conditions":[2.369E3,1E0,-7E0,-7.368013E-3,8.681096E-3,-6.4336243E-3,2.2011496E-2],"split_indices":[6,4,2,0,0,0,0],"split_type":[0,0,0,0,0,0,0],"sum_hessian":[1.9753029E2,1.6407742E2,3.3452873E1,1.18694855E2,4.538257E1,2.7590687E0,3.0693804E1],"tree_param":{"num_deleted":"0","num_feature":"9","num_nodes":"7","size_leaf_vector":"1"}},{"base_weights":[-4.7258176E-2,-2.6504695E-1,4.0470806E-1,-1.5338335E-2,-9.5091027E-4,6.3334727E-3,2.2563728E-2],"categories":[],"categories_nodes":[],"categories_segments":[],"categories_sizes":[],"default_left":[0,0,0,0,0,0,0],"id":62,"left_children":[1,3,5,-1,-1,-1,-1],"loss_changes":[1.969331E1,7.709943E0,4.063567E0,0E0,0E0,0E0,0E0],"parents":[2147483647,0,0,1,1,2,2],"right_children":[2,4,6,-1,-1,-1,-1],"split_conditions":[3E0,0E0,3.796E3,-1.5338335E-2,-9.5091027E-4,6.3334727E-3,2.2563728E-2],"split_indices":[1,4,0,0,0,0,0],"split_type":[0,0,0,0,0,0,0],"sum_hessian":[1.9588832E2,1.3274815E2,6.3140167E1,6.343231E1,6.931585E1,4.2611126E1,2.052904E1],"tree_param":{"num_deleted":"0","num_feature":"9","num_nodes":"7","size_leaf_vector":"1"}},{"base_weights":[7.176471E-2,-1.1243631E-1,5.231321E-1,-2.0258745E-2,-2.3461433E-4,1.14437975E-2,2.977494E-2],"categories":[],"categories_nodes":[],"categories_segments":[],"categories_sizes":[],"default_left":[0,0,0,0,0,0,0],"id":63,"left_children":[1,3,5,-1,-1,-1,-1],"loss_changes":[1.6299547E1,8.225343E0,3.017212E0,0E0,0E0,0E0,0E0],"parents":[2147483647,0,0,1,1,2,2],"right_children":[2,4,6,-1,-1,-1,-1],"split_conditions":[1.493E3,-4.18755E3,5.31455E3,-2.0258745E-2,-2.3461433E-4,1.14437975E-2,2.977494E-2],"split_indices":[0,7,7,0,0,0,0],"split_type":[0,0,0,0,0,0,0],"sum_hessian":[1.92629E2,1.3786763E2,5.4761368E1,1.9898668E1,1.1796896E2,4.484953E1,9.911838E0],"tree_param":{"num_deleted":"0","num_feature":"9","num_nodes":"7","size_leaf_vector":"1"}},{"base_weights":[2.9418128E-2,-3.813308E-1,2.3739599E-1,-2.0250281E-2,-4.249194E-3,3.447461E-3,2.3115298E-2],"categories":[],"categories_nodes":[],"categories_segments":[],"categories_sizes":[],"default_left":[0,0,0,0,0,0,0],"id":64,"left_children":[1,3,5,-1,-1,-1,-1],"loss_changes":[1.6797356E1,4.465186E0,8.334915E0,0E0,0E0,0E0,0E0],"parents":[2147483647,0,0,1,1,2,2],"right_children":[2,4,6,-1,-1,-1,-1],"split_conditions":[-2E0,-1E0,3.46455E3,-2.0250281E-2,-4.249194E-3,3.447461E-3,2.3115298E-2],"split_indices":[1,5,7,0,0,0,0],"split_type":[0,0,0,0,0,0,0],"sum_hessian":[1.9250952E2,6.41495E1,1.2836002E2,2.7195814E1,3.6953682E1,1.0635625E2,2.2003775E1],"tree_param":{"num_deleted":"0","num_feature":"9","num_nodes":"7","size_leaf_vector":"1"}},{"base_weights":[-4.6721995E-2,-1.6039982E-1,2.0135304E-2,-2.2040673E-2,-1.9047859E-3],"categories":[],"categories_nodes":[],"categories_segments":[],"categories_sizes":[],"default_left":[0,0,0,0,0],"id":65,"left_children":[1,3,-1,-1,-1],"loss_changes":[1.6130966E1,9.36638E0,0E0,0E0,0E0],"parents":[2147483647,0,0,1,1],"right_children":[2,4,-1,-1,-1],"split_conditions":[4.6E1,-3.883E3,2.0135304E-2,-2.2040673E-2,-1.9047859E-3],"split_indices":[2,0,0,0,0],"split_type":[0,0,0,0,0],"sum_hessian":[1.9302283E2,1.6797713E2,2.50457E1,2.2352013E1,1.4562512E2],"tree_param":{"num_deleted":"0","num_feature":"9","num_nodes":"5","size_leaf_vector":"1"}},{"base_weights":[1.0356756E-2,-2.3216149E-2,1.1197072E-1,6.390821E-4,1.6463323E-2],"categories":[],"categories_nodes":[],"categories_segments":[],"categories_sizes":[],"default_left":[0,0,0,0,0],"id":66,"left_children":[1,-1,3,-1,-1],"loss_changes":[1.5774132E1,0E0,6.909876E0,0E0,0E0],"parents":[2147483647,0,0,2,2],"right_children":[2,-1,4,-1,-1],"split_conditions":[-4.02415E3,-2.3216149E-2,3.07025E3,6.390821E-4,1.6463323E-2],"split_indices":[7,0,7,0,0],"split_type":[0,0,0,0,0],"sum_hessian":[1.9377252E2,2.0709642E1,1.7306288E2,1.4505197E2,2.8010906E1],"tree_param":{"num_deleted":"0","num_feature":"9","num_nodes":"5","size_leaf_vector":"1"}},{"base_weights":[2.798404E-2,-2.1889482E-1,2.7496642E-1,-1.3356014E-2,-3.0002637E-5,4.647905E-3,2.2448601E-2],"categories":[],"categories_nodes":[],"categories_segments":[],"categories_sizes":[],"default_left":[0,0,0,0,0,0,0],"id":67,"left_children":[1,3,5,-1,-1,-1,-1],"loss_changes":[1.176321E1,4.7628384E0,5.241697E0,0E0,0E0,0E0,0E0],"parents":[2147483647,0,0,1,1,2,2],"right_children":[2,4,6,-1,-1,-1,-1],"split_conditions":[-5E0,-1.703E3,4E3,-1.3356014E-2,-3.0002637E-5,4.647905E-3,2.2448601E-2],"split_indices":[2,0,0,0,0,0,0],"split_type":[0,0,0,0,0,0,0],"sum_hessian":[1.8894524E2,9.460616E1,9.4339066E1,4.538396E1,4.92222E1,7.737186E1,1.696721E1],"tree_param":{"num_deleted":"0","num_feature":"9","num_nodes":"7","size_leaf_vector":"1"}},{"base_weights":[-5.3917106E-2,-1.604103E-1,1.6027562E-2,-1.2893883E-2,1.3987558E-3],"categories":[],"categories_nodes":[],"categories_segments":[],"categories_sizes":[],"default_left":[0,0,0,0,0],"id":68,"left_children":[1,3,-1,-1,-1],"loss_changes":[1.2144298E1,9.152443E0,0E0,0E0,0E0],"parents":[2147483647,0,0,1,1],"right_children":[2,4,-1,-1,-1],"split_conditions":[3.07025E3,0E0,1.6027562E-2,-1.2893883E-2,1.3987558E-3],"split_indices":[7,4,0,0,0],"split_type":[0,0,0,0,0],"sum_hessian":[1.8915036E2,1.6138477E2,2.7765585E1,6.919685E1,9.218792E1],"tree_param":{"num_deleted":"0","num_feature":"9","num_nodes":"5","size_leaf_vector":"1"}},{"base_weights":[-2.6631119E-2,-2.1136868E-1,3.707568E-1,-8.2896715E-3,1.5277664E-2,-5.7495185E-3,1.7078763E-2],"categories":[],"categories_nodes":[],"categories_segments":[],"categories_sizes":[],"default_left":[0,0,0,0,0,0,0],"id":69,"left_children":[1,3,5,-1,-1,-1,-1],"loss_changes":[1.4494928E1,6.58179E0,7.220026E0,0E0,0E0,0E0,0E0],"parents":[2147483647,0,0,1,1,2,2],"right_children":[2,4,6,-1,-1,-1,-1],"split_conditions":[1E0,3.42705E3,-6.27E2,-8.2896715E-3,1.5277664E-2,-5.7495185E-3,1.7078763E-2],"split_indices":[4,7,0,0,0,0,0],"split_type":[0,0,0,0,0,0,0],"sum_hessian":[1.9331006E2,1.3260219E2,6.0707855E1,1.2276943E2,9.832763E0,1.58572035E1,4.4850655E1],"tree_param":{"num_deleted":"0","num_feature":"9","num_nodes":"7","size_leaf_vector":"1"}},{"base_weights":[-1.70705E-2,-2.0791773E-1,3.9197502E-1,-2.1994116E-2,-3.442549E-3,-9.206777E-3,1.6477158E-2],"categories":[],"categories_nodes":[],"categories_segments":[],"categories_sizes":[],"default_left":[0,0,0,0,0,0,0],"id":70,"left_children":[1,3,5,-1,-1,-1,-1],"loss_changes":[1.4951196E1,6.2162347E0,7.036886E0,0E0,0E0,0E0,0E0],"parents":[2147483647,0,0,1,1,2,2],"right_children":[2,4,6,-1,-1,-1,-1],"split_conditions":[1E0,-3.883E3,-2E0,-2.1994116E-2,-3.442549E-3,-9.206777E-3,1.6477158E-2],"split_indices":[4,0,1,0,0,0,0],"split_type":[0,0,0,0,0,0,0],"sum_hessian":[1.8743393E2,1.2847508E2,5.895886E1,1.7286268E1,1.11188805E2,1.0480668E1,4.847819E1],"tree_param":{"num_deleted":"0","num_feature":"9","num_nodes":"7","size_leaf_vector":"1"}},{"base_weights":[-3.5715505E-2,-1.4333658E-1,5.0250846E-1,-6.1797686E-3,2.1771356E-2,-1.9697521E-3,2.1689022E-2],"categories":[],"categories_nodes":[],"categories_segments":[],"categories_sizes":[],"default_left":[0,0,0,0,0,0,0],"id":71,"left_children":[1,3,5,-1,-1,-1,-1],"loss_changes":[1.1214666E1,9.056342E0,4.139721E0,0E0,0E0,0E0,0E0],"parents":[2147483647,0,0,1,1,2,2],"right_children":[2,4,6,-1,-1,-1,-1],"split_conditions":[2E0,6.5E1,-6.75E0,-6.1797686E-3,2.1771356E-2,-1.9697521E-3,2.1689022E-2],"split_indices":[4,2,7,0,0,0,0],"split_type":[0,0,0,0,0,0,0],"sum_hessian":[1.8912225E2,1.5883052E2,3.0291733E1,1.4957272E2,9.257797E0,8.860585E0,2.1431147E1],"tree_param":{"num_deleted":"0","num_feature":"9","num_nodes":"7","size_leaf_vector":"1"}},{"base_weights":[2.4432372E-2,-2.8015804E-1,2.0065838E-1,-1.0345428E-2,9.636529E-3,3.2241198E-3,1.8831069E-2],"categories":[],"categories_nodes":[],"categories_segments":[],"categories_sizes":[],"default_left":[0,0,0,0,0,0,0],"id":72,"left_children":[1,3,5,-1,-1,-1,-1],"loss_changes":[1.0390523E1,2.9842286E0,4.7386446E0,0E0,0E0,0E0,0E0],"parents":[2147483647,0,0,1,1,2,2],"right_children":[2,4,6,-1,-1,-1,-1],"split_conditions":[-1.019E3,1.3E1,8E0,-1.0345428E-2,9.636529E-3,3.2241198E-3,1.8831069E-2],"split_indices":[0,2,1,0,0,0,0],"split_type":[0,0,0,0,0,0,0],"sum_hessian":[1.894812E2,6.901522E1,1.2046598E2,6.3082603E1,5.932615E0,1.0094214E2,1.9523846E1],"tree_param":{"num_deleted":"0","num_feature":"9","num_nodes":"7","size_leaf_vector":"1"}},{"base_weights":[3.754097E-2,-7.1651496E-2,1.6172497E-2,-2.1442173E-2,-4.0247975E-4],"categories":[],"categories_nodes":[],"categories_segments":[],"categories_sizes":[],"default_left":[0,0,0,0,0],"id":73,"left_children":[1,3,-1,-1,-1],"loss_changes":[1.0368425E1,5.8262672E0,0E0,0E0,0E0],"parents":[2147483647,0,0,1,1],"right_children":[2,4,-1,-1,-1],"split_conditions":[2.167E3,-4.407E3,1.6172497E-2,-2.1442173E-2,-4.0247975E-4],"split_indices":[6,6,0,0,0],"split_type":[0,0,0,0,0],"sum_hessian":[1.8591638E2,1.5408443E2,3.1831964E1,1.0922464E1,1.4316196E2],"tree_param":{"num_deleted":"0","num_feature":"9","num_nodes":"5","size_leaf_vector":"1"}},{"base_weights":[8.873395E-3,-2.9627237E-1,2.3365444E-1,-1.4982907E-2,4.012208E-4,4.8559583E-3,2.7890472E-2],"categories":[],"categories_nodes":[],"categories_segments":[],"categories_sizes":[],"default_left":[0,0,0,0,0,0,0],"id":74,"left_children":[1,3,5,-1,-1,-1,-1],"loss_changes":[1.3212571E1,5.154981E0,5.2392216E0,0E0,0E0,0E0,0E0],"parents":[2147483647,0,0,1,1,2,2],"right_children":[2,4,6,-1,-1,-1,-1],"split_conditions":[-5.9575E2,0E0,5.712E3,-1.4982907E-2,4.012208E-4,4.8559583E-3,2.7890472E-2],"split_indices":[7,3,0,0,0,0,0],"split_type":[0,0,0,0,0,0,0],"sum_hessian":[1.8860991E2,7.973356E1,1.0887635E2,4.74053E1,3.2328262E1,1.0093129E2,7.945062E0],"tree_param":{"num_deleted":"0","num_feature":"9","num_nodes":"7","size_leaf_vector":"1"}},{"base_weights":[1.1281077E-1,-1.1465901E-1,3.3211985E-1,-2.1087557E-2,-7.617809E-4,7.0543527E-3,2.6680833E-2],"categories":[],"categories_nodes":[],"categories_segments":[],"categories_sizes":[],"default_left":[0,0,0,0,0,0,0],"id":75,"left_children":[1,3,5,-1,-1,-1,-1],"loss_changes":[9.606065E0,4.9664946E0,4.865306E0,0E0,0E0,0E0,0E0],"parents":[2147483647,0,0,1,1,2,2],"right_children":[2,4,6,-1,-1,-1,-1],"split_conditions":[-6E0,-7.4E1,6.5E1,-2.1087557E-2,-7.617809E-4,7.0543527E-3,2.6680833E-2],"split_indices":[2,2,2,0,0,0,0],"split_type":[0,0,0,0,0,0,0],"sum_hessian":[1.890329E2,9.3258514E1,9.577438E1,1.0475673E1,8.2782845E1,8.40001E1,1.1774286E1],"tree_param":{"num_deleted":"0","num_feature":"9","num_nodes":"7","size_leaf_vector":"1"}},{"base_weights":[2.6758868E-2,-5.6928862E-2,2.0027954E-2,-1.3192513E-2,2.0735946E-3],"categories":[],"categories_nodes":[],"categories_segments":[],"categories_sizes":[],"default_left":[0,0,0,0,0],"id":76,"left_children":[1,3,-1,-1,-1],"loss_changes":[1.0412305E1,8.375607E0,0E0,0E0,0E0],"parents":[2147483647,0,0,1,1],"right_children":[2,4,-1,-1,-1],"split_conditions":[2.955E3,-1E0,2.0027954E-2,-1.3192513E-2,2.0735946E-3],"split_indices":[6,4,0,0,0],"split_type":[0,0,0,0,0],"sum_hessian":[1.9073193E2,1.7031297E2,2.0418968E1,4.0954098E1,1.2935887E2],"tree_param":{"num_deleted":"0","num_feature":"9","num_nodes":"5","size_leaf_vector":"1"}},{"base_weights":[3.4419324E-2,-3.985137E-2,2.0025246E-2,-1.524301E-2,8.009675E-4],"categories":[],"categories_nodes":[],"categories_segments":[],"categories_sizes":[],"default_left":[0,0,0,0,0],"id":77,"left_children":[1,3,-1,-1,-1],"loss_changes":[9.124493E0,5.466636E0,0E0,0E0,0E0],"parents":[2147483647,0,0,1,1],"right_children":[2,4,-1,-1,-1],"split_conditions":[3.796E3,-5.9E1,2.0025246E-2,-1.524301E-2,8.009675E-4],"split_indices":[0,2,0,0,0],"split_type":[0,0,0,0,0],"sum_hessian":[1.9092429E2,1.7255511E2,1.8369164E1,1.9821442E1,1.5273367E2],"tree_param":{"num_deleted":"0","num_feature":"9","num_nodes":"5","size_leaf_vector":"1"}},{"base_weights":[2.2495314E-2,-2.7018264E-1,2.289151E-1,-1.8021878E-2,-8.5443724E-4,3.8335512E-3,2.0811185E-2],"categories":[],"categories_nodes":[],"categories_segments":[],"categories_sizes":[],"default_left":[0,0,0,0,0,0,0],"id":78,"left_children":[1,3,5,-1,-1,-1,-1],"loss_changes":[1.1458366E1,6.2384043E0,5.0450225E0,0E0,0E0,0E0,0E0],"parents":[2147483647,0,0,1,1,2,2],"right_children":[2,4,6,-1,-1,-1,-1],"split_conditions":[-1E0,-1E0,8E0,-1.8021878E-2,-8.5443724E-4,3.8335512E-3,2.0811185E-2],"split_indices":[1,5,1,0,0,0,0],"split_type":[0,0,0,0,0,0,0],"sum_hessian":[1.8561497E2,7.651222E1,1.0910275E2,3.1061802E1,4.545042E1,9.17003E1,1.7402452E1],"tree_param":{"num_deleted":"0","num_feature":"9","num_nodes":"7","size_leaf_vector":"1"}},{"base_weights":[-1.31072E-2,-1.9548677E-1,3.250024E-1,-1.838831E-2,-1.3146743E-3,5.3768703E-3,2.2755334E-2],"categories":[],"categories_nodes":[],"categories_segments":[],"categories_sizes":[],"default_left":[0,0,0,0,0,0,0],"id":79,"left_children":[1,3,5,-1,-1,-1,-1],"loss_changes":[1.1504998E1,7.614098E0,3.8613095E0,0E0,0E0,0E0,0E0],"parents":[2147483647,0,0,1,1,2,2],"right_children":[2,4,6,-1,-1,-1,-1],"split_conditions":[1.2E1,-1E0,4E3,-1.838831E-2,-1.3146743E-3,5.3768703E-3,2.2755334E-2],"split_indices":[2,4,0,0,0,0,0],"split_type":[0,0,0,0,0,0,0],"sum_hessian":[1.825141E2,1.1910914E2,6.3404964E1,3.01202E1,8.898894E1,4.9564934E1,1.3840031E1],"tree_param":{"num_deleted":"0","num_feature":"9","num_nodes":"7","size_leaf_vector":"1"}},{"base_weights":[1.6937932E-2,-3.3903655E-1,1.3888894E-1,-1.8538712E-2,-4.7395653E-3,-7.413265E-3,6.6715777E-3],"categories":[],"categories_nodes":[],"categories_segments":[],"categories_sizes":[],"default_left":[0,0,0,0,0,0,0],"id":80,"left_children":[1,3,5,-1,-1,-1,-1],"loss_changes":[8.20775E0,2.2424154E0,4.642284E0,0E0,0E0,0E0,0E0],"parents":[2147483647,0,0,1,1,2,2],"right_children":[2,4,6,-1,-1,-1,-1],"split_conditions":[-1.831E3,-5.6E1,-1E0,-1.8538712E-2,-4.7395653E-3,-7.413265E-3,6.6715777E-3],"split_indices":[6,2,4,0,0,0,0],"split_type":[0,0,0,0,0,0,0],"sum_hessian":[1.848994E2,4.627185E1,1.3862755E2,1.631352E1,2.9958332E1,2.3957155E1,1.14670395E2],"tree_param":{"num_deleted":"0","num_feature":"9","num_nodes":"7","size_leaf_vector":"1"}},{"base_weights":[-1.5629578E-2,-2.8984377E-1,1.6103587E-1,-1.5895996E-2,8.475225E-4,2.9693865E-3,2.4234334E-2],"categories":[],"categories_nodes":[],"categories_segments":[],"categories_sizes":[],"default_left":[0,0,0,0,0,0,0],"id":81,"left_children":[1,3,5,-1,-1,-1,-1],"loss_changes":[9.133607E0,5.667107E0,4.4468937E0,0E0,0E0,0E0,0E0],"parents":[2147483647,0,0,1,1,2,2],"right_children":[2,4,6,-1,-1,-1,-1],"split_conditions":[0E0,3E0,5.247E3,-1.5895996E-2,8.475225E-4,2.9693865E-3,2.4234334E-2],"split_indices":[4,5,0,0,0,0,0],"split_type":[0,0,0,0,0,0,0],"sum_hessian":[1.8461185E2,7.183331E1,1.1277854E2,4.0181942E1,3.165137E1,1.0500926E2,7.7692776E0],"tree_param":{"num_deleted":"0","num_feature":"9","num_nodes":"7","size_leaf_vector":"1"}},{"base_weights":[1.3995872E-2,-6.0903564E-2,1.8338865E-2,-5.524243E-3,7.445306E-3],"categories":[],"categories_nodes":[],"categories_segments":[],"categories_sizes":[],"default_left":[0,0,0,0,0],"id":82,"left_children":[1,3,-1,-1,-1],"loss_changes":[8.301477E0,6.3848505E0,0E0,0E0,0E0],"parents":[2147483647,0,0,1,1],"right_children":[2,4,-1,-1,-1],"split_conditions":[2.955E3,1E0,1.8338865E-2,-5.524243E-3,7.445306E-3],"split_indices":[6,4,0,0,0],"split_type":[0,0,0,0,0],"sum_hessian":[1.8189569E2,1.63224E2,1.8671688E1,1.17272896E2,4.59511E1],"tree_param":{"num_deleted":"0","num_feature":"9","num_nodes":"5","size_leaf_vector":"1"}},{"base_weights":[-3.6143105E-2,-2.853958E-1,2.2349621E-1,-1.26209175E-2,4.5476654E-3,3.6226248E-3,2.4446359E-2],"categories":[],"categories_nodes":[],"categories_segments":[],"categories_sizes":[],"default_left":[0,0,0,0,0,0,0],"id":83,"left_children":[1,3,5,-1,-1,-1,-1],"loss_changes":[1.2176433E1,5.7957664E0,5.412075E0,0E0,0E0,0E0,0E0],"parents":[2147483647,0,0,1,1,2,2],"right_children":[2,4,6,-1,-1,-1,-1],"split_conditions":[-4E0,1E0,6.5E1,-1.26209175E-2,4.5476654E-3,3.6226248E-3,2.4446359E-2],"split_indices":[2,4,2,0,0,0,0],"split_type":[0,0,0,0,0,0,0],"sum_hessian":[1.8418117E2,9.386896E1,9.031222E1,7.1733116E1,2.2135841E1,7.899639E1,1.1315823E1],"tree_param":{"num_deleted":"0","num_feature":"9","num_nodes":"7","size_leaf_vector":"1"}},{"base_weights":[4.826603E-2,-2.1180954E-2,9.502089E-2,-5.4465176E-4,9.754406E-3],"categories":[],"categories_nodes":[],"categories_segments":[],"categories_sizes":[],"default_left":[0,0,0,0,0],"id":84,"left_children":[1,-1,3,-1,-1],"loss_changes":[6.688002E0,0E0,4.615219E0,0E0,0E0],"parents":[2147483647,0,0,2,2],"right_children":[2,-1,4,-1,-1],"split_conditions":[-4.587E3,-2.1180954E-2,1E0,-5.4465176E-4,9.754406E-3],"split_indices":[6,0,4,0,0],"split_type":[0,0,0,0,0],"sum_hessian":[1.8383406E2,9.083775E0,1.7475029E2,1.1837546E2,5.6374832E1],"tree_param":{"num_deleted":"0","num_feature":"9","num_nodes":"5","size_leaf_vector":"1"}},{"base_weights":[-4.7473736E-2,-1.4637604E-1,1.506156E-2,-9.857992E-3,4.9546675E-4],"categories":[],"categories_nodes":[],"categories_segments":[],"categories_sizes":[],"default_left":[0,0,0,0,0],"id":85,"left_children":[1,3,-1,-1,-1],"loss_changes":[1.0335342E1,4.7724476E0,0E0,0E0,0E0],"parents":[2147483647,0,0,1,1],"right_children":[2,4,-1,-1,-1],"split_conditions":[2.403E3,-1E0,1.506156E-2,-9.857992E-3,4.9546675E-4],"split_indices":[6,1,0,0,0],"split_type":[0,0,0,0,0],"sum_hessian":[1.8546059E2,1.5841644E2,2.7044144E1,7.381097E1,8.460548E1],"tree_param":{"num_deleted":"0","num_feature":"9","num_nodes":"5","size_leaf_vector":"1"}},{"base_weights":[-9.631115E-3,-7.963893E-2,2.6369683E-2,-2.1582993E-2,-9.972905E-4],"categories":[],"categories_nodes":[],"categories_segments":[],"categories_sizes":[],"default_left":[0,0,0,0,0],"id":86,"left_children":[1,3,-1,-1,-1],"loss_changes":[1.1525677E1,5.0425587E0,0E0,0E0,0E0],"parents":[2147483647,0,0,1,1],"right_children":[2,4,-1,-1,-1],"split_conditions":[6.5E1,-7.4E1,2.6369683E-2,-2.1582993E-2,-9.972905E-4],"split_indices":[2,2,0,0,0],"split_type":[0,0,0,0,0],"sum_hessian":[1.8101884E2,1.6948698E2,1.1531861E1,9.4979925E0,1.59989E2],"tree_param":{"num_deleted":"0","num_feature":"9","num_nodes":"5","size_leaf_vector":"1"}},{"base_weights":[-2.6383344E-2,-2.9256785E-1,1.7418626E-1,-1.3430442E-2,1.1324304E-3,2.3093186E-3,2.0969337E-2],"categories":[],"categories_nodes":[],"categories_segments":[],"categories_sizes":[],"default_left":[0,0,0,0,0,0,0],"id":87,"left_children":[1,3,5,-1,-1,-1,-1],"loss_changes":[9.892996E0,4.109777E0,5.291782E0,0E0,0E0,0E0,0E0],"parents":[2147483647,0,0,1,1,2,2],"right_children":[2,4,6,-1,-1,-1,-1],"split_conditions":[-5.9575E2,3E0,3.94255E3,-1.3430442E-2,1.1324304E-3,2.3093186E-3,2.0969337E-2],"split_indices":[7,5,7,0,0,0,0],"split_type":[0,0,0,0,0,0,0],"sum_hessian":[1.8139284E2,7.7552376E1,1.03840454E2,5.228781E1,2.5264568E1,8.954676E1,1.4293694E1],"tree_param":{"num_deleted":"0","num_feature":"9","num_nodes":"7","size_leaf_vector":"1"}},{"base_weights":[-4.0282138E-2,-8.8592924E-2,2.6673358E-2,-1.9485505E-2,-1.1412522E-3],"categories":[],"categories_nodes":[],"categories_segments":[],"categories_sizes":[],"default_left":[0,0,0,0,0],"id":88,"left_children":[1,3,-1,-1,-1],"loss_changes":[8.618631E0,5.081526E0,0E0,0E0,0E0],"parents":[2147483647,0,0,1,1],"right_children":[2,4,-1,-1,-1],"split_conditions":[5.31455E3,-6.8E1,2.6673358E-2,-1.9485505E-2,-1.1412522E-3],"split_indices":[7,2,0,0,0],"split_type":[0,0,0,0,0],"sum_hessian":[1.8644409E2,1.7895139E2,7.4927096E0,1.2834983E1,1.661164E2],"tree_param":{"num_deleted":"0","num_feature":"9","num_nodes":"5","size_leaf_vector":"1"}},{"base_weights":[-7.6063075E-3,-1.668309E-1,3.4105808E-1,-2.0934701E-2,-2.1008456E-3,-5.5943517E-4,1.4098389E-2],"categories":[],"categories_nodes":[],"categories_segments":[],"categories_sizes":[],"default_left":[0,0,0,0,0,0,0],"id":89,"left_children":[1,3,5,-1,-1,-1,-1],"loss_changes":[1.0427184E1,6.5266857E0,2.7481208E0,0E0,0E0,0E0,0E0],"parents":[2147483647,0,0,1,1,2,2],"right_children":[2,4,6,-1,-1,-1,-1],"split_conditions":[1E0,-5.4E1,0E0,-2.0934701E-2,-2.1008456E-3,-5.5943517E-4,1.4098389E-2],"split_indices":[4,2,3,0,0,0,0],"split_type":[0,0,0,0,0,0,0],"sum_hessian":[1.8377339E2,1.2687597E2,5.6897427E1,1.7648901E1,1.09227066E2,1.5460458E1,4.143697E1],"tree_param":{"num_deleted":"0","num_feature":"9","num_nodes":"7","size_leaf_vector":"1"}},{"base_weights":[1.6049646E-2,-2.2923072E-1,1.7666502E-1,-9.81149E-3,1.6076853E-2,3.7170486E-3,2.5078328E-2],"categories":[],"categories_nodes":[],"categories_segments":[],"categories_sizes":[],"default_left":[0,0,0,0,0,0,0],"id":90,"left_children":[1,3,5,-1,-1,-1,-1],"loss_changes":[7.2522316E0,5.8067226E0,3.6585793E0,0E0,0E0,0E0,0E0],"parents":[2147483647,0,0,1,1,2,2],"right_children":[2,4,6,-1,-1,-1,-1],"split_conditions":[0E0,5E0,5.31455E3,-9.81149E-3,1.6076853E-2,3.7170486E-3,2.5078328E-2],"split_indices":[4,1,7,0,0,0,0],"split_type":[0,0,0,0,0,0,0],"sum_hessian":[1.8003052E2,7.090106E1,1.09129456E2,6.3879387E1,7.0216727E0,1.03242615E2,5.8868375E0],"tree_param":{"num_deleted":"0","num_feature":"9","num_nodes":"7","size_leaf_vector":"1"}},{"base_weights":[-3.4273695E-2,-1.7720622E-1,2.539159E-1,-1.3939284E-2,-2.0941168E-3,1.9264113E-2,4.566126E-3],"categories":[],"categories_nodes":[],"categories_segments":[],"categories_sizes":[],"default_left":[0,0,0,0,0,0,0],"id":91,"left_children":[1,3,5,-1,-1,-1,-1],"loss_changes":[7.5269723E0,3.6973093E0,2.200558E0,0E0,0E0,0E0,0E0],"parents":[2147483647,0,0,1,1,2,2],"right_children":[2,4,6,-1,-1,-1,-1],"split_conditions":[1.2E1,-1E0,-8.2E1,-1.3939284E-2,-2.0941168E-3,1.9264113E-2,4.566126E-3],"split_indices":[2,4,0,0,0,0,0],"split_type":[0,0,0,0,0,0,0],"sum_hessian":[1.7854578E2,1.1986627E2,5.86795E1,3.079594E1,8.907033E1,9.975941E0,4.870356E1],"tree_param":{"num_deleted":"0","num_feature":"9","num_nodes":"7","size_leaf_vector":"1"}},{"base_weights":[2.6355216E-2,-2.4751526E-1,2.1802796E-1,-1.0311697E-2,1.5698673E-2,-1.2858547E-2,8.450871E-3],"categories":[],"categories_nodes":[],"categories_segments":[],"categories_sizes":[],"default_left":[0,0,0,0,0,0,0],"id":92,"left_children":[1,3,5,-1,-1,-1,-1],"loss_changes":[9.684537E0,5.999276E0,4.703784E0,0E0,0E0,0E0,0E0],"parents":[2147483647,0,0,1,1,2,2],"right_children":[2,4,6,-1,-1,-1,-1],"split_conditions":[0E0,2.441E3,-3.82485E3,-1.0311697E-2,1.5698673E-2,-1.2858547E-2,8.450871E-3],"split_indices":[4,0,7,0,0,0,0],"split_type":[0,0,0,0,0,0,0],"sum_hessian":[1.804341E2,7.404815E1,1.0638595E2,6.681658E1,7.2315683E0,8.508142E0,9.787781E1],"tree_param":{"num_deleted":"0","num_feature":"9","num_nodes":"7","size_leaf_vector":"1"}},{"base_weights":[2.9803755E-2,-7.9510756E-2,1.8045275E-2,-2.1206183E-2,-1.1773638E-3],"categories":[],"categories_nodes":[],"categories_segments":[],"categories_sizes":[],"default_left":[0,0,0,0,0],"id":93,"left_children":[1,3,-1,-1,-1],"loss_changes":[1.1527864E1,3.8683357E0,0E0,0E0,0E0],"parents":[2147483647,0,0,1,1],"right_children":[2,4,-1,-1,-1],"split_conditions":[4.3E1,-4.587E3,1.8045275E-2,-2.1206183E-2,-1.1773638E-3],"split_indices":[2,6,0,0,0],"split_type":[0,0,0,0,0],"sum_hessian":[1.8092796E2,1.5333162E2,2.7596348E1,7.2506433E0,1.4608098E2],"tree_param":{"num_deleted":"0","num_feature":"9","num_nodes":"5","size_leaf_vector":"1"}},{"base_weights":[2.5332272E-2,-5.0158787E-1,1.6794017E-1,-2.0671176E-2,1.0954494E-2,3.7353316E-3,2.3281228E-2],"categories":[],"categories_nodes":[],"categories_segments":[],"categories_sizes":[],"default_left":[0,0,0,0,0,0,0],"id":94,"left_children":[1,3,5,-1,-1,-1,-1],"loss_changes":[1.4010345E1,6.959381E0,3.674909E0,0E0,0E0,0E0,0E0],"parents":[2147483647,0,0,1,1,2,2],"right_children":[2,4,6,-1,-1,-1,-1],"split_conditions":[-1E0,1.079E3,5.247E3,-2.0671176E-2,1.0954494E-2,3.7353316E-3,2.3281228E-2],"split_indices":[4,0,0,0,0,0,0],"split_type":[0,0,0,0,0,0,0],"sum_hessian":[1.8220712E2,3.7737354E1,1.4446977E2,3.1364185E1,6.3731666E0,1.3708873E2,7.3810434E0],"tree_param":{"num_deleted":"0","num_feature":"9","num_nodes":"7","size_leaf_vector":"1"}},{"base_weights":[-2.3160195E-2,-1.07942574E-1,1.282893E-2,-9.328335E-3,4.5498917E-4],"categories":[],"categories_nodes":[],"categories_segments":[],"categories_sizes":[],"default_left":[0,0,0,0,0],"id":95,"left_children":[1,3,-1,-1,-1],"loss_changes":[6.9664736E0,3.8327565E0,0E0,0E0,0E0],"parents":[2147483647,0,0,1,1],"right_children":[2,4,-1,-1,-1],"split_conditions":[4.3E1,-2E0,1.282893E-2,-9.328335E-3,4.5498917E-4],"split_indices":[2,1,0,0,0],"split_type":[0,0,0,0,0],"sum_hessian":[1.7786153E2,1.50986E2,2.6875534E1,5.5846184E1,9.513981E1],"tree_param":{"num_deleted":"0","num_feature":"9","num_nodes":"5","size_leaf_vector":"1"}},{"base_weights":[1.7531311E-2,-1.4418133E-1,3.6539227E-1,-6.5861885E-3,1.9663036E-2,-3.5162503E-3,1.4345871E-2],"categories":[],"categories_nodes":[],"categories_segments":[],"categories_sizes":[],"default_left":[0,0,0,0,0,0,0],"id":96,"left_children":[1,3,5,-1,-1,-1,-1],"loss_changes":[1.0269723E1,7.8068147E0,3.2645059E0,0E0,0E0,0E0,0E0],"parents":[2147483647,0,0,1,1,2,2],"right_children":[2,4,6,-1,-1,-1,-1],"split_conditions":[1E0,7E0,-2E0,-6.5861885E-3,1.9663036E-2,-3.5162503E-3,1.4345871E-2],"split_indices":[4,1,1,0,0,0,0],"split_type":[0,0,0,0,0,0,0],"sum_hessian":[1.786884E2,1.2278124E2,5.590716E1,1.1353248E2,9.248764E0,1.0577204E1,4.5329956E1],"tree_param":{"num_deleted":"0","num_feature":"9","num_nodes":"7","size_leaf_vector":"1"}},{"base_weights":[5.656142E-2,-1.1735582E-2,1.10618316E-1,2.2538812E-3,2.1860255E-2],"categories":[],"categories_nodes":[],"categories_segments":[],"categories_sizes":[],"default_left":[0,0,0,0,0],"id":97,"left_children":[1,-1,3,-1,-1],"loss_changes":[4.348465E0,0E0,3.3709133E0,0E0,0E0],"parents":[2147483647,0,0,2,2],"right_children":[2,-1,4,-1,-1],"split_conditions":[-4.02415E3,-1.1735582E-2,5.31455E3,2.2538812E-3,2.1860255E-2],"split_indices":[7,0,7,0,0],"split_type":[0,0,0,0,0],"sum_hessian":[1.7408447E2,1.7409588E1,1.566749E2,1.5028842E2,6.386473E0],"tree_param":{"num_deleted":"0","num_feature":"9","num_nodes":"5","size_leaf_vector":"1"}},{"base_weights":[7.293815E-2,2.6242573E-2,6.8399554E-1,-1.518338E-3,1.4154901E-2,2.8576508E-2,3.730911E-4],"categories":[],"categories_nodes":[],"categories_segments":[],"categories_sizes":[],"default_left":[0,0,0,0,0,0,0],"id":98,"left_children":[1,3,5,-1,-1,-1,-1],"loss_changes":[5.1401753E0,5.8901076E0,2.2845078E0,0E0,0E0,0E0,0E0],"parents":[2147483647,0,0,1,1,2,2],"right_children":[2,4,6,-1,-1,-1,-1],"split_conditions":[6.5E1,2E0,4.254E3,-1.518338E-3,1.4154901E-2,2.8576508E-2,3.730911E-4],"split_indices":[2,4,6,0,0,0,0],"split_type":[0,0,0,0,0,0,0],"sum_hessian":[1.7940228E2,1.6860387E2,1.0798422E1,1.453134E2,2.3290468E1,7.1159425E0,3.682479E0],"tree_param":{"num_deleted":"0","num_feature":"9","num_nodes":"7","size_leaf_vector":"1"}},{"base_weights":[-2.8261445E-2,-2.7488577E-1,1.2890796E-1,-2.2524707E-2,-5.5433246E-3,1.8301917E-3,1.7065378E-2],"categories":[],"categories_nodes":[],"categories_segments":[],"categories_sizes":[],"default_left":[0,0,0,0,0,0,0],"id":99,"left_children":[1,3,5,-1,-1,-1,-1],"loss_changes":[7.268916E0,2.8497133E0,3.3593817E0,0E0,0E0,0E0,0E0],"parents":[2147483647,0,0,1,1,2,2],"right_children":[2,4,6,-1,-1,-1,-1],"split_conditions":[0E0,-6.1E1,8E0,-2.2524707E-2,-5.5433246E-3,1.8301917E-3,1.7065378E-2],"split_indices":[4,2,1,0,0,0,0],"split_type":[0,0,0,0,0,0,0],"sum_hessian":[1.836995E2,7.0918655E1,1.1278084E2,8.95497E0,6.1963684E1,9.9674126E1,1.3106713E1],"tree_param":{"num_deleted":"0","num_feature":"9","num_nodes":"7","size_leaf_vector":"1"}},{"base_weights":[-6.613063E-4,-1.7716953E-1,1.6704452E-1,-6.794642E-3,1.530432E-2,3.1541334E-3,2.2297047E-2],"categories":[],"categories_nodes":[],"categories_segments":[],"categories_sizes":[],"default_left":[0,0,0,0,0,0,0],"id":100,"left_children":[1,3,5,-1,-1,-1,-1],"loss_changes":[5.4439783E0,3.2682626E0,3.2077644E0,0E0,0E0,0E0,0E0],"parents":[2147483647,0,0,1,1,2,2],"right_children":[2,4,6,-1,-1,-1,-1],"split_conditions":[-6E0,8E0,5.31455E3,-6.794642E-3,1.530432E-2,3.1541334E-3,2.2297047E-2],"split_indices":[2,1,7,0,0,0,0],"split_type":[0,0,0,0,0,0,0],"sum_hessian":[1.7990955E2,8.759943E1,9.231013E1,8.298569E1,4.6137357E0,8.548991E1,6.820219E0],"tree_param":{"num_deleted":"0","num_feature":"9","num_nodes":"7","size_leaf_vector":"1"}},{"base_weights":[-8.256073E-3,-9.141503E-2,4.1091624E-1,-4.1740728E-3,2.0232454E-2,-2.9201629E-3,1.8173564E-2],"categories":[],"categories_nodes":[],"categories_segments":[],"categories_sizes":[],"default_left":[0,0,0,0,0,0,0],"id":101,"left_children":[1,3,5,-1,-1,-1,-1],"loss_changes":[6.156508E0,5.5678396E0,3.0144968E0,0E0,0E0,0E0,0E0],"parents":[2147483647,0,0,1,1,2,2],"right_children":[2,4,6,-1,-1,-1,-1],"split_conditions":[2E0,6.5E1,0E0,-4.1740728E-3,2.0232454E-2,-2.9201629E-3,1.8173564E-2],"split_indices":[4,2,3,0,0,0,0],"split_type":[0,0,0,0,0,0,0],"sum_hessian":[1.7246187E2,1.4521643E2,2.7245438E1,1.3823906E2,6.9773703E0,7.82843E0,1.9417007E1],"tree_param":{"num_deleted":"0","num_feature":"9","num_nodes":"7","size_leaf_vector":"1"}},{"base_weights":[8.860234E-3,-1.8795086E-1,1.3738939E-1,-8.451854E-3,1.1496866E-2,1.5579339E-3,1.112076E-2],"categories":[],"categories_nodes":[],"categories_segments":[],"categories_sizes":[],"default_left":[0,0,0,0,0,0,0],"id":102,"left_children":[1,3,5,-1,-1,-1,-1],"loss_changes":[4.5753794E0,4.045439E0,2.1414418E0,0E0,0E0,0E0,0E0],"parents":[2147483647,0,0,1,1,2,2],"right_children":[2,4,6,-1,-1,-1,-1],"split_conditions":[0E0,2.089E3,2E0,-8.451854E-3,1.1496866E-2,1.5579339E-3,1.112076E-2],"split_indices":[4,0,4,0,0,0,0],"split_type":[0,0,0,0,0,0,0],"sum_hessian":[1.7683226E2,6.9494194E1,1.07338066E2,6.0564148E1,8.930042E0,8.035089E1,2.6987177E1],"tree_param":{"num_deleted":"0","num_feature":"9","num_nodes":"7","size_leaf_vector":"1"}},{"base_weights":[1.11490395E-2,-3.3849147E-1,1.21723205E-1,-2.4234772E-2,-6.2424378E-3,1.8331684E-3,1.5480074E-2],"categories":[],"categories_nodes":[],"categories_segments":[],"categories_sizes":[],"default_left":[0,0,0,0,0,0,0],"id":103,"left_children":[1,3,5,-1,-1,-1,-1],"loss_changes":[7.037216E0,2.3416238E0,3.23853E0,0E0,0E0,0E0,0E0],"parents":[2147483647,0,0,1,1,2,2],"right_children":[2,4,6,-1,-1,-1,-1],"split_conditions":[-1.831E3,-7.4E1,3.46455E3,-2.4234772E-2,-6.2424378E-3,1.8331684E-3,1.5480074E-2],"split_indices":[6,2,7,0,0,0,0],"split_type":[0,0,0,0,0,0,0],"sum_hessian":[1.778912E2,4.1750813E1,1.3614038E2,6.8194056E0,3.4931408E1,1.2000105E2,1.6139334E1],"tree_param":{"num_deleted":"0","num_feature":"9","num_nodes":"7","size_leaf_vector":"1"}},{"base_weights":[-1.2648997E-2,-9.548774E-2,1.249926E-2,-5.180916E-3,7.64071E-3],"categories":[],"categories_nodes":[],"categories_segments":[],"categories_sizes":[],"default_left":[0,0,0,0,0],"id":104,"left_children":[1,3,-1,-1,-1],"loss_changes":[6.3719077E0,4.1420875E0,0E0,0E0,0E0],"parents":[2147483647,0,0,1,1],"right_children":[2,4,-1,-1,-1],"split_conditions":[2E0,5E0,1.249926E-2,-5.180916E-3,7.64071E-3],"split_indices":[4,1,0,0,0],"split_type":[0,0,0,0,0],"sum_hessian":[1.7494032E2,1.4794672E2,2.699361E1,1.22050026E2,2.5896692E1],"tree_param":{"num_deleted":"0","num_feature":"9","num_nodes":"5","size_leaf_vector":"1"}},{"base_weights":[8.493268E-3,-3.1294742E-1,1.0423929E-1,-1.6565442E-2,4.155452E-3,-7.77345E-3,5.4376745E-3],"categories":[],"categories_nodes":[],"categories_segments":[],"categories_sizes":[],"default_left":[0,0,0,0,0,0,0],"id":105,"left_children":[1,3,5,-1,-1,-1,-1],"loss_changes":[5.662111E0,4.7146792E0,4.0570188E0,0E0,0E0,0E0,0E0],"parents":[2147483647,0,0,1,1,2,2],"right_children":[2,4,6,-1,-1,-1,-1],"split_conditions":[-1.831E3,3E0,-1E0,-1.6565442E-2,4.155452E-3,-7.77345E-3,5.4376745E-3],"split_indices":[6,5,4,0,0,0,0],"split_type":[0,0,0,0,0,0,0],"sum_hessian":[1.7985428E2,4.0236008E1,1.3961827E2,2.6007967E1,1.4228042E1,2.359084E1,1.1602742E2],"tree_param":{"num_deleted":"0","num_feature":"9","num_nodes":"7","size_leaf_vector":"1"}},{"base_weights":[-1.7567987E-2,-1.8728958E-2,4.6990294E-2,-2.6807722E-4,1.5948432E-2],"categories":[],"categories_nodes":[],"categories_segments":[],"categories_sizes":[],"default_left":[0,0,0,0,0],"id":106,"left_children":[1,-1,3,-1,-1],"loss_changes":[6.997761E0,0E0,4.3996296E0,0E0,0E0],"parents":[2147483647,0,0,2,2],"right_children":[2,-1,4,-1,-1],"split_conditions":[-4.18755E3,-1.8728958E-2,8E0,-2.6807722E-4,1.5948432E-2],"split_indices":[7,0,1,0,0],"split_type":[0,0,0,0,0],"sum_hessian":[1.7515546E2,1.5177153E1,1.599783E2,1.451867E2,1.4791598E1],"tree_param":{"num_deleted":"0","num_feature":"9","num_nodes":"5","size_leaf_vector":"1"}},{"base_weights":[3.7366703E-2,-1.5219916E-1,1.6243038E-1,-1.1328929E-2,5.001882E-3,1.193133E-2,1.1593141E-3],"categories":[],"categories_nodes":[],"categories_segments":[],"categories_sizes":[],"default_left":[0,0,0,0,0,0,0],"id":107,"left_children":[1,3,5,-1,-1,-1,-1],"loss_changes":[4.1432285E0,5.13501E0,3.0275185E0,0E0,0E0,0E0,0E0],"parents":[2147483647,0,0,1,1,2,2],"right_children":[2,4,6,-1,-1,-1,-1],"split_conditions":[0E0,3E0,-1.8E1,-1.1328929E-2,5.001882E-3,1.193133E-2,1.1593141E-3],"split_indices":[4,5,2,0,0,0,0],"split_type":[0,0,0,0,0,0,0],"sum_hessian":[1.7067667E2,6.767063E1,1.0300603E2,3.9431034E1,2.8239597E1,3.3985046E1,6.902098E1],"tree_param":{"num_deleted":"0","num_feature":"9","num_nodes":"7","size_leaf_vector":"1"}},{"base_weights":[2.8827509E-2,-1.5429637E-1,1.4866945E-1,-9.764221E-3,4.2576413E-3,1.7669719E-2,1.6415437E-3],"categories":[],"categories_nodes":[],"categories_segments":[],"categories_sizes":[],"default_left":[0,0,0,0,0,0,0],"id":108,"left_children":[1,3,5,-1,-1,-1,-1],"loss_changes":[3.914867E0,3.678186E0,4.3859434E0,0E0,0E0,0E0,0E0],"parents":[2147483647,0,0,1,1,2,2],"right_children":[2,4,6,-1,-1,-1,-1],"split_conditions":[-7.65E2,3E0,-1.81E2,-9.764221E-3,4.2576413E-3,1.7669719E-2,1.6415437E-3],"split_indices":[6,5,6,0,0,0,0],"split_type":[0,0,0,0,0,0,0],"sum_hessian":[1.7429646E2,6.871771E1,1.0557875E2,4.3425533E1,2.5292183E1,1.6712791E1,8.886596E1],"tree_param":{"num_deleted":"0","num_feature":"9","num_nodes":"7","size_leaf_vector":"1"}},{"base_weights":[-1.9704342E-2,-5.5535614E-1,4.48851E-2,-2.2211004E-2,9.034702E-3,1.5226619E-2,-6.3445594E-4],"categories":[],"categories_nodes":[],"categories_segments":[],"categories_sizes":[],"default_left":[0,0,0,0,0,0,0],"id":109,"left_children":[1,3,5,-1,-1,-1,-1],"loss_changes":[6.0826426E0,3.4429436E0,4.832079E0,0E0,0E0,0E0,0E0],"parents":[2147483647,0,0,1,1,2,2],"right_children":[2,4,6,-1,-1,-1,-1],"split_conditions":[-5.9E1,1E0,-4E1,-2.2211004E-2,9.034702E-3,1.5226619E-2,-6.3445594E-4],"split_indices":[2,4,2,0,0,0,0],"split_type":[0,0,0,0,0,0,0],"sum_hessian":[1.7237086E2,1.6912874E1,1.55458E2,1.4131593E1,2.7812817E0,1.7746113E1,1.3771188E2],"tree_param":{"num_deleted":"0","num_feature":"9","num_nodes":"7","size_leaf_vector":"1"}},{"base_weights":[2.5423253E-2,-1.8092042E-2,7.983272E-2,1.3858252E-3,2.4131183E-2],"categories":[],"categories_nodes":[],"categories_segments":[],"categories_sizes":[],"default_left":[0,0,0,0,0],"id":110,"left_children":[1,-1,3,-1,-1],"loss_changes":[6.2781606E0,0E0,4.0237007E0,0E0,0E0],"parents":[2147483647,0,0,2,2],"right_children":[2,-1,4,-1,-1],"split_conditions":[-3.722E3,-1.8092042E-2,5.712E3,1.3858252E-3,2.4131183E-2],"split_indices":[6,0,0,0,0],"split_type":[0,0,0,0,0],"sum_hessian":[1.787783E2,1.2637142E1,1.6614116E2,1.60803E2,5.338159E0],"tree_param":{"num_deleted":"0","num_feature":"9","num_nodes":"5","size_leaf_vector":"1"}},{"base_weights":[-5.3989574E-2,-1.7360322E-1,5.960779E-3,-1.4359734E-2,-6.2267104E-4],"categories":[],"categories_nodes":[],"categories_segments":[],"categories_sizes":[],"default_left":[0,0,0,0,0],"id":111,"left_children":[1,3,-1,-1,-1],"loss_changes":[5.365578E0,5.5756893E0,0E0,0E0,0E0],"parents":[2147483647,0,0,1,1],"right_children":[2,4,-1,-1,-1],"split_conditions":[1E0,-1E0,5.960779E-3,-1.4359734E-2,-6.2267104E-4],"split_indices":[4,5,0,0,0],"split_type":[0,0,0,0,0],"sum_hessian":[1.7324315E2,1.1800728E2,5.5235874E1,3.796772E1,8.003956E1],"tree_param":{"num_deleted":"0","num_feature":"9","num_nodes":"5","size_leaf_vector":"1"}},{"base_weights":[2.6323685E-2,-2.2613864E-2,2.0060994E-2,-6.999569E-3,3.7392327E-3],"categories":[],"categories_nodes":[],"categories_segments":[],"categories_sizes":[],"default_left":[0,0,0,0,0],"id":112,"left_children":[1,3,-1,-1,-1],"loss_changes":[5.6322007E0,5.2558703E0,0E0,0E0,0E0],"parents":[2147483647,0,0,1,1],"right_children":[2,4,-1,-1,-1],"split_conditions":[6.5E1,0E0,2.0060994E-2,-6.999569E-3,3.7392327E-3],"split_indices":[2,4,0,0,0],"split_type":[0,0,0,0,0],"sum_hessian":[1.762002E2,1.6552011E2,1.0680074E1,6.760958E1,9.791054E1],"tree_param":{"num_deleted":"0","num_feature":"9","num_nodes":"5","size_leaf_vector":"1"}},{"base_weights":[2.0960672E-2,-1.9348465E-2,6.15887E-2,7.0473494E-4,1.7789174E-2],"categories":[],"categories_nodes":[],"categories_segments":[],"categories_sizes":[],"default_left":[0,0,0,0,0],"id":113,"left_children":[1,-1,3,-1,-1],"loss_changes":[4.8856945E0,0E0,3.3987174E0,0E0,0E0],"parents":[2147483647,0,0,2,2],"right_children":[2,-1,4,-1,-1],"split_conditions":[-4.407E3,-1.9348465E-2,6.5E1,7.0473494E-4,1.7789174E-2],"split_indices":[6,0,2,0,0],"split_type":[0,0,0,0,0],"sum_hessian":[1.756501E2,8.389754E0,1.6726035E2,1.5801956E2,9.24079E0],"tree_param":{"num_deleted":"0","num_feature":"9","num_nodes":"5","size_leaf_vector":"1"}},{"base_weights":[1.1597719E-2,-2.8424725E-1,1.03186354E-1,-1.2976201E-2,9.1230223E-4,9.415479E-3,-8.702126E-4],"categories":[],"categories_nodes":[],"categories_segments":[],"categories_sizes":[],"default_left":[0,0,0,0,0,0,0],"id":114,"left_children":[1,3,5,-1,-1,-1,-1],"loss_changes":[4.8489876E0,2.0012832E0,3.81852E0,0E0,0E0,0E0,0E0],"parents":[2147483647,0,0,1,1,2,2],"right_children":[2,4,6,-1,-1,-1,-1],"split_conditions":[-1.831E3,3E0,1.04E2,-1.2976201E-2,9.1230223E-4,9.415479E-3,-8.702126E-4],"split_indices":[6,5,6,0,0,0,0],"split_type":[0,0,0,0,0,0,0],"sum_hessian":[1.7479066E2,4.0325672E1,1.3446498E2,2.6899233E1,1.342644E1,5.0785336E1,8.367965E1],"tree_param":{"num_deleted":"0","num_feature":"9","num_nodes":"7","size_leaf_vector":"1"}},{"base_weights":[2.0329947E-2,-2.0315422E-2,5.6271277E-2,-5.7488116E-3,3.6071113E-3],"categories":[],"categories_nodes":[],"categories_segments":[],"categories_sizes":[],"default_left":[0,0,0,0,0],"id":115,"left_children":[1,-1,3,-1,-1],"loss_changes":[4.6158514E0,0E0,2.8060799E0,0E0,0E0],"parents":[2147483647,0,0,2,2],"right_children":[2,-1,4,-1,-1],"split_conditions":[-4.587E3,-2.0315422E-2,-1E0,-5.7488116E-3,3.6071113E-3],"split_indices":[6,0,4,0,0],"split_type":[0,0,0,0,0],"sum_hessian":[1.7908244E2,7.027021E0,1.7205544E2,3.447122E1,1.3758421E2],"tree_param":{"num_deleted":"0","num_feature":"9","num_nodes":"5","size_leaf_vector":"1"}},{"base_weights":[1.8117383E-2,-2.1733206E-2,5.614594E-1,2.2843167E-4,-1.94073E-2,2.4389261E-2,-2.3630892E-3],"categories":[],"categories_nodes":[],"categories_segments":[],"categories_sizes":[],"default_left":[0,0,0,0,0,0,0],"id":116,"left_children":[1,3,5,-1,-1,-1,-1],"loss_changes":[3.8927572E0,3.0990775E0,2.1058872E0,0E0,0E0,0E0,0E0],"parents":[2147483647,0,0,1,1,2,2],"right_children":[2,4,6,-1,-1,-1,-1],"split_conditions":[6.5E1,5.5E1,4.254E3,2.2843167E-4,-1.94073E-2,2.4389261E-2,-2.3630892E-3],"split_indices":[2,2,6,0,0,0,0],"split_type":[0,0,0,0,0,0,0],"sum_hessian":[1.7665616E2,1.6637373E2,1.0282424E1,1.6080092E2,5.572816E0,6.99484E0,3.2875836E0],"tree_param":{"num_deleted":"0","num_feature":"9","num_nodes":"7","size_leaf_vector":"1"}},{"base_weights":[3.648019E-3,-1.1432753E-1,7.7727707E-3,-1.4628596E-3,-1.898922E-2],"categories":[],"categories_nodes":[],"categories_segments":[],"categories_sizes":[],"default_left":[0,0,0,0,0],"id":117,"left_children":[1,3,-1,-1,-1],"loss_changes":[5.3222866E0,4.04797E0,0E0,0E0,0E0],"parents":[2147483647,0,0,1,1],"right_children":[2,4,-1,-1,-1],"split_conditions":[3E0,2E0,7.7727707E-3,-1.4628596E-3,-1.898922E-2],"split_indices":[1,1,0,0,0],"split_type":[0,0,0,0,0],"sum_hessian":[1.7264198E2,1.18854546E2,5.3787437E1,1.0745809E2,1.1396455E1],"tree_param":{"num_deleted":"0","num_feature":"9","num_nodes":"5","size_leaf_vector":"1"}},{"base_weights":[-4.3478746E-2,-2.4941622E-1,2.8486517E-3,-9.359376E-3,1.0166446E-2],"categories":[],"categories_nodes":[],"categories_segments":[],"categories_sizes":[],"default_left":[0,0,0,0,0],"id":118,"left_children":[1,3,-1,-1,-1],"loss_changes":[4.9316893E0,2.7666216E0,0E0,0E0,0E0],"parents":[2147483647,0,0,1,1],"right_children":[2,4,-1,-1,-1],"split_conditions":[0E0,2.441E3,2.8486517E-3,-9.359376E-3,1.0166446E-2],"split_indices":[4,0,0,0,0],"split_type":[0,0,0,0,0],"sum_hessian":[1.6932741E2,6.742337E1,1.0190404E2,6.179149E1,5.631881E0],"tree_param":{"num_deleted":"0","num_feature":"9","num_nodes":"5","size_leaf_vector":"1"}},{"base_weights":[-1.6108157E-2,-4.2157017E-2,1.8949274E-2,2.9887582E-5,-1.1955031E-2],"categories":[],"categories_nodes":[],"categories_segments":[],"categories_sizes":[],"default_left":[0,0,0,0,0],"id":119,"left_children":[1,3,-1,-1,-1],"loss_changes":[2.9797566E0,2.5935912E0,0E0,0E0,0E0],"parents":[2147483647,0,0,1,1],"right_children":[2,4,-1,-1,-1],"split_conditions":[5.712E3,3.149E3,1.8949274E-2,2.9887582E-5,-1.1955031E-2],"split_indices":[0,0,0,0,0],"split_type":[0,0,0,0,0],"sum_hessian":[1.7144112E2,1.6661081E2,4.830307E0,1.5039265E2,1.6218147E1],"tree_param":{"num_deleted":"0","num_feature":"9","num_nodes":"5","size_leaf_vector":"1"}},{"base_weights":[-6.333214E-2,-2.625766E-1,2.6464018E-3,-4.686563E-3,-2.694399E-2],"categories":[],"categories_nodes":[],"categories_segments":[],"categories_sizes":[],"default_left":[0,0,0,0,0],"id":120,"left_children":[1,3,-1,-1,-1],"loss_changes":[5.3781013E0,4.9099708E0,0E0,0E0,0E0],"parents":[2147483647,0,0,1,1],"right_children":[2,4,-1,-1,-1],"split_conditions":[-1.2E1,-1.7E1,2.6464018E-3,-4.686563E-3,-2.694399E-2],"split_indices":[2,2,0,0,0],"split_type":[0,0,0,0,0],"sum_hessian":[1.745804E2,7.478781E1,9.979259E1,6.620094E1,8.586868E0],"tree_param":{"num_deleted":"0","num_feature":"9","num_nodes":"5","size_leaf_vector":"1"}},{"base_weights":[-5.9914724E-3,-1.603901E-2,3.7584666E-2,-1.6543324E-4,1.23598175E-2],"categories":[],"categories_nodes":[],"categories_segments":[],"categories_sizes":[],"default_left":[0,0,0,0,0],"id":121,"left_children":[1,-1,3,-1,-1],"loss_changes":[4.0596385E0,0E0,2.6358812E0,0E0,0E0],"parents":[2147483647,0,0,2,2],"right_children":[2,-1,4,-1,-1],"split_conditions":[-4.60965E3,-1.603901E-2,8E0,-1.6543324E-4,1.23598175E-2],"split_indices":[7,0,1,0,0],"split_type":[0,0,0,0,0],"sum_hessian":[1.7248419E2,1.1418858E1,1.6106534E2,1.462058E2,1.4859541E1],"tree_param":{"num_deleted":"0","num_feature":"9","num_nodes":"5","size_leaf_vector":"1"}},{"base_weights":[-4.5501474E-2,-1.16494335E-1,3.141433E-1,-4.5947847E-3,1.6809579E-2,1.2092038E-2,-1.3523256E-2],"categories":[],"categories_nodes":[],"categories_segments":[],"categories_sizes":[],"default_left":[0,0,0,0,0,0,0],"id":122,"left_children":[1,3,5,-1,-1,-1,-1],"loss_changes":[4.5529103E0,3.8440328E0,2.36763E0,0E0,0E0,0E0,0E0],"parents":[2147483647,0,0,1,1,2,2],"right_children":[2,4,6,-1,-1,-1,-1],"split_conditions":[2E0,6.5E1,4.539E3,-4.5947847E-3,1.6809579E-2,1.2092038E-2,-1.3523256E-2],"split_indices":[4,2,6,0,0,0,0],"split_type":[0,0,0,0,0,0,0],"sum_hessian":[1.734536E2,1.4598811E2,2.7465471E1,1.3995378E2,6.0343337E0,2.5452625E1,2.012847E0],"tree_param":{"num_deleted":"0","num_feature":"9","num_nodes":"7","size_leaf_vector":"1"}},{"base_weights":[1.4930777E-2,-2.8706443E-2,1.7294036E-2,-1.9474563E-3,1.3227907E-2],"categories":[],"categories_nodes":[],"categories_segments":[],"categories_sizes":[],"default_left":[0,0,0,0,0],"id":123,"left_children":[1,3,-1,-1,-1],"loss_changes":[4.3822966E0,2.8902202E0,0E0,0E0,0E0],"parents":[2147483647,0,0,1,1],"right_children":[2,4,-1,-1,-1],"split_conditions":[6.1E1,8E0,1.7294036E-2,-1.9474563E-3,1.3227907E-2],"split_indices":[2,1,0,0,0],"split_type":[0,0,0,0,0],"sum_hessian":[1.7548997E2,1.6459686E2,1.0893115E1,1.5441508E2,1.018178E1],"tree_param":{"num_deleted":"0","num_feature":"9","num_nodes":"5","size_leaf_vector":"1"}},{"base_weights":[-1.3512344E-2,-1.5381971E-2,2.5833096E-2,-2.1778283E-4,1.5371902E-2],"categories":[],"categories_nodes":[],"categories_segments":[],"categories_sizes":[],"default_left":[0,0,0,0,0],"id":124,"left_children":[1,-1,3,-1,-1],"loss_changes":[3.5046806E0,0E0,2.681054E0,0E0,0E0],"parents":[2147483647,0,0,2,2],"right_children":[2,-1,4,-1,-1],"split_conditions":[-4.60965E3,-1.5381971E-2,6.5E1,-2.1778283E-4,1.5371902E-2],"split_indices":[7,0,2,0,0],"split_type":[0,0,0,0,0],"sum_hessian":[1.7507893E2,1.1032612E1,1.6404631E2,1.5544429E2,8.60203E0],"tree_param":{"num_deleted":"0","num_feature":"9","num_nodes":"5","size_leaf_vector":"1"}},{"base_weights":[9.341222E-3,-3.696106E-2,1.4292851E-2,-2.7384479E-3,1.1051157E-2],"categories":[],"categories_nodes":[],"categories_segments":[],"categories_sizes":[],"default_left":[0,0,0,0,0],"id":125,"left_children":[1,3,-1,-1,-1],"loss_changes":[3.748989E0,3.5479844E0,0E0,0E0,0E0],"parents":[2147483647,0,0,1,1],"right_children":[2,4,-1,-1,-1],"split_conditions":[8E0,4.6E1,1.4292851E-2,-2.7384479E-3,1.1051157E-2],"split_indices":[1,2,0,0,0],"split_type":[0,0,0,0,0],"sum_hessian":[1.6971759E2,1.5608649E2,1.3631092E1,1.3900711E2,1.7079386E1],"tree_param":{"num_deleted":"0","num_feature":"9","num_nodes":"5","size_leaf_vector":"1"}},{"base_weights":[6.138766E-2,-1.313598E-2,2.6202132E-3],"categories":[],"categories_nodes":[],"categories_segments":[],"categories_sizes":[],"default_left":[0,0,0],"id":126,"left_children":[1,-1,-1],"loss_changes":[2.3359773E0,0E0,0E0],"parents":[2147483647,0,0],"right_children":[2,-1,-1],"split_conditions":[-4.587E3,-1.313598E-2,2.6202132E-3],"split_indices":[6,0,0],"split_type":[0,0,0],"sum_hessian":[1.7238345E2,6.949656E0,1.6543379E2],"tree_param":{"num_deleted":"0","num_feature":"9","num_nodes":"3","size_leaf_vector":"1"}},{"base_weights":[1.048416E-2,-2.3200432E-2,1.4890644E-2,-2.4089508E-3,8.674946E-3],"categories":[],"categories_nodes":[],"categories_segments":[],"categories_sizes":[],"default_left":[0,0,0,0,0],"id":127,"left_children":[1,3,-1,-1,-1],"loss_changes":[2.8680336E0,2.979882E0,0E0,0E0,0E0],"parents":[2147483647,0,0,1,1],"right_children":[2,4,-1,-1,-1],"split_conditions":[6.5E1,2E0,1.4890644E-2,-2.4089508E-3,8.674946E-3],"split_indices":[2,4,0,0,0],"split_type":[0,0,0,0,0],"sum_hessian":[1.718324E2,1.6247293E2,9.359474E0,1.3862012E2,2.3852804E1],"tree_param":{"num_deleted":"0","num_feature":"9","num_nodes":"5","size_leaf_vector":"1"}},{"base_weights":[1.53669985E-2,-2.299756E-2,5.7189945E-2,-5.551052E-4,1.2696412E-2],"categories":[],"categories_nodes":[],"categories_segments":[],"categories_sizes":[],"default_left":[0,0,0,0,0],"id":128,"left_children":[1,-1,3,-1,-1],"loss_changes":[5.724444E0,0E0,4.600103E0,0E0,0E0],"parents":[2147483647,0,0,2,2],"right_children":[2,-1,4,-1,-1],"split_conditions":[-4.407E3,-2.299756E-2,2E0,-5.551052E-4,1.2696412E-2],"split_indices":[6,0,4,0,0],"split_type":[0,0,0,0,0],"sum_hessian":[1.7035933E2,6.8895054E0,1.6346982E2,1.3703084E2,2.6438982E1],"tree_param":{"num_deleted":"0","num_feature":"9","num_nodes":"5","size_leaf_vector":"1"}},{"base_weights":[-1.3979556E-2,-1.4777377E-1,1.6797763E-1,-2.8701834E-4,-1.1467253E-2,2.4599954E-3,1.6884156E-2],"categories":[],"categories_nodes":[],"categories_segments":[],"categories_sizes":[],"default_left":[0,0,0,0,0,0,0],"id":129,"left_children":[1,3,5,-1,-1,-1,-1],"loss_changes":[4.31684E0,3.3003592E0,2.460758E0,0E0,0E0,0E0,0E0],"parents":[2147483647,0,0,1,1,2,2],"right_children":[2,4,6,-1,-1,-1,-1],"split_conditions":[4E0,-1.9E1,4E3,-2.8701834E-4,-1.1467253E-2,2.4599954E-3,1.6884156E-2],"split_indices":[2,2,0,0,0,0,0],"split_type":[0,0,0,0,0,0,0],"sum_hessian":[1.7328145E2,1.00072945E2,7.320851E1,6.427049E1,3.5802452E1,6.2100792E1,1.11077175E1],"tree_param":{"num_deleted":"0","num_feature":"9","num_nodes":"7","size_leaf_vector":"1"}},{"base_weights":[7.946904E-3,-4.426511E-2,5.169145E-1,-4.4224777E-5,-2.7800975E-2,-6.4736735E-3,2.1758955E-2],"categories":[],"categories_nodes":[],"categories_segments":[],"categories_sizes":[],"default_left":[0,0,0,0,0,0,0],"id":130,"left_children":[1,3,5,-1,-1,-1,-1],"loss_changes":[4.6994996E0,6.064242E0,2.8248367E0,0E0,0E0,0E0,0E0],"parents":[2147483647,0,0,1,1,2,2],"right_children":[2,4,6,-1,-1,-1,-1],"split_conditions":[3.567E3,3.149E3,1.9E1,-4.4224777E-5,-2.7800975E-2,-6.4736735E-3,2.1758955E-2],"split_indices":[0,0,2,0,0,0,0],"split_type":[0,0,0,0,0,0,0],"sum_hessian":[1.7312224E2,1.5867116E2,1.4451089E1,1.5324342E2,5.427731E0,3.1841526E0,1.1266936E1],"tree_param":{"num_deleted":"0","num_feature":"9","num_nodes":"7","size_leaf_vector":"1"}},{"base_weights":[-3.1990692E-2,-5.174015E-1,1.8909704E-2,-1.971943E-2,1.2305942E-2,4.805271E-3,-3.3350014E-3],"categories":[],"categories_nodes":[],"categories_segments":[],"categories_sizes":[],"default_left":[0,0,0,0,0,0,0],"id":131,"left_children":[1,3,5,-1,-1,-1,-1],"loss_changes":[4.244579E0,2.654707E0,2.915044E0,0E0,0E0,0E0,0E0],"parents":[2147483647,0,0,1,1,2,2],"right_children":[2,4,6,-1,-1,-1,-1],"split_conditions":[-4.02415E3,-2.776E3,9.1E1,-1.971943E-2,1.2305942E-2,4.805271E-3,-3.3350014E-3],"split_indices":[7,6,0,0,0,0,0],"split_type":[0,0,0,0,0,0,0],"sum_hessian":[1.6900044E2,1.4299882E1,1.5470056E2,1.2932061E1,1.367821E0,7.393866E1,8.0761894E1],"tree_param":{"num_deleted":"0","num_feature":"9","num_nodes":"7","size_leaf_vector":"1"}},{"base_weights":[4.2113274E-2,4.456265E-4,2.2491883E-2],"categories":[],"categories_nodes":[],"categories_segments":[],"categories_sizes":[],"default_left":[0,0,0],"id":132,"left_children":[1,-1,-1],"loss_changes":[3.3440952E0,0E0,0E0],"parents":[2147483647,0,0],"right_children":[2,-1,-1],"split_conditions":[5.712E3,4.456265E-4,2.2491883E-2],"split_indices":[0,0,0],"split_type":[0,0,0],"sum_hessian":[1.7252316E2,1.6808992E2,4.433239E0],"tree_param":{"num_deleted":"0","num_feature":"9","num_nodes":"3","size_leaf_vector":"1"}},{"base_weights":[1.0130996E-2,-7.808002E-2,2.757475E-1,6.518526E-4,-7.979201E-3,3.182242E-2,5.929604E-3],"categories":[],"categories_nodes":[],"categories_segments":[],"categories_sizes":[],"default_left":[0,0,0,0,0,0,0],"id":133,"left_children":[1,3,5,-1,-1,-1,-1],"loss_changes":[4.012503E0,2.4258177E0,2.1969633E0,0E0,0E0,0E0,0E0],"parents":[2147483647,0,0,1,1,2,2],"right_children":[2,4,6,-1,-1,-1,-1],"split_conditions":[4E0,9.1E1,-6.97E2,6.518526E-4,-7.979201E-3,3.182242E-2,5.929604E-3],"split_indices":[1,0,0,0,0,0,0],"split_type":[0,0,0,0,0,0,0],"sum_hessian":[1.6741492E2,1.2673756E2,4.0677353E1,8.3925354E1,4.2812206E1,1.4034994E0,3.9273853E1],"tree_param":{"num_deleted":"0","num_feature":"9","num_nodes":"7","size_leaf_vector":"1"}},{"base_weights":[1.1118032E-2,-2.3199183E-1,4.805346E-3,-2.3512736E-2,-3.172252E-3],"categories":[],"categories_nodes":[],"categories_segments":[],"categories_sizes":[],"default_left":[0,0,0,0,0],"id":134,"left_children":[1,3,-1,-1,-1],"loss_changes":[6.2342668E0,4.391921E0,0E0,0E0,0E0],"parents":[2147483647,0,0,1,1],"right_children":[2,4,-1,-1,-1],"split_conditions":[0E0,-3.651E3,4.805346E-3,-2.3512736E-2,-3.172252E-3],"split_indices":[4,0,0,0,0],"split_type":[0,0,0,0,0],"sum_hessian":[1.6798586E2,6.3426918E1,1.0455893E2,9.8709135E0,5.3556004E1],"tree_param":{"num_deleted":"0","num_feature":"9","num_nodes":"5","size_leaf_vector":"1"}},{"base_weights":[-2.373734E-3,-2.0772044E-2,3.853322E-2,1.1433939E-2,-1.0552782E-3],"categories":[],"categories_nodes":[],"categories_segments":[],"categories_sizes":[],"default_left":[0,0,0,0,0],"id":135,"left_children":[1,-1,3,-1,-1],"loss_changes":[4.887098E0,0E0,4.157039E0,0E0,0E0],"parents":[2147483647,0,0,2,2],"right_children":[2,-1,4,-1,-1],"split_conditions":[-7.4E1,-2.0772044E-2,-4E1,1.1433939E-2,-1.0552782E-3],"split_indices":[2,0,2,0,0],"split_type":[0,0,0,0,0],"sum_hessian":[1.6924556E2,7.689238E0,1.6155632E2,2.7127405E1,1.3442891E2],"tree_param":{"num_deleted":"0","num_feature":"9","num_nodes":"5","size_leaf_vector":"1"}},{"base_weights":[-7.3284493E-3,-3.901615E-2,2.3176817E-2,-3.0584794E-3,9.006319E-3],"categories":[],"categories_nodes":[],"categories_segments":[],"categories_sizes":[],"default_left":[0,0,0,0,0],"id":136,"left_children":[1,3,-1,-1,-1],"loss_changes":[4.376724E0,3.6850896E0,0E0,0E0,0E0],"parents":[2147483647,