{"learner":{"attributes":{"best_iteration":"46","best_score":"0.541802494799164"},"feature_names":["gold_diff_15","kill_diff_15","cs_diff_15","tower_diff_15","dragon_diff_15","grub_diff_15","experience_diff_15","early_impact_score","is_soloq"],"feature_types":["int","int","int","int","int","int","int","float","int"],"gradient_booster":{"model":{"cats":{"enc":[],"feature_segments":[],"sorted_idx":[]},"gbtree_model_param":{"num_parallel_tree":"1","num_trees":"77"},"iteration_indptr":[0,1,2,3,4,5,6,7,8,9,10,11,12,13,14,15,16,17,18,19,20,21,22,23,24,25,26,27,28,29,30,31,32,33,34,35,36,37,38,39,40,41,42,43,44,45,46,47,48,49,50,51,52,53,54,55,56,57,58,59,60,61,62,63,64,65,66,67,68,69,70,71,72,73,74,75,76,77],"tree_info":[0,0,0,0,0,0,0,0,0,0,0,0,0,0,0,0,0,0,0,0,0,0,0,0,0,0,0,0,0,0,0,0,0,0,0,0,0,0,0,0,0,0,0,0,0,0,0,0,0,0,0,0,0,0,0,0,0,0,0,0,0,0,0,0,0,0,0,0,0,0,0,0,0,0,0,0,0],"trees":[{"base_weights":[3.49568E-2,-1.0522257E0,1.0196865E0,-7.062807E-2,-1.747675E-1,4.4576806E-1,7.795301E-2,-2.6905278E-2,1.2399061E-2,-4.40556E-3,3.8684987E-2],"categories":[],"categories_nodes":[],"categories_segments":[],"categories_sizes":[],"default_left":[0,0,0,0,0,0,0,0,0,0,0],"id":0,"left_children":[1,3,5,-1,7,9,-1,-1,-1,-1,-1],"loss_changes":[2.4029684E2,3.3003746E1,3.4356888E1,0E0,5.698393E0,1.09254875E1,0E0,0E0,0E0,0E0,0E0],"parents":[2147483647,0,0,1,1,2,2,4,4,5,5],"right_children":[2,4,6,-1,8,10,-1,-1,-1,-1,-1],"split_conditions":[-1.3E1,-1.71365E3,2.56865E3,-7.062807E-2,0E0,0E0,7.795301E-2,-2.6905278E-2,1.2399061E-2,-4.40556E-3,3.8684987E-2],"split_indices":[0,7,7,0,4,4,0,0,0,0,0],"split_type":[0,0,0,0,0,0,0,0,0,0,0],"sum_hessian":[2.1844803E2,1.0372532E2,1.147227E2,7.223281E1,3.1492506E1,5.8236145E1,5.648656E1,1.6496075E1,1.4996431E1,2.2994528E1,3.5241615E1],"tree_param":{"num_deleted":"0","num_feature":"9","num_nodes":"11","size_leaf_vector":"1"}},{"base_weights":[1.9663809E-2,-9.4565386E-1,1.11876E0,-7.06552E-2,-2.5931206E-1,4.0736136E-1,7.749199E-2,-3.2291617E-2,6.524949E-3,-1.5814407E-2,2.5817035E-2],"categories":[],"categories_nodes":[],"categories_segments":[],"categories_sizes":[],"default_left":[0,0,0,0,0,0,0,0,0,0,0],"id":1,"left_children":[1,3,5,-1,7,9,-1,-1,-1,-1,-1],"loss_changes":[2.461452E2,3.853914E1,3.1366638E1,0E0,8.348236E0,4.0382066E0,0E0,0E0,0E0,0E0,0E0],"parents":[2147483647,0,0,1,1,2,2,4,4,5,5],"right_children":[2,4,6,-1,8,10,-1,-1,-1,-1,-1],"split_conditions":[5.3225E2,-1.84505E3,2.68785E3,-7.06552E-2,0E0,-3.54E2,7.749199E-2,-3.2291617E-2,6.524949E-3,-1.5814407E-2,2.5817035E-2],"split_indices":[7,7,7,0,4,6,0,0,0,0,0],"split_type":[0,0,0,0,0,0,0,0,0,0,0],"sum_hessian":[2.2600716E2,1.2054944E2,1.0545772E2,6.9820076E1,5.0729362E1,4.199292E1,6.3464798E1,2.4482851E1,2.6246513E1,4.7493362E0,3.7243584E1],"tree_param":{"num_deleted":"0","num_feature":"9","num_nodes":"11","size_leaf_vector":"1"}},{"base_weights":[-1.9257262E-3,-9.938319E-1,8.952458E-1,-6.822171E-2,-4.051343E-1,4.4832855E-1,7.591953E-2,-3.935076E-2,3.1724714E-3,9.267209E-4,4.9401026E-2],"categories":[],"categories_nodes":[],"categories_segments":[],"categories_sizes":[],"default_left":[0,0,0,0,0,0,0,0,0,0,0],"id":2,"left_children":[1,3,5,-1,7,9,-1,-1,-1,-1,-1],"loss_changes":[2.0549501E2,2.2267677E1,3.17257E1,0E0,8.494564E0,1.7310993E1,0E0,0E0,0E0,0E0,0E0],"parents":[2147483647,0,0,1,1,2,2,4,4,5,5],"right_children":[2,4,6,-1,8,10,-1,-1,-1,-1,-1],"split_conditions":[-1.2E2,-2.35345E3,1E0,-6.822171E-2,0E0,2.68785E3,7.591953E-2,-3.935076E-2,3.1724714E-3,9.267209E-4,4.9401026E-2],"split_indices":[0,7,4,0,4,7,0,0,0,0,0],"split_type":[0,0,0,0,0,0,0,0,0,0,0],"sum_hessian":[2.2491727E2,1.0666548E2,1.18251785E2,6.3031914E1,4.3633564E1,7.186723E1,4.638455E1,2.291769E1,2.0715876E1,4.1734325E1,3.013291E1],"tree_param":{"num_deleted":"0","num_feature":"9","num_nodes":"11","size_leaf_vector":"1"}},{"base_weights":[-6.6587865E-2,-8.306359E-1,9.6202064E-1,-1.2847451E0,-1.8729283E-1,5.457484E-1,7.249751E-2,-6.574647E-2,8.238319E-3,-2.0973215E-2,1.7069591E-2,1.3925883E-2,4.7420826E-2],"categories":[],"categories_nodes":[],"categories_segments":[],"categories_sizes":[],"default_left":[0,0,0,0,0,0,0,0,0,0,0,0,0],"id":3,"left_children":[1,3,5,7,9,11,-1,-1,-1,-1,-1,-1,-1],"loss_changes":[1.8185213E2,3.802569E1,1.7675499E1,4.0293274E0,7.596988E0,5.4570274E0,0E0,0E0,0E0,0E0,0E0,0E0,0E0],"parents":[2147483647,0,0,1,1,2,2,3,3,4,4,5,5],"right_children":[2,4,6,8,10,12,-1,-1,-1,-1,-1,-1,-1],"split_conditions":[5.61E2,-1.77E3,3.402E3,7.9E1,1E0,1E0,7.249751E-2,-6.574647E-2,8.238319E-3,-2.0973215E-2,1.7069591E-2,1.3925883E-2,4.7420826E-2],"split_indices":[6,0,0,6,4,4,0,0,0,0,0,0,0],"split_type":[0,0,0,0,0,0,0,0,0,0,0,0,0],"sum_hessian":[2.2534131E2,1.2962991E2,9.57114E1,7.423767E1,5.539224E1,5.5077805E1,4.0633595E1,7.299615E1,1.241517E0,3.892022E1,1.647202E1,3.615715E1,1.8920654E1],"tree_param":{"num_deleted":"0","num_feature":"9","num_nodes":"13","size_leaf_vector":"1"}},{"base_weights":[2.017819E-2,-9.8962903E-1,9.2892617E-1,-1.2660564E0,-3.65505E-1,4.93338E-1,6.609527E-2,-6.473243E-2,-4.9196887E-3,-3.4123514E-2,2.3257802E-3,3.689375E-2,4.490428E-3],"categories":[],"categories_nodes":[],"categories_segments":[],"categories_sizes":[],"default_left":[0,0,0,0,0,0,0,0,0,0,0,0,0],"id":4,"left_children":[1,3,5,7,9,11,-1,-1,-1,-1,-1,-1,-1],"loss_changes":[2.0444809E2,1.6823067E1,1.8110611E1,2.0196075E0,4.877526E0,5.760046E0,0E0,0E0,0E0,0E0,0E0,0E0,0E0],"parents":[2147483647,0,0,1,1,2,2,3,3,4,4,5,5],"right_children":[2,4,6,8,10,12,-1,-1,-1,-1,-1,-1,-1],"split_conditions":[-8.5E1,-1.99105E3,2.68785E3,-6.63E2,0E0,1.432E3,6.609527E-2,-6.473243E-2,-4.9196887E-3,-3.4123514E-2,2.3257802E-3,3.689375E-2,4.490428E-3],"split_indices":[0,7,7,6,4,0,0,0,0,0,0,0,0],"split_type":[0,0,0,0,0,0,0,0,0,0,0,0,0],"sum_hessian":[2.1678745E2,1.0255765E2,1.142298E2,6.893876E1,3.3618893E1,5.7386868E1,5.6842934E1,6.6972565E1,1.9661906E0,1.7888313E1,1.5730577E1,3.4185158E1,2.3201712E1],"tree_param":{"num_deleted":"0","num_feature":"9","num_nodes":"13","size_leaf_vector":"1"}},{"base_weights":[3.4998365E-2,-7.6058173E-1,9.619348E-1,-1.1161517E0,-1.366212E-1,4.4377142E-1,6.40606E-2,-5.874706E-2,-6.6022365E-3,1.3150032E-2,-1.5428099E-2,-1.3761711E-2,2.7274013E-2],"categories":[],"categories_nodes":[],"categories_segments":[],"categories_sizes":[],"default_left":[0,0,0,0,0,0,0,0,0,0,0,0,0],"id":5,"left_children":[1,3,5,7,9,11,-1,-1,-1,-1,-1,-1,-1],"loss_changes":[1.6668239E2,2.654403E1,1.555677E1,3.9955978E0,3.5139146E0,3.6952457E0,0E0,0E0,0E0,0E0,0E0,0E0,0E0],"parents":[2147483647,0,0,1,1,2,2,3,3,4,4,5,5],"right_children":[2,4,6,8,10,12,-1,-1,-1,-1,-1,-1,-1],"split_conditions":[5.3225E2,-1.349E3,2.68785E3,7.9E1,-8.39E2,-3.54E2,6.40606E-2,-5.874706E-2,-6.6022365E-3,1.3150032E-2,-1.5428099E-2,-1.3761711E-2,2.7274013E-2],"split_indices":[7,0,7,6,0,6,0,0,0,0,0,0,0],"split_type":[0,0,0,0,0,0,0,0,0,0,0,0,0],"sum_hessian":[2.2004837E2,1.18704185E2,1.01344185E2,7.410708E1,4.4597103E1,4.1371334E1,5.997285E1,6.9380615E1,4.7264647E0,1.2938007E1,3.1659096E1,4.492736E0,3.6878597E1],"tree_param":{"num_deleted":"0","num_feature":"9","num_nodes":"13","size_leaf_vector":"1"}},{"base_weights":[-1.9093636E-2,-9.977882E-1,5.4620826E-1,-5.7282716E-2,-4.2261752E-1,1.6668333E-1,6.1312683E-2,2.3283388E-2,-2.740013E-2,-4.536413E-3,3.1737402E-2],"categories":[],"categories_nodes":[],"categories_segments":[],"categories_sizes":[],"default_left":[0,0,0,0,0,0,0,0,0,0,0],"id":6,"left_children":[1,3,5,-1,7,9,-1,-1,-1,-1,-1],"loss_changes":[1.1935566E2,5.2633286E0,3.4697186E1,0E0,3.093629E0,1.1170613E1,0E0,0E0,0E0,0E0,0E0],"parents":[2147483647,0,0,1,1,2,2,4,4,5,5],"right_children":[2,4,6,-1,8,10,-1,-1,-1,-1,-1],"split_conditions":[-1.333E3,-2.35345E3,3.12265E3,-5.7282716E-2,-2.25215E3,1E0,6.1312683E-2,2.3283388E-2,-2.740013E-2,-4.536413E-3,3.1737402E-2],"split_indices":[0,7,7,0,7,4,0,0,0,0,0],"split_type":[0,0,0,0,0,0,0,0,0,0,0],"sum_hessian":[2.0977718E2,7.596519E1,1.3381198E2,5.8062733E1,1.7902452E1,8.8279564E1,4.553242E1,1.2073474E0,1.6695107E1,5.8516808E1,2.9762758E1],"tree_param":{"num_deleted":"0","num_feature":"9","num_nodes":"11","size_leaf_vector":"1"}},{"base_weights":[-1.8961545E-2,-1.1059163E0,5.9160656E-1,-5.7630893E-2,4.7172527E-4,-5.743826E-3,9.4263774E-1,-1.9583574E-2,1.573964E-2,3.141051E-2,6.339331E-2],"categories":[],"categories_nodes":[],"categories_segments":[],"categories_sizes":[],"default_left":[0,0,0,0,0,0,0,0,0,0,0],"id":7,"left_children":[1,3,5,-1,-1,7,9,-1,-1,-1,-1],"loss_changes":[1.4905956E2,4.23967E0,3.0185753E1,0E0,0E0,7.3265357E0,6.8796005E0,0E0,0E0,0E0,0E0],"parents":[2147483647,0,0,1,1,2,2,5,5,6,6],"right_children":[2,4,6,-1,-1,8,10,-1,-1,-1,-1],"split_conditions":[-1.372E3,7.9E1,9.41E2,-5.7630893E-2,4.7172527E-4,0E0,1E0,-1.9583574E-2,1.573964E-2,3.141051E-2,6.339331E-2],"split_indices":[0,6,6,0,0,4,4,0,0,0,0],"split_type":[0,0,0,0,0,0,0,0,0,0,0],"sum_hessian":[2.1864479E2,7.7767136E1,1.4087766E2,7.4545555E1,3.2215822E0,5.3236282E1,8.7641365E1,2.3852264E1,2.9384018E1,4.903226E1,3.8609104E1],"tree_param":{"num_deleted":"0","num_feature":"9","num_nodes":"11","size_leaf_vector":"1"}},{"base_weights":[4.4788253E-2,-1.0198351E0,6.0879004E-1,-5.4255217E-2,4.7826576E-3,2.2695254E-1,1.1594579E0,-1.7034015E-2,2.1883722E-2,3.1029934E-2,6.559118E-2],"categories":[],"categories_nodes":[],"categories_segments":[],"categories_sizes":[],"default_left":[0,0,0,0,0,0,0,0,0,0,0],"id":8,"left_children":[1,3,5,-1,-1,7,9,-1,-1,-1,-1],"loss_changes":[1.3192299E2,5.854393E0,2.9377834E1,0E0,0E0,1.1027544E1,2.321144E0,0E0,0E0,0E0,0E0],"parents":[2147483647,0,0,1,1,2,2,5,5,6,6],"right_children":[2,4,6,-1,-1,8,10,-1,-1,-1,-1],"split_conditions":[-1.415E3,7.9E1,2.56865E3,-5.4255217E-2,4.7826576E-3,-1E0,0E0,-1.7034015E-2,2.1883722E-2,3.1029934E-2,6.559118E-2],"split_indices":[0,6,7,0,0,4,4,0,0,0,0],"split_type":[0,0,0,0,0,0,0,0,0,0,0],"sum_hessian":[2.1360506E2,7.3132935E1,1.4047212E2,6.9167534E1,3.9654005E0,8.545403E1,5.501809E1,2.2633848E1,6.2820187E1,1.5482313E1,3.9535778E1],"tree_param":{"num_deleted":"0","num_feature":"9","num_nodes":"11","size_leaf_vector":"1"}},{"base_weights":[1.7275987E-2,-1.0460361E0,5.859964E-1,-5.4821987E-2,1.3201564E-2,2.3591836E-1,5.7355113E-2,-2.4967795E-2,1.4748153E-2],"categories":[],"categories_nodes":[],"categories_segments":[],"categories_sizes":[],"default_left":[0,0,0,0,0,0,0,0,0],"id":9,"left_children":[1,3,5,-1,-1,7,-1,-1,-1],"loss_changes":[1.281586E2,5.746193E0,2.6299168E1,0E0,0E0,4.295661E0,0E0,0E0,0E0],"parents":[2147483647,0,0,1,1,2,2,5,5],"right_children":[2,4,6,-1,-1,8,-1,-1,-1],"split_conditions":[-1.372E3,3.9E1,2.78705E3,-5.4821987E-2,1.3201564E-2,-2.329E3,5.7355113E-2,-2.4967795E-2,1.4748153E-2],"split_indices":[0,2,7,0,0,6,0,0,0],"split_type":[0,0,0,0,0,0,0,0,0],"sum_hessian":[2.0588701E2,7.0868805E1,1.350182E2,6.871429E1,2.1545208E0,8.5768166E1,4.925003E1,4.712492E0,8.105567E1],"tree_param":{"num_deleted":"0","num_feature":"9","num_nodes":"9","size_leaf_vector":"1"}},{"base_weights":[-7.1511753E-3,-6.856179E-1,7.5228095E-1,-1.0550724E0,-2.1262357E-1,3.7964398E-1,5.3511716E-2,-6.463668E-2,-3.583024E-2,-2.1994798E-2,2.170348E-2,-2.3340002E-2,2.3749752E-2],"categories":[],"categories_nodes":[],"categories_segments":[],"categories_sizes":[],"default_left":[0,0,0,0,0,0,0,0,0,0,0,0,0],"id":10,"left_children":[1,3,5,7,9,11,-1,-1,-1,-1,-1,-1,-1],"loss_changes":[1.10477516E2,1.9113567E1,1.076955E1,2.2737274E0,8.423247E0,4.8003597E0,0E0,0E0,0E0,0E0,0E0,0E0,0E0],"parents":[2147483647,0,0,1,1,2,2,3,3,4,4,5,5],"right_children":[2,4,6,8,10,12,-1,-1,-1,-1,-1,-1,-1],"split_conditions":[1.51E2,-2.18695E3,2.74335E3,-4.363E3,1E0,-4E0,5.3511716E-2,-6.463668E-2,-3.583024E-2,-2.1994798E-2,2.170348E-2,-2.3340002E-2,2.3749752E-2],"split_indices":[6,7,7,0,4,1,0,0,0,0,0,0,0],"split_type":[0,0,0,0,0,0,0,0,0,0,0,0,0],"sum_hessian":[2.084125E2,1.1022792E2,9.818459E1,5.981485E1,5.041307E1,4.8235416E1,4.9949177E1,3.0171368E1,2.964348E1,3.8013145E1,1.2399924E1,3.7003293E0,4.4535088E1],"tree_param":{"num_deleted":"0","num_feature":"9","num_nodes":"13","size_leaf_vector":"1"}},{"base_weights":[6.540827E-4,-4.3413982E-1,1.0783069E0,-9.434103E-1,2.99683E-2,6.474935E-1,6.267385E-2,-4.9420357E-2,1.8069047E-2,9.664869E-3,-2.6911587E-2,3.9890043E-2,-2.6500707E-2],"categories":[],"categories_nodes":[],"categories_segments":[],"categories_sizes":[],"default_left":[0,0,0,0,0,0,0,0,0,0,0,0,0],"id":11,"left_children":[1,3,5,7,9,11,-1,-1,-1,-1,-1,-1,-1],"loss_changes":[1.0501091E2,3.7828762E1,2.4272156E0,5.547325E0,8.335693E0,5.663048E0,0E0,0E0,0E0,0E0,0E0,0E0,0E0],"parents":[2147483647,0,0,1,1,2,2,3,3,4,4,5,5],"right_children":[2,4,6,8,10,12,-1,-1,-1,-1,-1,-1,-1],"split_conditions":[2.29125E3,-1.41195E3,2.761E3,-8.1E2,1.451E3,2.672E3,6.267385E-2,-4.9420357E-2,1.8069047E-2,9.664869E-3,-2.6911587E-2,3.9890043E-2,-2.6500707E-2],"split_indices":[7,7,6,0,0,6,0,0,0,0,0,0,0],"split_type":[0,0,0,0,0,0,0,0,0,0,0,0,0],"sum_hessian":[2.181183E2,1.566907E2,6.1427597E1,7.3233086E1,8.345761E1,2.1829418E1,3.959818E1,7.1494965E1,1.7381271E0,6.636144E1,1.709617E1,2.021624E1,1.6131774E0],"tree_param":{"num_deleted":"0","num_feature":"9","num_nodes":"13","size_leaf_vector":"1"}},{"base_weights":[1.494404E-2,-8.288357E-1,4.995905E-1,-1.0986133E0,-3.4285504E-1,1.4799339E-1,5.169781E-2,-5.8312412E-2,2.4291435E-2,-3.490388E-2,2.6533648E-2,-2.6495162E-2,9.938919E-3],"categories":[],"categories_nodes":[],"categories_segments":[],"categories_sizes":[],"default_left":[0,0,0,0,0,0,0,0,0,0,0,0,0],"id":12,"left_children":[1,3,5,7,9,11,-1,-1,-1,-1,-1,-1,-1],"loss_changes":[9.037927E1,9.443893E0,2.5904957E1,7.111622E0,1.1397809E1,3.3502655E0,0E0,0E0,0E0,0E0,0E0,0E0,0E0],"parents":[2147483647,0,0,1,1,2,2,3,3,4,4,5,5],"right_children":[2,4,6,8,10,12,-1,-1,-1,-1,-1,-1,-1],"split_conditions":[-1.15185E3,0E0,2.68785E3,3.8E1,-2.15335E3,-4E0,5.169781E-2,-5.8312412E-2,2.4291435E-2,-3.490388E-2,2.6533648E-2,-2.6495162E-2,9.938919E-3],"split_indices":[7,4,7,2,7,1,0,0,0,0,0,0,0],"split_type":[0,0,0,0,0,0,0,0,0,0,0,0,0],"sum_hessian":[2.1497365E2,7.765102E1,1.3732263E2,4.7500637E1,3.015038E1,8.5136284E1,5.2186348E1,4.6315388E1,1.1852467E0,2.1862495E1,8.287885E0,3.960976E0,8.117531E1],"tree_param":{"num_deleted":"0","num_feature":"9","num_nodes":"13","size_leaf_vector":"1"}},{"base_weights":[4.9285837E-2,-7.615351E-1,4.664956E-1,-4.863445E-2,-2.1051045E-1,4.220263E-2,8.1895864E-1,-2.590528E-2,1.210078E-2,-1.2791987E-2,2.921022E-2,1.9283516E-2,5.008775E-2],"categories":[],"categories_nodes":[],"categories_segments":[],"categories_sizes":[],"default_left":[0,0,0,0,0,0,0,0,0,0,0,0,0],"id":13,"left_children":[1,3,5,-1,7,9,11,-1,-1,-1,-1,-1,-1],"loss_changes":[7.097967E1,7.687893E0,2.0581541E1,0E0,3.6606994E0,1.1098182E1,4.812252E0,0E0,0E0,0E0,0E0,0E0,0E0],"parents":[2147483647,0,0,1,1,2,2,4,4,5,5,6,6],"right_children":[2,4,6,-1,8,10,12,-1,-1,-1,-1,-1,-1],"split_conditions":[-1.415E3,-1.651E3,1.279E3,-4.863445E-2,0E0,1E0,2.441E3,-2.590528E-2,1.210078E-2,-1.2791987E-2,2.921022E-2,1.9283516E-2,5.008775E-2],"split_indices":[0,6,6,0,4,4,0,0,0,0,0,0,0],"split_type":[0,0,0,0,0,0,0,0,0,0,0,0,0],"sum_hessian":[2.0367322E2,6.8354546E1,1.3531868E2,4.7757896E1,2.0596647E1,6.2926876E1,7.23918E1,1.2003061E1,8.593586E0,4.1622772E1,2.1304108E1,2.4247242E1,4.8144558E1],"tree_param":{"num_deleted":"0","num_feature":"9","num_nodes":"13","size_leaf_vector":"1"}},{"base_weights":[-2.730512E-2,-7.1536934E-1,4.667523E-1,-5.733796E-2,-4.1628274E-1,1.332804E-1,8.799485E-1,-3.3737272E-2,-4.0446827E-3,1.582834E-2,-1.7477872E-2,1.4261819E-2,5.036378E-2],"categories":[],"categories_nodes":[],"categories_segments":[],"categories_sizes":[],"default_left":[0,0,0,0,0,0,0,0,0,0,0,0,0],"id":14,"left_children":[1,3,5,-1,7,9,11,-1,-1,-1,-1,-1,-1],"loss_changes":[7.032353E1,9.71698E0,1.6253143E1,0E0,4.668191E0,6.5466385E0,3.173027E0,0E0,0E0,0E0,0E0,0E0,0E0],"parents":[2147483647,0,0,1,1,2,2,4,4,5,5,6,6],"right_children":[2,4,6,-1,8,10,12,-1,-1,-1,-1,-1,-1],"split_conditions":[-6.63E2,-4.10745E3,2.512E3,-5.733796E-2,0E0,1.432E3,0E0,-3.3737272E-2,-4.0446827E-3,1.582834E-2,-1.7477872E-2,1.4261819E-2,5.036378E-2],"split_indices":[6,7,0,0,4,0,4,0,0,0,0,0,0],"split_type":[0,0,0,0,0,0,0,0,0,0,0,0,0],"sum_hessian":[2.009218E2,8.3411865E1,1.1750994E2,3.067088E1,5.2740986E1,6.72241E1,5.028584E1,2.8072126E1,2.466886E1,4.9475986E1,1.7748114E1,1.0581747E1,3.970409E1],"tree_param":{"num_deleted":"0","num_feature":"9","num_nodes":"13","size_leaf_vector":"1"}},{"base_weights":[1.9968823E-2,-8.445511E-1,4.3234673E-1,-5.092854E-2,-4.2396468E-1,8.192687E-2,4.646248E-2,-3.1000538E-2,1.32871615E-2,-1.9897828E-2,1.1685417E-2],"categories":[],"categories_nodes":[],"categories_segments":[],"categories_sizes":[],"default_left":[0,0,0,0,0,0,0,0,0,0,0],"id":15,"left_children":[1,3,5,-1,7,9,-1,-1,-1,-1,-1],"loss_changes":[7.3301155E1,3.5661697E0,2.3994143E1,0E0,3.8177705E0,6.4607115E0,0E0,0E0,0E0,0E0,0E0],"parents":[2147483647,0,0,1,1,2,2,4,4,5,5],"right_children":[2,4,6,-1,8,10,-1,-1,-1,-1,-1],"split_conditions":[-1.63045E3,0E0,2.29125E3,-5.092854E-2,-2.35345E3,-1E0,4.646248E-2,-3.1000538E-2,1.32871615E-2,-1.9897828E-2,1.1685417E-2],"split_indices":[7,4,7,0,7,4,0,0,0,0,0],"split_type":[0,0,0,0,0,0,0,0,0,0,0],"sum_hessian":[1.9953557E2,6.3425232E1,1.3611034E2,4.1845913E1,2.1579317E1,8.186976E1,5.424058E1,1.7039175E1,4.540141E0,1.8503145E1,6.3366615E1],"tree_param":{"num_deleted":"0","num_feature":"9","num_nodes":"11","size_leaf_vector":"1"}},{"base_weights":[1.4251737E-2,-8.2177895E-1,3.640262E-1,-9.163121E-1,-6.142446E-3,7.0000805E-2,8.227303E-1,-4.7642007E-2,1.0520333E-2,8.032753E-3,-1.9465238E-2,2.3861112E-2,5.57217E-2],"categories":[],"categories_nodes":[],"categories_segments":[],"categories_sizes":[],"default_left":[0,0,0,0,0,0,0,0,0,0,0,0,0],"id":16,"left_children":[1,3,5,7,-1,9,11,-1,-1,-1,-1,-1,-1],"loss_changes":[6.2599415E1,3.835415E0,2.0171516E1,2.8721046E0,0E0,4.151605E0,4.3148117E0,0E0,0E0,0E0,0E0,0E0,0E0],"parents":[2147483647,0,0,1,1,2,2,3,3,5,5,6,6],"right_children":[2,4,6,8,-1,10,12,-1,-1,-1,-1,-1,-1],"split_conditions":[-1.508E3,0E0,2.209E3,2.3E1,-6.142446E-3,1.488E3,1E0,-4.7642007E-2,1.0520333E-2,8.032753E-3,-1.9465238E-2,2.3861112E-2,5.57217E-2],"split_indices":[6,1,0,2,0,0,4,0,0,0,0,0,0],"split_type":[0,0,0,0,0,0,0,0,0,0,0,0,0],"sum_hessian":[2.0800305E2,6.0160088E1,1.4784297E2,5.217072E1,7.9893703E0,9.220084E1,5.5642124E1,5.0980896E1,1.1898229E0,7.863177E1,1.3569078E1,2.9092043E1,2.6550081E1],"tree_param":{"num_deleted":"0","num_feature":"9","num_nodes":"13","size_leaf_vector":"1"}},{"base_weights":[4.2131253E-2,-5.08435E-1,6.4081323E-1,-8.110888E-1,-5.6202333E-2,2.594974E-1,8.2437414E-1,-5.6252588E-2,-2.7784487E-2,-1.959387E-2,1.2646618E-2,-2.5790045E-2,2.406164E-2,2.3379214E-2,5.1955026E-2],"categories":[],"categories_nodes":[],"categories_segments":[],"categories_sizes":[],"default_left":[0,0,0,0,0,0,0,0,0,0,0,0,0,0,0],"id":17,"left_children":[1,3,5,7,9,11,13,-1,-1,-1,-1,-1,-1,-1,-1],"loss_changes":[6.742878E1,1.4466553E1,6.211319E0,3.2318726E0,5.07073E0,6.9668636E0,3.5003052E0,0E0,0E0,0E0,0E0,0E0,0E0,0E0,0E0],"parents":[2147483647,0,0,1,1,2,2,3,3,4,4,5,5,6,6],"right_children":[2,4,6,8,10,12,14,-1,-1,-1,-1,-1,-1,-1,-1],"split_conditions":[1.51E2,-1.71365E3,0E0,-4.63315E3,0E0,-1E0,2.56865E3,-5.6252588E-2,-2.7784487E-2,-1.959387E-2,1.2646618E-2,-2.5790045E-2,2.406164E-2,2.3379214E-2,5.1955026E-2],"split_indices":[6,7,4,7,4,5,7,0,0,0,0,0,0,0,0],"split_type":[0,0,0,0,0,0,0,0,0,0,0,0,0,0,0],"sum_hessian":[1.9860345E2,1.03694786E2,9.490867E1,6.0694695E1,4.300009E1,3.319431E1,6.1714355E1,2.2643608E1,3.8051086E1,2.023014E1,2.276995E1,6.49743E0,2.669688E1,2.6768505E1,3.4945854E1],"tree_param":{"num_deleted":"0","num_feature":"9","num_nodes":"15","size_leaf_vector":"1"}},{"base_weights":[-1.7433144E-4,-5.0204486E-1,5.651395E-1,-5.6727666E-2,-3.2825848E-1,1.6813226E-1,4.5372043E-2,-2.988427E-2,1.6299516E-3,-1.2820116E-2,2.599876E-2],"categories":[],"categories_nodes":[],"categories_segments":[],"categories_sizes":[],"default_left":[0,0,0,0,0,0,0,0,0,0,0],"id":18,"left_children":[1,3,5,-1,7,9,-1,-1,-1,-1,-1],"loss_changes":[5.826645E1,1.0840958E1,1.2667261E1,0E0,8.766127E0,7.629366E0,0E0,0E0,0E0,0E0,0E0],"parents":[2147483647,0,0,1,1,2,2,4,4,5,5],"right_children":[2,4,6,-1,8,10,-1,-1,-1,-1,-1],"split_conditions":[3.98E2,-6.3E1,2.7E1,-5.6727666E-2,0E0,4E0,4.5372043E-2,-2.988427E-2,1.6299516E-3,-1.2820116E-2,2.599876E-2],"split_indices":[0,2,2,0,4,1,0,0,0,0,0],"split_type":[0,0,0,0,0,0,0,0,0,0,0],"sum_hessian":[1.9937001E2,1.05789055E2,9.3580956E1,1.9226707E1,8.656235E1,4.5399433E1,4.818152E1,4.8432407E1,3.8129944E1,2.0943151E1,2.4456282E1],"tree_param":{"num_deleted":"0","num_feature":"9","num_nodes":"11","size_leaf_vector":"1"}},{"base_weights":[-1.838942E-2,-7.0743E-1,3.8933736E-1,-5.3191077E-2,-4.6243405E-1,7.9305984E-2,4.569197E-2,-3.2933544E-2,-5.3207884E-3,-1.9240736E-3,2.9216526E-2],"categories":[],"categories_nodes":[],"categories_segments":[],"categories_sizes":[],"default_left":[0,0,0,0,0,0,0,0,0,0,0],"id":19,"left_children":[1,3,5,-1,7,9,-1,-1,-1,-1,-1],"loss_changes":[5.6122753E1,5.0060234E0,2.0205137E1,0E0,3.2340183E0,4.9582677E0,0E0,0E0,0E0,0E0,0E0],"parents":[2147483647,0,0,1,1,2,2,4,4,5,5],"right_children":[2,4,6,-1,8,10,-1,-1,-1,-1,-1],"split_conditions":[-1.15185E3,-3.28E3,6E0,-5.3191077E-2,0E0,2.5E3,4.569197E-2,-3.2933544E-2,-5.3207884E-3,-1.9240736E-3,2.9216526E-2],"split_indices":[7,6,1,0,4,6,0,0,0,0,0],"split_type":[0,0,0,0,0,0,0,0,0,0,0],"sum_hessian":[1.9382642E2,7.123581E1,1.2259061E2,2.4935686E1,4.630012E1,7.921845E1,4.337215E1,2.8203875E1,1.8096247E1,6.648377E1,1.2734679E1],"tree_param":{"num_deleted":"0","num_feature":"9","num_nodes":"11","size_leaf_vector":"1"}},{"base_weights":[-8.002236E-2,-6.019389E-1,4.0890053E-1,-8.109366E-1,-1.4831443E-1,2.1848819E-1,4.8008867E-2,-5.0297897E-2,-2.3054635E-2,-3.0186543E-2,4.2359596E-3,-3.0762333E-2,1.5159358E-2],"categories":[],"categories_nodes":[],"categories_segments":[],"categories_sizes":[],"default_left":[0,0,0,0,0,0,0,0,0,0,0,0,0],"id":20,"left_children":[1,3,5,7,9,11,-1,-1,-1,-1,-1,-1,-1],"loss_changes":[5.165133E1,8.903427E0,1.0371761E1,3.1268082E0,3.8140466E0,6.3346667E0,0E0,0E0,0E0,0E0,0E0,0E0,0E0],"parents":[2147483647,0,0,1,1,2,2,3,3,4,4,5,5],"right_children":[2,4,6,8,10,12,-1,-1,-1,-1,-1,-1,-1],"split_conditions":[-1.92E2,-1.165E3,3.656E3,0E0,-2.4E1,-4E0,4.8008867E-2,-5.0297897E-2,-2.3054635E-2,-3.0186543E-2,4.2359596E-3,-3.0762333E-2,1.5159358E-2],"split_indices":[6,0,6,4,2,1,0,0,0,0,0,0,0],"split_type":[0,0,0,0,0,0,0,0,0,0,0,0,0],"sum_hessian":[1.965201E2,9.4717445E1,1.0180266E2,6.3224888E1,3.149256E1,7.878063E1,2.3022024E1,3.698254E1,2.6242346E1,9.044568E0,2.2447992E1,5.5322394E0,7.324839E1],"tree_param":{"num_deleted":"0","num_feature":"9","num_nodes":"13","size_leaf_vector":"1"}},{"base_weights":[1.1892707E-2,-6.142376E-1,5.321616E-1,-8.175005E-1,-1.8083873E-1,2.4701343E-1,4.5543503E-2,-4.2945266E-2,3.0729123E-3,1.8931514E-3,-2.6888723E-2,4.5776498E-3,3.5516582E-2],"categories":[],"categories_nodes":[],"categories_segments":[],"categories_sizes":[],"default_left":[0,0,0,0,0,0,0,0,0,0,0,0,0],"id":21,"left_children":[1,3,5,7,9,11,-1,-1,-1,-1,-1,-1,-1],"loss_changes":[6.2003017E1,7.168354E0,1.0547033E1,2.267994E0,2.5152512E0,4.371363E0,0E0,0E0,0E0,0E0,0E0,0E0,0E0],"parents":[2147483647,0,0,1,1,2,2,3,3,4,4,5,5],"right_children":[2,4,6,8,10,12,-1,-1,-1,-1,-1,-1,-1],"split_conditions":[-8.5E1,-1.71365E3,1E0,-3.54E2,-6.2245E2,2E0,4.5543503E-2,-4.2945266E-2,3.0729123E-3,1.8931514E-3,-2.6888723E-2,4.5776498E-3,3.5516582E-2],"split_indices":[0,7,4,6,7,3,0,0,0,0,0,0,0],"split_type":[0,0,0,0,0,0,0,0,0,0,0,0,0],"sum_hessian":[1.843254E2,8.340625E1,1.0091914E2,5.4967762E1,2.8438486E1,6.0398735E1,4.0520405E1,5.2560265E1,2.407498E0,1.9296745E1,9.141743E0,4.7914463E1,1.2484271E1],"tree_param":{"num_deleted":"0","num_feature":"9","num_nodes":"13","size_leaf_vector":"1"}},{"base_weights":[-8.190009E-3,-6.732465E-1,3.1577212E-1,-4.0354874E-2,-1.1069104E-1,1.3414876E-1,4.6657164E-2,-3.0756254E-2,1.4929566E-2,-1.9819621E-2,1.4880552E-2],"categories":[],"categories_nodes":[],"categories_segments":[],"categories_sizes":[],"default_left":[0,0,0,0,0,0,0,0,0,0,0],"id":22,"left_children":[1,3,5,-1,7,9,-1,-1,-1,-1,-1],"loss_changes":[4.0753845E1,4.396534E0,1.3892495E1,0E0,3.72698E0,9.184547E0,0E0,0E0,0E0,0E0,0E0],"parents":[2147483647,0,0,1,1,2,2,4,4,5,5],"right_children":[2,4,6,-1,8,10,-1,-1,-1,-1,-1],"split_conditions":[-1.349E3,-1.027E3,8E0,-4.0354874E-2,-2.794E3,-1E0,4.6657164E-2,-3.0756254E-2,1.4929566E-2,-1.9819621E-2,1.4880552E-2],"split_indices":[0,6,1,0,0,4,0,0,0,0,0],"split_type":[0,0,0,0,0,0,0,0,0,0,0],"sum_hessian":[1.8319394E2,5.894737E1,1.24246574E2,4.6564102E1,1.2383266E1,9.882522E1,2.5421352E1,4.8710127E0,7.512254E0,2.2269922E1,7.65553E1],"tree_param":{"num_deleted":"0","num_feature":"9","num_nodes":"11","size_leaf_vector":"1"}},{"base_weights":[3.8242485E-2,-7.261845E-1,3.5700873E-1,-7.7054065E-1,1.4637614E-2,1.0647752E-1,7.8576785E-1,-4.051182E-2,7.742134E-3,-1.1992761E-2,1.5457272E-2,1.2989461E-2,5.569428E-2],"categories":[],"categories_nodes":[],"categories_segments":[],"categories_sizes":[],"default_left":[0,0,0,0,0,0,0,0,0,0,0,0,0],"id":23,"left_children":[1,3,5,7,-1,9,11,-1,-1,-1,-1,-1,-1],"loss_changes":[4.8808315E1,3.3430882E0,1.4907246E1,2.483429E0,0E0,6.7179008E0,8.032812E0,0E0,0E0,0E0,0E0,0E0,0E0],"parents":[2147483647,0,0,1,1,2,2,3,3,5,5,6,6],"right_children":[2,4,6,8,-1,10,12,-1,-1,-1,-1,-1,-1],"split_conditions":[-1.63045E3,7.9E1,1E0,-1.101E3,1.4637614E-2,1.51E2,1E0,-4.051182E-2,7.742134E-3,-1.1992761E-2,1.5457272E-2,1.2989461E-2,5.569428E-2],"split_indices":[7,6,4,0,0,6,3,0,0,0,0,0,0],"split_type":[0,0,0,0,0,0,0,0,0,0,0,0,0],"sum_hessian":[1.9411029E2,5.5995136E1,1.3811514E2,5.436008E1,1.6350536E0,8.9540276E1,4.8574875E1,5.2482075E1,1.8780066E0,3.2851288E1,5.6688988E1,2.0725994E1,2.7848883E1],"tree_param":{"num_deleted":"0","num_feature":"9","num_nodes":"13","size_leaf_vector":"1"}},{"base_weights":[-6.3791727E-3,-4.1517338E-1,5.210085E-1,-7.811791E-1,-1.2270913E-1,3.1283557E-1,5.0436344E-2,-4.3396857E-2,-5.434908E-3,6.3213776E-3,-2.4602387E-2,6.231646E-4,2.4723416E-2],"categories":[],"categories_nodes":[],"categories_segments":[],"categories_sizes":[],"default_left":[0,0,0,0,0,0,0,0,0,0,0,0,0],"id":24,"left_children":[1,3,5,7,9,11,-1,-1,-1,-1,-1,-1,-1],"loss_changes":[4.2139637E1,1.1496178E1,7.720442E0,2.5370102E0,6.1444907E0,3.4828677E0,0E0,0E0,0E0,0E0,0E0,0E0,0E0],"parents":[2147483647,0,0,1,1,2,2,3,3,4,4,5,5],"right_children":[2,4,6,8,10,12,-1,-1,-1,-1,-1,-1,-1],"split_conditions":[6.4125E2,-2.35345E3,4.828E3,-4E0,-2.97E2,1E0,5.0436344E-2,-4.3396857E-2,-5.434908E-3,6.3213776E-3,-2.4602387E-2,6.231646E-4,2.4723416E-2],"split_indices":[7,7,0,2,6,5,0,0,0,0,0,0,0],"split_type":[0,0,0,0,0,0,0,0,0,0,0,0,0],"sum_hessian":[1.8944923E2,1.0708371E2,8.2365524E1,4.5335423E1,6.1748287E1,6.117743E1,2.1188091E1,3.9382645E1,5.9527793E0,3.805287E1,2.3695417E1,2.426139E1,3.6916042E1],"tree_param":{"num_deleted":"0","num_feature":"9","num_nodes":"13","size_leaf_vector":"1"}},{"base_weights":[-2.1960115E-2,-4.599657E-1,3.658343E-1,-4.7367997E-2,-2.6598364E-1,1.0033307E-1,7.5809014E-1,-2.1794278E-2,3.4183808E-4,-7.53146E-3,2.047505E-2,1.6895272E-2,5.049948E-2],"categories":[],"categories_nodes":[],"categories_segments":[],"categories_sizes":[],"default_left":[0,0,0,0,0,0,0,0,0,0,0,0,0],"id":25,"left_children":[1,3,5,-1,7,9,11,-1,-1,-1,-1,-1,-1],"loss_changes":[3.1095198E1,7.3657017E0,9.894038E0,0E0,3.0504818E0,4.95057E0,3.0802097E0,0E0,0E0,0E0,0E0,0E0,0E0],"parents":[2147483647,0,0,1,1,2,2,4,4,5,5,6,6],"right_children":[2,4,6,-1,8,10,12,-1,-1,-1,-1,-1,-1],"split_conditions":[-1.3E1,-3.28E3,1E0,-4.7367997E-2,-7E0,2.6E1,2.885E3,-2.1794278E-2,3.4183808E-4,-7.53146E-3,2.047505E-2,1.6895272E-2,5.049948E-2],"split_indices":[0,6,4,0,2,2,0,0,0,0,0,0,0],"split_type":[0,0,0,0,0,0,0,0,0,0,0,0,0],"sum_hessian":[1.7709587E2,8.2901764E1,9.4194115E1,2.028442E1,6.2617344E1,5.841968E1,3.5774433E1,3.748194E1,2.51354E1,3.3094284E1,2.5325396E1,1.604111E1,1.9733324E1],"tree_param":{"num_deleted":"0","num_feature":"9","num_nodes":"13","size_leaf_vector":"1"}},{"base_weights":[2.6988588E-2,-6.267744E-1,2.8371012E-1,-4.9425E-2,-2.0424668E-2,1.2723653E-1,4.5437504E-2,-1.0338854E-2,2.0107847E-2],"categories":[],"categories_nodes":[],"categories_segments":[],"categories_sizes":[],"default_left":[0,0,0,0,0,0,0,0,0],"id":26,"left_children":[1,3,5,-1,-1,7,-1,-1,-1],"loss_changes":[3.1936054E1,3.0279312E0,1.299462E1,0E0,0E0,1.0588198E1,0E0,0E0,0E0],"parents":[2147483647,0,0,1,1,2,2,5,5],"right_children":[2,4,6,-1,-1,8,-1,-1,-1],"split_conditions":[-1.622E3,-3.807E3,8E0,-4.9425E-2,-2.0424668E-2,0E0,4.5437504E-2,-1.0338854E-2,2.0107847E-2],"split_indices":[6,6,1,0,0,4,0,0,0],"split_type":[0,0,0,0,0,0,0,0,0],"sum_hessian":[1.8410391E2,5.0690903E1,1.3341301E2,1.50932865E1,3.5597614E1,1.09589E2,2.3824007E1,4.9812756E1,5.9776245E1],"tree_param":{"num_deleted":"0","num_feature":"9","num_nodes":"9","size_leaf_vector":"1"}},{"base_weights":[-4.3359885E-4,-6.388345E-1,3.5879514E-1,-7.0964164E-1,3.0194854E-2,1.651616E-1,7.46383E-1,-4.350768E-2,-1.3745985E-2,1.6051235E-4,2.5002683E-2,-5.2608373E-3,4.0776063E-2],"categories":[],"categories_nodes":[],"categories_segments":[],"categories_sizes":[],"default_left":[0,0,0,0,0,0,0,0,0,0,0,0,0],"id":27,"left_children":[1,3,5,7,-1,9,11,-1,-1,-1,-1,-1,-1],"loss_changes":[4.3373524E1,7.278204E0,8.713473E0,3.8744164E0,0E0,4.5814714E0,2.5812511E0,0E0,0E0,0E0,0E0,0E0,0E0],"parents":[2147483647,0,0,1,1,2,2,3,3,5,5,6,6],"right_children":[2,4,6,8,-1,10,12,-1,-1,-1,-1,-1,-1],"split_conditions":[-1.15185E3,3.9E1,6E0,-1.508E3,3.0194854E-2,1E0,1.627E3,-4.350768E-2,-1.3745985E-2,1.6051235E-4,2.5002683E-2,-5.2608373E-3,4.0776063E-2],"split_indices":[7,2,1,6,0,4,0,0,0,0,0,0,0],"split_type":[0,0,0,0,0,0,0,0,0,0,0,0,0],"sum_hessian":[1.8313147E2,6.5101585E1,1.18029884E2,6.280977E1,2.2918165E0,8.156134E1,3.646854E1,4.3677773E1,1.9131994E1,5.7017063E1,2.4544277E1,2.62087E0,3.384767E1],"tree_param":{"num_deleted":"0","num_feature":"9","num_nodes":"13","size_leaf_vector":"1"}},{"base_weights":[-2.0701254E-2,-4.1240904E-1,4.0946305E-1,-7.1880656E-1,-1.23782605E-1,-3.253448E-2,6.189486E-1,-4.5021947E-2,-1.7263558E-2,6.781667E-3,-1.8310841E-2,-1.1082957E-2,2.7650384E-2,2.0691048E-2,4.3229923E-2],"categories":[],"categories_nodes":[],"categories_segments":[],"categories_sizes":[],"default_left":[0,0,0,0,0,0,0,0,0,0,0,0,0,0,0],"id":28,"left_children":[1,3,5,7,9,11,13,-1,-1,-1,-1,-1,-1,-1,-1],"loss_changes":[3.249414E1,8.652153E0,8.5773325E0,2.3441105E0,3.6431167E0,3.9587796E0,2.0787888E0,0E0,0E0,0E0,0E0,0E0,0E0,0E0,0E0],"parents":[2147483647,0,0,1,1,2,2,3,3,4,4,5,5,6,6],"right_children":[2,4,6,8,10,12,14,-1,-1,-1,-1,-1,-1,-1,-1],"split_conditions":[1.51E2,-2.207E3,0E0,0E0,0E0,3.446E3,3.455E3,-4.5021947E-2,-1.7263558E-2,6.781667E-3,-1.8310841E-2,-1.1082957E-2,2.7650384E-2,2.0691048E-2,4.3229923E-2],"split_indices":[6,0,4,4,1,6,0,0,0,0,0,0,0,0,0],"split_type":[0,0,0,0,0,0,0,0,0,0,0,0,0,0,0],"sum_hessian":[1.8683852E2,9.785528E1,8.898323E1,4.529747E1,5.255781E1,2.9427557E1,5.9555676E1,2.7630383E1,1.7667088E1,2.6028116E1,2.6529696E1,2.3652395E1,5.7751637E0,3.6843575E1,2.27121E1],"tree_param":{"num_deleted":"0","num_feature":"9","num_nodes":"15","size_leaf_vector":"1"}},{"base_weights":[1.860238E-2,-6.15823E-1,3.075373E-1,-3.9388202E-2,-2.1121143E-1,8.740404E-2,3.3026297E-2,3.6571894E-3,-3.871124E-2,-6.1755045E-3,2.3967957E-2],"categories":[],"categories_nodes":[],"categories_segments":[],"categories_sizes":[],"default_left":[0,0,0,0,0,0,0,0,0,0,0],"id":29,"left_children":[1,3,5,-1,7,9,-1,-1,-1,-1,-1],"loss_changes":[3.3095493E1,3.4332714E0,9.456062E0,0E0,3.524874E0,6.773052E0,0E0,0E0,0E0,0E0,0E0],"parents":[2147483647,0,0,1,1,2,2,4,4,5,5],"right_children":[2,4,6,-1,8,10,-1,-1,-1,-1,-1],"split_conditions":[-1.333E3,-2.41725E3,1E0,-3.9388202E-2,-1.609E3,2.6E1,3.3026297E-2,3.6571894E-3,-3.871124E-2,-6.1755045E-3,2.3967957E-2],"split_indices":[0,7,4,0,0,2,0,0,0,0,0],"split_type":[0,0,0,0,0,0,0,0,0,0,0],"sum_hessian":[1.7444669E2,5.352523E1,1.20921455E2,3.556912E1,1.795611E1,7.6781364E1,4.414009E1,1.3664819E1,4.2912903E0,5.12552E1,2.5526163E1],"tree_param":{"num_deleted":"0","num_feature":"9","num_nodes":"11","size_leaf_vector":"1"}},{"base_weights":[-7.5430577E-3,-4.391131E-1,2.7862385E-1,-4.1134786E-2,-2.4560669E-1,1.240755E-1,4.1146588E-2,-2.4185127E-2,1.046682E-3,-1.4840589E-3,2.5129503E-2],"categories":[],"categories_nodes":[],"categories_segments":[],"categories_sizes":[],"default_left":[0,0,0,0,0,0,0,0,0,0,0],"id":30,"left_children":[1,3,5,-1,7,9,-1,-1,-1,-1,-1],"loss_changes":[2.1572388E1,4.56166E0,8.533076E0,0E0,3.238666E0,5.013417E0,0E0,0E0,0E0,0E0,0E0],"parents":[2147483647,0,0,1,1,2,2,4,4,5,5],"right_children":[2,4,6,-1,8,10,-1,-1,-1,-1,-1],"split_conditions":[-6.44E2,-4.10745E3,8E0,-4.1134786E-2,0E0,3.9E1,4.1146588E-2,-2.4185127E-2,1.046682E-3,-1.4840589E-3,2.5129503E-2],"split_indices":[6,7,1,0,4,2,0,0,0,0,0],"split_type":[0,0,0,0,0,0,0,0,0,0,0],"sum_hessian":[1.687017E2,6.662331E1,1.0207841E2,1.9068932E1,4.755437E1,8.23735E1,1.970491E1,2.3826414E1,2.3727959E1,6.0544445E1,2.1829048E1],"tree_param":{"num_deleted":"0","num_feature":"9","num_nodes":"11","size_leaf_vector":"1"}},{"base_weights":[-3.7227172E-2,-3.2058966E-1,5.761937E-1,-3.5691675E-2,-1.3961858E-1,2.3599993E-1,4.1293286E-2,-1.2042588E-2,1.8709024E-2,-1.651462E-2,2.2263361E-2],"categories":[],"categories_nodes":[],"categories_segments":[],"categories_sizes":[],"default_left":[0,0,0,0,0,0,0,0,0,0,0],"id":31,"left_children":[1,3,5,-1,7,9,-1,-1,-1,-1,-1],"loss_changes":[3.1244629E1,8.433156E0,4.245014E0,0E0,4.8350735E0,3.7911985E0,0E0,0E0,0E0,0E0,0E0],"parents":[2147483647,0,0,1,1,2,2,4,4,5,5],"right_children":[2,4,6,-1,8,10,-1,-1,-1,-1,-1],"split_conditions":[1.746E3,-2.41725E3,3.455E3,-3.5691675E-2,2E0,-1E0,4.1293286E-2,-1.2042588E-2,1.8709024E-2,-1.651462E-2,2.2263361E-2],"split_indices":[0,7,0,0,4,5,0,0,0,0,0],"split_type":[0,0,0,0,0,0,0,0,0,0,0],"sum_hessian":[1.7356415E2,1.1970155E2,5.386259E1,3.4941505E1,8.4760056E1,2.5268454E1,2.859414E1,7.214008E1,1.2619969E1,6.349976E0,1.8918476E1],"tree_param":{"num_deleted":"0","num_feature":"9","num_nodes":"11","size_leaf_vector":"1"}},{"base_weights":[-6.609008E-2,-3.768789E-1,4.974603E-1,-4.457981E-2,-2.591753E-1,8.011606E-3,3.5766467E-2,-1.613686E-2,1.035926E-2],"categories":[],"categories_nodes":[],"categories_segments":[],"categories_sizes":[],"default_left":[0,0,0,0,0,0,0,0,0],"id":32,"left_children":[1,3,5,-1,7,-1,-1,-1,-1],"loss_changes":[3.1689985E1,6.3501434E0,4.392579E0,0E0,3.130785E0,0E0,0E0,0E0,0E0],"parents":[2147483647,0,0,1,1,2,2,4,4],"right_children":[2,4,6,-1,8,-1,-1,-1,-1],"split_conditions":[1.229E3,-3.346E3,5E0,-4.457981E-2,3.2E1,8.011606E-3,3.5766467E-2,-1.613686E-2,1.035926E-2],"split_indices":[6,6,1,0,2,0,0,0,0],"split_type":[0,0,0,0,0,0,0,0,0],"sum_hessian":[1.7472424E2,1.1325802E2,6.1466217E1,1.740802E1,9.585E1,2.6168188E1,3.529803E1,8.51663E1,1.0683707E1],"tree_param":{"num_deleted":"0","num_feature":"9","num_nodes":"9","size_leaf_vector":"1"}},{"base_weights":[-4.762328E-3,-3.2382292E-1,3.791609E-1,-4.2991366E-2,-1.8277131E-1,1.8629965E-1,4.4899046E-2,-2.0727312E-2,2.9744522E-3,3.566562E-2,8.997935E-4],"categories":[],"categories_nodes":[],"categories_segments":[],"categories_sizes":[],"default_left":[0,0,0,0,0,0,0,0,0,0,0],"id":33,"left_children":[1,3,5,-1,7,9,-1,-1,-1,-1,-1],"loss_changes":[2.0949095E1,6.5881557E0,7.2665462E0,0E0,4.4386597E0,5.317402E0,0E0,0E0,0E0,0E0,0E0],"parents":[2147483647,0,0,1,1,2,2,4,4,5,5],"right_children":[2,4,6,-1,8,10,-1,-1,-1,-1,-1],"split_conditions":[4.17E2,-6.1E1,3.67E3,-4.2991366E-2,0E0,-1E1,4.4899046E-2,-2.0727312E-2,2.9744522E-3,3.566562E-2,8.997935E-4],"split_indices":[6,2,6,0,4,2,0,0,0,0,0],"split_type":[0,0,0,0,0,0,0,0,0,0,0],"sum_hessian":[1.650133E2,9.037582E1,7.463748E1,1.5643209E1,7.473261E1,5.7383522E1,1.7253958E1,3.7102493E1,3.7630116E1,1.1538397E1,4.5845123E1],"tree_param":{"num_deleted":"0","num_feature":"9","num_nodes":"11","size_leaf_vector":"1"}},{"base_weights":[2.6089281E-3,-2.0762561E-1,2.8870622E-2,-4.1045792E-2,-8.782017E-2,-1.3606304E-2,4.9316958E-3],"categories":[],"categories_nodes":[],"categories_segments":[],"categories_sizes":[],"default_left":[0,0,0,0,0,0,0],"id":34,"left_children":[1,3,-1,-1,5,-1,-1],"loss_changes":[2.1010336E1,9.139376E0,0E0,0E0,3.8565319E0,0E0,0E0],"parents":[2147483647,0,0,1,1,4,4],"right_children":[2,4,-1,-1,6,-1,-1],"split_conditions":[2.3E3,-3.28E3,2.8870622E-2,-4.1045792E-2,0E0,-1.3606304E-2,4.9316958E-3],"split_indices":[0,6,0,0,4,0,0],"split_type":[0,0,0,0,0,0,0],"sum_hessian":[1.6788773E2,1.2433027E2,4.3557465E1,1.7449446E1,1.0688082E2,5.305683E1,5.382399E1],"tree_param":{"num_deleted":"0","num_feature":"9","num_nodes":"7","size_leaf_vector":"1"}},{"base_weights":[5.032477E-2,-5.405509E-1,2.4906915E-1,-3.0970855E-2,1.8767003E-2,1.2206249E-1,7.190666E-1,9.150583E-3,-2.80502E-2,-9.229618E-3,3.9753746E-2],"categories":[],"categories_nodes":[],"categories_segments":[],"categories_sizes":[],"default_left":[0,0,0,0,0,0,0,0,0,0,0],"id":35,"left_children":[1,3,5,-1,-1,7,9,-1,-1,-1,-1],"loss_changes":[1.9486246E1,3.7201128E0,7.1176763E0,0E0,0E0,4.511116E0,2.2049522E0,0E0,0E0,0E0,0E0],"parents":[2147483647,0,0,1,1,2,2,5,5,6,6],"right_children":[2,4,6,-1,-1,8,10,-1,-1,-1,-1],"split_conditions":[-1.651E3,1.5E1,3.089E3,-3.0970855E-2,1.8767003E-2,2.672E3,-3E0,9.150583E-3,-2.80502E-2,-9.229618E-3,3.9753746E-2],"split_indices":[6,2,6,0,0,6,2,0,0,0,0],"split_type":[0,0,0,0,0,0,0,0,0,0,0],"sum_hessian":[1.5949527E2,3.8845737E1,1.20649536E2,3.6660084E1,2.1856527E0,9.795771E1,2.2691832E1,9.1949394E1,6.0083103E0,1.4280528E0,2.1263779E1],"tree_param":{"num_deleted":"0","num_feature":"9","num_nodes":"11","size_leaf_vector":"1"}},{"base_weights":[5.9419602E-2,-6.1816734E-1,2.5247785E-1,-4.634585E-2,-2.855518E-1,1.158843E-1,6.8311316E-1,1.158644E-2,-2.3666212E-2,-3.8851274E-3,1.2983928E-2,-1.4870464E-3,3.9369438E-2],"categories":[],"categories_nodes":[],"categories_segments":[],"categories_sizes":[],"default_left":[0,0,0,0,0,0,0,0,0,0,0,0,0],"id":36,"left_children":[1,3,5,-1,7,9,11,-1,-1,-1,-1,-1,-1],"loss_changes":[2.2369831E1,3.107871E0,7.552352E0,0E0,2.5267725E0,2.9598098E0,2.395215E0,0E0,0E0,0E0,0E0,0E0,0E0],"parents":[2147483647,0,0,1,1,2,2,4,4,5,5,6,6],"right_children":[2,4,6,-1,8,10,12,-1,-1,-1,-1,-1,-1],"split_conditions":[-2.35345E3,-3.28E3,3.12265E3,-4.634585E-2,-2.715E3,0E0,1E0,1.158644E-2,-2.3666212E-2,-3.8851274E-3,1.2983928E-2,-1.4870464E-3,3.9369438E-2],"split_indices":[7,6,7,0,6,4,3,0,0,0,0,0,0],"split_type":[0,0,0,0,0,0,0,0,0,0,0,0,0],"sum_hessian":[1.6442592E2,3.499526E1,1.2943066E2,1.5368876E1,1.962638E1,1.0115312E2,2.8277534E1,5.039939E0,1.4586441E1,4.3699883E1,5.7453243E1,3.8821979E0,2.4395336E1],"tree_param":{"num_deleted":"0","num_feature":"9","num_nodes":"13","size_leaf_vector":"1"}},{"base_weights":[-9.281959E-3,-2.825355E-1,3.210298E-1,-5.4282904E-1,7.892278E-3,-2.1888055E-1,4.053859E-1,-3.7345923E-2,-5.6226905E-3,1.0632303E-2,-3.0946273E-2,1.8618835E-2,-2.2590911E-2,1.49104E-2,3.8613543E-2],"categories":[],"categories_nodes":[],"categories_segments":[],"categories_sizes":[],"default_left":[0,0,0,0,0,0,0,0,0,0,0,0,0,0,0],"id":37,"left_children":[1,3,5,7,9,11,13,-1,-1,-1,-1,-1,-1,-1,-1],"loss_changes":[1.5551053E1,7.1368146E0,3.8206167E0,4.116893E0,6.4907765E0,2.225474E0,2.0045738E0,0E0,0E0,0E0,0E0,0E0,0E0,0E0,0E0],"parents":[2147483647,0,0,1,1,2,2,3,3,4,4,5,5,6,6],"right_children":[2,4,6,8,10,12,14,-1,-1,-1,-1,-1,-1,-1,-1],"split_conditions":[4.17E2,0E0,5.0715E2,-2E0,5.33E2,-2.3E1,5.47615E3,-3.7345923E-2,-5.6226905E-3,1.0632303E-2,-3.0946273E-2,1.8618835E-2,-2.2590911E-2,1.49104E-2,3.8613543E-2],"split_indices":[6,4,7,1,0,2,7,0,0,0,0,0,0,0,0],"split_type":[0,0,0,0,0,0,0,0,0,0,0,0,0,0,0],"sum_hessian":[1.6627919E2,9.1236694E1,7.5042496E1,4.6739548E1,4.4497143E1,9.493889E0,6.554861E1,3.0208012E1,1.6531536E1,3.5035007E1,9.462136E0,2.1756594E0,7.31823E0,5.4938023E1,1.0610581E1],"tree_param":{"num_deleted":"0","num_feature":"9","num_nodes":"15","size_leaf_vector":"1"}},{"base_weights":[5.733647E-2,-4.3690163E-1,2.6813066E-1,-4.4025104E-2,-2.1489722E-1,1.5869586E-1,3.9730445E-2,9.199785E-3,-2.3604743E-2,3.171523E-2,2.7409547E-3],"categories":[],"categories_nodes":[],"categories_segments":[],"categories_sizes":[],"default_left":[0,0,0,0,0,0,0,0,0,0,0],"id":38,"left_children":[1,3,5,-1,7,9,-1,-1,-1,-1,-1],"loss_changes":[1.7235193E1,4.316454E0,6.2742224E0,0E0,4.058764E0,4.803708E0,0E0,0E0,0E0,0E0,0E0],"parents":[2147483647,0,0,1,1,2,2,4,4,5,5],"right_children":[2,4,6,-1,8,10,-1,-1,-1,-1,-1],"split_conditions":[-1.349E3,-5.017E3,4.276E3,-4.4025104E-2,-3.035E3,-3E1,3.9730445E-2,9.199785E-3,-2.3604743E-2,3.171523E-2,2.7409547E-3],"split_indices":[0,0,0,0,0,2,0,0,0,0,0],"split_type":[0,0,0,0,0,0,0,0,0,0,0],"sum_hessian":[1.5905936E2,4.6594273E1,1.1246508E2,1.2572988E1,3.4021286E1,9.634327E1,1.6121815E1,1.3671589E1,2.0349697E1,1.4524167E1,8.18191E1],"tree_param":{"num_deleted":"0","num_feature":"9","num_nodes":"11","size_leaf_vector":"1"}},{"base_weights":[-4.569115E-2,-3.427637E-1,2.7320153E-1,-3.682563E-2,-1.3671885E-1,1.5317921E-1,3.435534E-2,-1.967015E-2,3.8166025E-3,-7.678023E-3,1.4290425E-2],"categories":[],"categories_nodes":[],"categories_segments":[],"categories_sizes":[],"default_left":[0,0,0,0,0,0,0,0,0,0,0],"id":39,"left_children":[1,3,5,-1,7,9,-1,-1,-1,-1,-1],"loss_changes":[1.5451397E1,6.5319357E0,3.6039085E0,0E0,3.3156362E0,2.777091E0,0E0,0E0,0E0,0E0,0E0],"parents":[2147483647,0,0,1,1,2,2,4,4,5,5],"right_children":[2,4,6,-1,8,10,-1,-1,-1,-1,-1],"split_conditions":[1.51E2,-5E0,3.656E3,-3.682563E-2,1E0,-1E0,3.435534E-2,-1.967015E-2,3.8166025E-3,-7.678023E-3,1.4290425E-2],"split_indices":[6,1,6,0,8,5,0,0,0,0,0],"split_type":[0,0,0,0,0,0,0,0,0,0,0],"sum_hessian":[1.5713707E2,8.1235504E1,7.590156E1,2.5253271E1,5.5982235E1,6.2025845E1,1.3875716E1,2.4239218E1,3.1743017E1,1.8580399E1,4.3445446E1],"tree_param":{"num_deleted":"0","num_feature":"9","num_nodes":"11","size_leaf_vector":"1"}},{"base_weights":[-5.0528944E-3,-1.6713604E-1,6.9177264E-1,-4.4659387E-2,-8.7619126E-2,-8.276305E-3,3.845708E-2,-1.593531E-2,6.248772E-3],"categories":[],"categories_nodes":[],"categories_segments":[],"categories_sizes":[],"default_left":[0,0,0,0,0,0,0,0,0],"id":40,"left_children":[1,3,5,-1,7,-1,-1,-1,-1],"loss_changes":[1.94723E1,7.8361855E0,2.540187E0,0E0,6.4729137E0,0E0,0E0,0E0,0E0],"parents":[2147483647,0,0,1,1,2,2,4,4],"right_children":[2,4,6,-1,8,-1,-1,-1,-1],"split_conditions":[6E0,-5.04285E3,8.5205E2,-4.4659387E-2,0E0,-8.276305E-3,3.845708E-2,-1.593531E-2,6.248772E-3],"split_indices":[1,7,7,0,4,0,0,0,0],"split_type":[0,0,0,0,0,0,0,0,0],"sum_hessian":[1.6633607E2,1.367972E2,2.9538887E1,1.0472948E1,1.2632424E2,2.162181E0,2.7376705E1,5.981206E1,6.6512184E1],"tree_param":{"num_deleted":"0","num_feature":"9","num_nodes":"9","size_leaf_vector":"1"}},{"base_weights":[-4.8092302E-2,-3.796867E-1,2.2195789E-1,-6.572259E-1,6.1103042E-2,-2.539494E-2,2.985047E-1,-3.5397824E-2,9.598938E-3,-2.3323612E-2,1.5212576E-2,1.232846E-3,2.5425104E-2],"categories":[],"categories_nodes":[],"categories_segments":[],"categories_sizes":[],"default_left":[0,0,0,0,0,0,0,0,0,0,0,0,0],"id":41,"left_children":[1,3,5,7,9,-1,11,-1,-1,-1,-1,-1,-1],"loss_changes":[1.4973298E1,9.282601E0,5.6223683E0,2.398573E0,4.4897857E0,0E0,4.8852787E0,0E0,0E0,0E0,0E0,0E0,0E0],"parents":[2147483647,0,0,1,1,2,2,3,3,4,4,6,6],"right_children":[2,4,6,8,10,-1,12,-1,-1,-1,-1,-1,-1],"split_conditions":[0E0,3.77E2,-6E0,1.488E3,-1E0,-2.539494E-2,1E0,-3.5397824E-2,9.598938E-3,-2.3323612E-2,1.5212576E-2,1.232846E-3,2.5425104E-2],"split_indices":[4,0,1,6,5,0,5,0,0,0,0,0,0],"split_type":[0,0,0,0,0,0,0,0,0,0,0,0,0],"sum_hessian":[1.6138799E2,7.189285E1,8.949513E1,4.3211853E1,2.8681E1,6.890486E0,8.260465E1,4.1246803E1,1.9650507E0,8.179027E0,2.0501972E1,3.7306816E1,4.5297832E1],"tree_param":{"num_deleted":"0","num_feature":"9","num_nodes":"13","size_leaf_vector":"1"}},{"base_weights":[2.6287187E-2,-4.1299704E-1,1.7150246E-1,-2.9019121E-2,2.4031837E-1,9.783639E-2,3.9818484E-2,-1.5474955E-2,3.3023264E-2,1.1471281E-2,-6.7655668E-3],"categories":[],"categories_nodes":[],"categories_segments":[],"categories_sizes":[],"default_left":[0,0,0,0,0,0,0,0,0,0,0],"id":42,"left_children":[1,3,5,-1,7,9,-1,-1,-1,-1,-1],"loss_changes":[1.0410392E1,4.858007E0,5.3944006E0,0E0,3.0160534E0,3.5535986E0,0E0,0E0,0E0,0E0,0E0],"parents":[2147483647,0,0,1,1,2,2,4,4,5,5],"right_children":[2,4,6,-1,8,10,-1,-1,-1,-1,-1],"split_conditions":[-1.651E3,-4E0,5.47615E3,-2.9019121E-2,3E0,1.432E3,3.9818484E-2,-1.5474955E-2,3.3023264E-2,1.1471281E-2,-6.7655668E-3],"split_indices":[6,2,7,0,5,0,0,0,0,0,0],"split_type":[0,0,0,0,0,0,0,0,0,0,0],"sum_hessian":[1.5686484E2,3.759768E1,1.19267166E2,3.0196074E1,7.4016047E0,1.0979327E2,9.473895E0,3.5482798E0,3.8533247E0,7.021284E1,3.958043E1],"tree_param":{"num_deleted":"0","num_feature":"9","num_nodes":"11","size_leaf_vector":"1"}},{"base_weights":[-1.647033E-2,-1.5413328E-1,5.1302975E-1,-3.3482626E-2,-7.547579E-2,2.157455E-1,3.875018E-2,-1.4602646E-2,5.7997457E-3,3.1138066E-2,-5.188856E-3],"categories":[],"categories_nodes":[],"categories_segments":[],"categories_sizes":[],"default_left":[0,0,0,0,0,0,0,0,0,0,0],"id":43,"left_children":[1,3,5,-1,7,9,-1,-1,-1,-1,-1],"loss_changes":[1.1939004E1,5.1083136E0,2.1321526E0,0E0,4.9088626E0,2.7947288E0,0E0,0E0,0E0,0E0,0E0],"parents":[2147483647,0,0,1,1,2,2,4,4,5,5],"right_children":[2,4,6,-1,8,10,-1,-1,-1,-1,-1],"split_conditions":[2.74335E3,-3.346E3,1E0,-3.3482626E-2,0E0,1E0,3.875018E-2,-1.4602646E-2,5.7997457E-3,3.1138066E-2,-5.188856E-3],"split_indices":[7,6,4,0,4,8,0,0,0,0,0],"split_type":[0,0,0,0,0,0,0,0,0,0,0],"sum_hessian":[1.5753465E2,1.2671673E2,3.0817932E1,1.3790903E1,1.1292582E2,1.6998682E1,1.381925E1,5.2249363E1,6.067646E1,6.223686E0,1.0774996E1],"tree_param":{"num_deleted":"0","num_feature":"9","num_nodes":"11","size_leaf_vector":"1"}},{"base_weights":[-3.2492924E-2,-3.358173E-1,1.796252E-1,-3.6292445E-2,-1.8463108E-1,5.0121E-2,5.717947E-1,-2.7657012E-2,9.914872E-4,1.8758051E-2,-1.3380437E-2,-8.229113E-3,3.4059014E-2],"categories":[],"categories_nodes":[],"categories_segments":[],"categories_sizes":[],"default_left":[0,0,0,0,0,0,0,0,0,0,0,0,0],"id":44,"left_children":[1,3,5,-1,7,9,11,-1,-1,-1,-1,-1,-1],"loss_changes":[1.019681E1,3.437171E0,4.6657996E0,0E0,3.8712726E0,7.904647E0,2.1839838E0,0E0,0E0,0E0,0E0,0E0,0E0],"parents":[2147483647,0,0,1,1,2,2,4,4,5,5,6,6],"right_children":[2,4,6,-1,8,10,12,-1,-1,-1,-1,-1,-1],"split_conditions":[-8.5E1,-3.221E3,3.043E3,-3.6292445E-2,-1E0,1.432E3,-1E0,-2.7657012E-2,9.914872E-4,1.8758051E-2,-1.3380437E-2,-8.229113E-3,3.4059014E-2],"split_indices":[0,6,6,0,4,0,4,0,0,0,0,0,0],"split_type":[0,0,0,0,0,0,0,0,0,0,0,0,0],"sum_hessian":[1.5266914E2,6.2107403E1,9.0561745E1,1.416398E1,4.7943424E1,7.0623505E1,1.9938242E1,1.5282675E1,3.2660748E1,3.46421E1,3.5981407E1,2.3828993E0,1.7555344E1],"tree_param":{"num_deleted":"0","num_feature":"9","num_nodes":"13","size_leaf_vector":"1"}},{"base_weights":[2.219184E-2,-3.4606088E-2,1.24224566E-1,2.6246404E-2,3.433947E-2,-9.192596E-3,9.259608E-3],"categories":[],"categories_nodes":[],"categories_segments":[],"categories_sizes":[],"default_left":[0,0,0,0,0,0,0],"id":45,"left_children":[1,-1,3,5,-1,-1,-1],"loss_changes":[1.1512713E1,0E0,7.533861E0,4.121607E0,0E0,0E0,0E0],"parents":[2147483647,0,0,2,2,3,3],"right_children":[2,-1,4,6,-1,-1,-1],"split_conditions":[-2.908E3,-3.4606088E-2,2E0,1E0,3.433947E-2,-9.192596E-3,9.259608E-3],"split_indices":[6,0,3,8,0,0,0],"split_type":[0,0,0,0,0,0,0],"sum_hessian":[1.5142177E2,1.6757236E1,1.3466452E2,1.1736398E2,1.7300539E1,5.034572E1,6.701827E1],"tree_param":{"num_deleted":"0","num_feature":"9","num_nodes":"7","size_leaf_vector":"1"}},{"base_weights":[-8.321596E-2,-1.6908929E-1,2.958628E-2,-2.8275734E-1,2.119254E-1,-3.9474454E-2,-1.0471566E-2,-2.5214184E-2,1.5276492E-2],"categories":[],"categories_nodes":[],"categories_segments":[],"categories_sizes":[],"default_left":[0,0,0,0,0,0,0,0,0],"id":46,"left_children":[1,3,-1,5,7,-1,-1,-1,-1],"loss_changes":[9.490681E0,6.3731422E0,0E0,3.6443148E0,2.7800808E0,0E0,0E0,0E0,0E0],"parents":[2147483647,0,0,1,1,3,3,4,4],"right_children":[2,4,-1,6,8,-1,-1,-1,-1],"split_conditions":[8E0,2.7E1,2.958628E-2,-3.807E3,-5E0,-3.9474454E-2,-1.0471566E-2,-2.5214184E-2,1.5276492E-2],"split_indices":[1,2,0,6,1,0,0,0,0],"split_type":[0,0,0,0,0,0,0,0,0],"sum_hessian":[1.5556798E2,1.4000363E2,1.5564342E1,1.0842953E2,3.157411E1,1.0002826E1,9.84267E1,2.1281917E0,2.9445917E1],"tree_param":{"num_deleted":"0","num_feature":"9","num_nodes":"9","size_leaf_vector":"1"}},{"base_weights":[3.41914E-2,-4.6296958E-2,1.339493E-1,-5.8180593E-2,2.8950363E-1,-1.3981463E-2,6.7764977E-3,8.9881085E-3,3.0368907E-2],"categories":[],"categories_nodes":[],"categories_segments":[],"categories_sizes":[],"default_left":[0,0,0,0,0,0,0,0,0],"id":47,"left_children":[1,-1,3,5,7,-1,-1,-1,-1],"loss_changes":[1.5782014E1,0E0,4.484682E0,3.0683057E0,2.5499864E0,0E0,0E0,0E0,0E0],"parents":[2147483647,0,0,2,2,3,3,4,4],"right_children":[2,-1,4,6,8,-1,-1,-1,-1],"split_conditions":[-3.28E3,-4.6296958E-2,-2E0,0E0,2E0,-1.3981463E-2,6.7764977E-3,8.9881085E-3,3.0368907E-2],"split_indices":[6,0,2,4,3,0,0,0,0],"split_type":[0,0,0,0,0,0,0,0,0],"sum_hessian":[1.5788779E2,1.2522081E1,1.453657E2,6.587698E1,7.948872E1,3.0116903E1,3.576008E1,6.2580326E1,1.6908394E1],"tree_param":{"num_deleted":"0","num_feature":"9","num_nodes":"9","size_leaf_vector":"1"}},{"base_weights":[1.18234254E-1,-2.6995063E-1,3.5272157E-1,-5.179679E-1,2.8003182E-2,9.163966E-3,2.15191E-2,-3.016474E-2,1.0902792E-2,-1.3789936E-2,2.3454167E-2,-2.4158671E-2,1.8179761E-2],"categories":[],"categories_nodes":[],"categories_segments":[],"categories_sizes":[],"default_left":[0,0,0,0,0,0,0,0,0,0,0,0,0],"id":48,"left_children":[1,3,5,7,9,11,-1,-1,-1,-1,-1,-1,-1],"loss_changes":[1.4664913E1,4.565212E0,2.6504574E0,2.501462E0,4.494199E0,4.2722106E0,0E0,0E0,0E0,0E0,0E0,0E0,0E0],"parents":[2147483647,0,0,1,1,2,2,3,3,4,4,5,5],"right_children":[2,4,6,8,10,12,-1,-1,-1,-1,-1,-1,-1],"split_conditions":[-7.08E2,0E0,-1E0,-4.115E1,-9.67E2,3.98E2,2.15191E-2,-3.016474E-2,1.0902792E-2,-1.3789936E-2,2.3454167E-2,-2.4158671E-2,1.8179761E-2],"split_indices":[6,4,4,7,0,0,0,0,0,0,0,0,0],"split_type":[0,0,0,0,0,0,0,0,0,0,0,0,0],"sum_hessian":[1.5497142E2,5.8188633E1,9.678279E1,3.0546457E1,2.7642174E1,1.8462334E1,7.832046E1,2.78579E1,2.6885567E0,1.7033916E1,1.0608257E1,7.2716455E0,1.1190688E1],"tree_param":{"num_deleted":"0","num_feature":"9","num_nodes":"13","size_leaf_vector":"1"}},{"base_weights":[-5.706932E-2,-1.2109805E-1,3.776711E-2,-3.4936484E-2,-5.65187E-2,1.7824203E-3,-1.8355845E-2],"categories":[],"categories_nodes":[],"categories_segments":[],"categories_sizes":[],"default_left":[0,0,0,0,0,0,0],"id":49,"left_children":[1,3,-1,-1,5,-1,-1],"loss_changes":[8.397794E0,5.3778563E0,0E0,0E0,3.9265165E0,0E0,0E0],"parents":[2147483647,0,0,1,1,4,4],"right_children":[2,4,-1,-1,6,-1,-1],"split_conditions":[5.576E3,-3.28E3,3.776711E-2,-3.4936484E-2,1.914E3,1.7824203E-3,-1.8355845E-2],"split_indices":[0,6,0,0,6,0,0],"split_type":[0,0,0,0,0,0,0],"sum_hessian":[1.5316583E2,1.4434256E2,8.823276E0,1.155243E1,1.3279013E2,1.0445096E2,2.8339167E1],"tree_param":{"num_deleted":"0","num_feature":"9","num_nodes":"7","size_leaf_vector":"1"}},{"base_weights":[3.283253E-2,-2.4368665E-1,1.6126896E-1,-4.281421E-1,7.62742E-2,-8.568722E-2,2.9712737E-1,-8.643438E-3,-3.677436E-2,-2.3579814E-2,2.124112E-2,5.2870526E-3,-3.1224245E-2,-3.6551484E-3,2.132887E-2],"categories":[],"categories_nodes":[],"categories_segments":[],"categories_sizes":[],"default_left":[0,0,0,0,0,0,0,0,0,0,0,0,0,0,0],"id":50,"left_children":[1,3,5,7,9,11,13,-1,-1,-1,-1,-1,-1,-1,-1],"loss_changes":[5.469628E0,2.9891336E0,3.589221E0,2.0921082E0,4.5080853E0,4.2707624E0,3.3628469E0,0E0,0E0,0E0,0E0,0E0,0E0,0E0,0E0],"parents":[2147483647,0,0,1,1,2,2,3,3,4,4,5,5,6,6],"right_children":[2,4,6,8,10,12,14,-1,-1,-1,-1,-1,-1,-1,-1],"split_conditions":[-2E0,0E0,1.51E2,-2.023E3,-6E0,3E0,-1E0,-8.643438E-3,-3.677436E-2,-2.3579814E-2,2.124112E-2,5.2870526E-3,-3.1224245E-2,-3.6551484E-3,2.132887E-2],"split_indices":[1,4,6,0,1,1,5,0,0,0,0,0,0,0,0],"split_type":[0,0,0,0,0,0,0,0,0,0,0,0,0,0,0],"sum_hessian":[1.4768872E2,4.5987415E1,1.0170131E2,2.8527287E1,1.746013E1,3.6486305E1,6.5215004E1,1.814438E1,1.0382907E1,6.3771014E0,1.1083029E1,2.8700577E1,7.785728E0,1.7233267E1,4.7981735E1],"tree_param":{"num_deleted":"0","num_feature":"9","num_nodes":"15","size_leaf_vector":"1"}},{"base_weights":[-9.206959E-3,-1.3500705E-1,4.9475446E-1,-3.351736E-2,-7.593803E-2,4.2907637E-2,2.527625E-1,3.633418E-3,-1.4762729E-2,-1.4652613E-2,3.175501E-2],"categories":[],"categories_nodes":[],"categories_segments":[],"categories_sizes":[],"default_left":[0,0,0,0,0,0,0,0,0,0,0],"id":51,"left_children":[1,3,5,-1,7,-1,9,-1,-1,-1,-1],"loss_changes":[1.0220853E1,3.9214504E0,2.1823354E0,0E0,3.9564657E0,0E0,5.4814367E0,0E0,0E0,0E0,0E0],"parents":[2147483647,0,0,1,1,2,2,4,4,6,6],"right_children":[2,4,6,-1,8,-1,10,-1,-1,-1,-1],"split_conditions":[2.74335E3,-7.1E1,3.61735E3,-3.351736E-2,4E0,4.2907637E-2,4.828E3,3.633418E-3,-1.4762729E-2,-1.4652613E-2,3.175501E-2],"split_indices":[7,2,7,0,2,0,0,0,0,0,0],"split_type":[0,0,0,0,0,0,0,0,0,0,0],"sum_hessian":[1.5505553E2,1.25839485E2,2.9216038E1,9.420079E0,1.164194E2,8.625122E0,2.0590916E1,7.059263E1,4.582678E1,8.770694E0,1.1820222E1],"tree_param":{"num_deleted":"0","num_feature":"9","num_nodes":"11","size_leaf_vector":"1"}},{"base_weights":[-8.561472E-3,-2.4973279E-2,1.306634E-1,4.7696006E-2,2.860645E-2,6.2371115E-3,-2.9439708E-2],"categories":[],"categories_nodes":[],"categories_segments":[],"categories_sizes":[],"default_left":[0,0,0,0,0,0,0],"id":52,"left_children":[1,-1,3,5,-1,-1,-1],"loss_changes":[1.0540601E1,0E0,4.3242073E0,5.3467326E0,0E0,0E0,0E0],"parents":[2147483647,0,0,2,2,3,3],"right_children":[2,-1,4,6,-1,-1,-1],"split_conditions":[-4E0,-2.4973279E-2,3.319E3,2.672E3,2.860645E-2,6.2371115E-3,-2.9439708E-2],"split_indices":[1,0,6,6,0,0,0],"split_type":[0,0,0,0,0,0,0],"sum_hessian":[1.4835936E2,3.1064419E1,1.1729494E2,1.0153664E2,1.5758295E1,9.272452E1,8.812123E0],"tree_param":{"num_deleted":"0","num_feature":"9","num_nodes":"7","size_leaf_vector":"1"}},{"base_weights":[4.9583443E-2,-3.045326E-2,1.21465616E-1,6.32053E-2,3.292088E-2,-5.2424357E-3,1.0189339E-2],"categories":[],"categories_nodes":[],"categories_segments":[],"categories_sizes":[],"default_left":[0,0,0,0,0,0,0],"id":53,"left_children":[1,-1,3,5,-1,-1,-1],"loss_changes":[7.574977E0,0E0,4.3338118E0,3.1801443E0,0E0,0E0,0E0],"parents":[2147483647,0,0,2,2,3,3],"right_children":[2,-1,4,6,-1,-1,-1],"split_conditions":[-4.055E3,-3.045326E-2,4.65455E3,0E0,3.292088E-2,-5.2424357E-3,1.0189339E-2],"split_indices":[0,0,7,4,0,0,0],"split_type":[0,0,0,0,0,0,0],"sum_hessian":[1.5230724E2,1.2780605E1,1.3952663E2,1.2889447E2,1.0632162E1,5.9057926E1,6.983654E1],"tree_param":{"num_deleted":"0","num_feature":"9","num_nodes":"7","size_leaf_vector":"1"}},{"base_weights":[6.802874E-2,-3.6372688E-2,1.1341708E-1,3.5408903E-2,2.4470242E-2,-5.946195E-3,8.389108E-3],"categories":[],"categories_nodes":[],"categories_segments":[],"categories_sizes":[],"default_left":[0,0,0,0,0,0,0],"id":54,"left_children":[1,-1,3,5,-1,-1,-1],"loss_changes":[5.907477E0,0E0,4.373777E0,2.6789517E0,0E0,0E0,0E0],"parents":[2147483647,0,0,2,2,3,3],"right_children":[2,-1,4,6,-1,-1,-1],"split_conditions":[-5.73565E3,-3.6372688E-2,3.12265E3,0E0,2.4470242E-2,-5.946195E-3,8.389108E-3],"split_indices":[7,0,7,4,0,0,0],"split_type":[0,0,0,0,0,0,0],"sum_hessian":[1.5376114E2,5.866259E0,1.4789488E2,1.2520124E2,2.269364E1,5.794661E1,6.725463E1],"tree_param":{"num_deleted":"0","num_feature":"9","num_nodes":"7","size_leaf_vector":"1"}},{"base_weights":[-3.5199556E-2,-1.0806553E-1,2.5974352E-2,-3.5006013E-2,-6.768676E-2,1.8711003E-2,-6.0530165E-3],"categories":[],"categories_nodes":[],"categories_segments":[],"categories_sizes":[],"default_left":[0,0,0,0,0,0,0],"id":55,"left_children":[1,3,-1,-1,5,-1,-1],"loss_changes":[6.272259E0,3.1083255E0,0E0,0E0,3.2164297E0,0E0,0E0],"parents":[2147483647,0,0,1,1,4,4],"right_children":[2,4,-1,-1,6,-1,-1],"split_conditions":[2E0,-5.73565E3,2.5974352E-2,-3.5006013E-2,-2.715E3,1.8711003E-2,-6.0530165E-3],"split_indices":[3,7,0,0,6,0,0],"split_type":[0,0,0,0,0,0,0],"sum_hessian":[1.4801878E2,1.329672E2,1.50516E1,5.3599734E0,1.27607216E2,1.1808084E1,1.1579913E2],"tree_param":{"num_deleted":"0","num_feature":"9","num_nodes":"7","size_leaf_vector":"1"}},{"base_weights":[1.7120723E-2,-9.057418E-2,3.4087285E-2,-3.767494E-2,-1.1237591E-2,-6.386285E-3,1.3627353E-2],"categories":[],"categories_nodes":[],"categories_segments":[],"categories_sizes":[],"default_left":[0,0,0,0,0,0,0],"id":56,"left_children":[1,3,-1,-1,5,-1,-1],"loss_changes":[1.1329373E1,7.1606674E0,0E0,0E0,4.2390685E0,0E0,0E0],"parents":[2147483647,0,0,1,1,4,4],"right_children":[2,4,-1,-1,6,-1,-1],"split_conditions":[3.455E3,-4.251E3,3.4087285E-2,-3.767494E-2,1E0,-6.386285E-3,1.3627353E-2],"split_indices":[0,0,0,0,4,0,0],"split_type":[0,0,0,0,0,0,0],"sum_hessian":[1.5269485E2,1.3363242E2,1.9062445E1,1.1558537E1,1.22073875E2,8.7717354E1,3.4356518E1],"tree_param":{"num_deleted":"0","num_feature":"9","num_nodes":"7","size_leaf_vector":"1"}},{"base_weights":[6.0180094E-2,-1.9290628E-2,2.9231796E-2,-2.7219424E-2,4.2475834E-2,6.238698E-3,-2.1438504E-2],"categories":[],"categories_nodes":[],"categories_segments":[],"categories_sizes":[],"default_left":[0,0,0,0,0,0,0],"id":57,"left_children":[1,3,-1,-1,5,-1,-1],"loss_changes":[6.2818036E0,4.38578E0,0E0,0E0,4.886593E0,0E0,0E0],"parents":[2147483647,0,0,1,1,4,4],"right_children":[2,4,-1,-1,6,-1,-1],"split_conditions":[3.089E3,-3.346E3,2.9231796E-2,-2.7219424E-2,1.914E3,6.238698E-3,-2.1438504E-2],"split_indices":[6,6,0,0,6,0,0],"split_type":[0,0,0,0,0,0,0],"sum_hessian":[1.469073E2,1.3008517E2,1.6822134E1,1.1224119E1,1.1886105E2,1.0306715E2,1.5793912E1],"tree_param":{"num_deleted":"0","num_feature":"9","num_nodes":"7","size_leaf_vector":"1"}},{"base_weights":[-3.2999795E-2,-2.8013104E-1,9.9552125E-2,-2.8236413E-2,-5.8787156E-2,-2.7772589E-3,3.264677E-1,3.604254E-2,-7.974512E-3,4.0462795E-3,-3.1165754E-2,3.4937465E-3,3.330272E-2],"categories":[],"categories_nodes":[],"categories_segments":[],"categories_sizes":[],"default_left":[0,0,0,0,0,0,0,0,0,0,0,0,0],"id":58,"left_children":[1,3,5,-1,7,9,11,-1,-1,-1,-1,-1,-1],"loss_changes":[5.0858274E0,3.3081589E0,2.3620067E0,0E0,2.9969227E0,3.943055E0,2.6142278E0,0E0,0E0,0E0,0E0,0E0,0E0],"parents":[2147483647,0,0,1,1,2,2,4,4,5,5,6,6],"right_children":[2,4,6,-1,8,10,12,-1,-1,-1,-1,-1,-1],"split_conditions":[-1E0,-1.415E3,1E0,-2.8236413E-2,-1.292E3,5.6E1,2.484E3,3.604254E-2,-7.974512E-3,4.0462795E-3,-3.1165754E-2,3.4937465E-3,3.330272E-2],"split_indices":[5,0,4,0,0,2,0,0,0,0,0,0,0],"split_type":[0,0,0,0,0,0,0,0,0,0,0,0,0],"sum_hessian":[1.4970184E2,5.109663E1,9.860522E1,2.0318123E1,3.0778507E1,7.000099E1,2.8604225E1,1.4074628E0,2.9371046E1,6.397969E1,6.0213013E0,1.8353533E1,1.0250693E1],"tree_param":{"num_deleted":"0","num_feature":"9","num_nodes":"13","size_leaf_vector":"1"}},{"base_weights":[1.6883E-2,-2.4998685E-2,1.11503355E-1,4.819949E-2,2.8548582E-2,9.669042E-3,-1.1527983E-2],"categories":[],"categories_nodes":[],"categories_segments":[],"categories_sizes":[],"default_left":[0,0,0,0,0,0,0],"id":59,"left_children":[1,-1,3,5,-1,-1,-1],"loss_changes":[7.80961E0,0E0,3.8307085E0,5.0519705E0,0E0,0E0,0E0],"parents":[2147483647,0,0,2,2,3,3],"right_children":[2,-1,4,6,-1,-1,-1],"split_conditions":[-5E0,-2.4998685E-2,3.446E3,1.432E3,2.8548582E-2,9.669042E-3,-1.1527983E-2],"split_indices":[1,0,6,0,0,0,0],"split_type":[0,0,0,0,0,0,0],"sum_hessian":[1.5326904E2,2.1728226E1,1.3154082E2,1.1852551E2,1.3015306E1,7.853981E1,3.9985703E1],"tree_param":{"num_deleted":"0","num_feature":"9","num_nodes":"7","size_leaf_vector":"1"}},{"base_weights":[-2.7598375E-3,-3.9267916E-2,7.293176E-2,-4.9983516E-2,3.3777255E-1,-7.5266915E-3,1.1340934E-2,6.0453406E-3,3.274558E-2],"categories":[],"categories_nodes":[],"categories_segments":[],"categories_sizes":[],"default_left":[0,0,0,0,0,0,0,0,0],"id":60,"left_children":[1,-1,3,5,7,-1,-1,-1,-1],"loss_changes":[8.724931E0,0E0,4.425814E0,2.7301192E0,2.7192101E0,0E0,0E0,0E0,0E0],"parents":[2147483647,0,0,2,2,3,3,4,4],"right_children":[2,-1,4,6,8,-1,-1,-1,-1],"split_conditions":[-3.346E3,-3.9267916E-2,1E0,2.6E1,2.246E3,-7.5266915E-3,1.1340934E-2,6.0453406E-3,3.274558E-2],"split_indices":[6,0,4,2,0,0,0,0,0],"split_type":[0,0,0,0,0,0,0,0,0],"sum_hessian":[1.4138988E2,9.988495E0,1.3140138E2,9.1410614E1,3.999078E1,6.805695E1,2.3353657E1,2.6210957E1,1.3779822E1],"tree_param":{"num_deleted":"0","num_feature":"9","num_nodes":"9","size_leaf_vector":"1"}},{"base_weights":[-1.8125378E-2,-8.406116E-2,2.7448608E-2,-3.0661372E-2,-1.8873748E-3],"categories":[],"categories_nodes":[],"categories_segments":[],"categories_sizes":[],"default_left":[0,0,0,0,0],"id":61,"left_children":[1,3,-1,-1,-1],"loss_changes":[5.795351E0,3.315805E0,0E0,0E0,0E0],"parents":[2147483647,0,0,1,1],"right_children":[2,4,-1,-1,-1],"split_conditions":[8E0,-5.017E3,2.7448608E-2,-3.0661372E-2,-1.8873748E-3],"split_indices":[1,0,0,0,0],"split_type":[0,0,0,0,0],"sum_hessian":[1.4828656E2,1.3513042E2,1.3156152E1,7.919726E0,1.27210686E2],"tree_param":{"num_deleted":"0","num_feature":"9","num_nodes":"5","size_leaf_vector":"1"}},{"base_weights":[1.2423451E-2,-1.6458267E-2,1.4852531E-1,5.172779E-1,4.898343E-2,-6.794932E-3,4.769112E-2,-4.4421176E-3,1.9882083E-2],"categories":[],"categories_nodes":[],"categories_segments":[],"categories_sizes":[],"default_left":[0,0,0,0,0,0,0,0,0],"id":62,"left_children":[1,-1,3,5,7,-1,-1,-1,-1],"loss_changes":[6.892491E0,0E0,3.808463E0,6.713522E0,4.26963E0,0E0,0E0,0E0,0E0],"parents":[2147483647,0,0,2,2,3,3,4,4],"right_children":[2,-1,4,6,8,-1,-1,-1,-1],"split_conditions":[-1.415E3,-1.6458267E-2,-1E0,-3E0,2.74335E3,-6.794932E-3,4.769112E-2,-4.4421176E-3,1.9882083E-2],"split_indices":[0,0,1,1,7,0,0,0,0],"split_type":[0,0,0,0,0,0,0,0,0],"sum_hessian":[1.4209995E2,3.9274113E1,1.02825836E2,1.9180815E1,8.364502E1,8.511552E0,1.0669262E1,6.1549755E1,2.2095264E1],"tree_param":{"num_deleted":"0","num_feature":"9","num_nodes":"9","size_leaf_vector":"1"}},{"base_weights":[-1.0276683E-1,-1.5603788E-1,3.7224703E-2,-3.732583E-2,-3.8163048E-1,-8.002589E-3,3.451465E-2,3.221422E-2,-2.3215448E-2],"categories":[],"categories_nodes":[],"categories_segments":[],"categories_sizes":[],"default_left":[0,0,0,0,0,0,0,0,0],"id":63,"left_children":[1,3,-1,5,7,-1,-1,-1,-1],"loss_changes":[7.100812E0,3.7931657E0,0E0,9.008882E0,5.0587864E0,0E0,0E0,0E0,0E0],"parents":[2147483647,0,0,1,1,3,3,4,4],"right_children":[2,4,-1,6,8,-1,-1,-1,-1],"split_conditions":[5.47615E3,1.432E3,3.7224703E-2,9.5675E2,-4E1,-8.002589E-3,3.451465E-2,3.221422E-2,-2.3215448E-2],"split_indices":[7,0,0,7,2,0,0,0,0],"split_type":[0,0,0,0,0,0,0,0,0],"sum_hessian":[1.4660413E2,1.4023447E2,6.3696656E0,9.4174194E1,4.606027E1,8.258488E1,1.1589317E1,1.9153779E0,4.414489E1],"tree_param":{"num_deleted":"0","num_feature":"9","num_nodes":"9","size_leaf_vector":"1"}},{"base_weights":[1.6124282E-3,-2.257644E-1,1.8873881E-1,-2.0478843E-2,4.3138318E-2,-1.5672358E-2,4.2658684E-1,2.7109696E-2,-1.320643E-2,-1.3596602E-2,2.3780761E-2,-2.3187218E-2,2.4859412E-2],"categories":[],"categories_nodes":[],"categories_segments":[],"categories_sizes":[],"default_left":[0,0,0,0,0,0,0,0,0,0,0,0,0],"id":64,"left_children":[1,3,5,-1,7,9,11,-1,-1,-1,-1,-1,-1],"loss_changes":[6.256787E0,3.3347952E0,3.941237E0,0E0,4.979676E0,6.2130504E0,3.041566E0,0E0,0E0,0E0,0E0,0E0,0E0],"parents":[2147483647,0,0,1,1,2,2,4,4,5,5,6,6],"right_children":[2,4,6,-1,8,10,12,-1,-1,-1,-1,-1,-1],"split_conditions":[0E0,3.77E2,3E0,-2.0478843E-2,1.451E3,1.279E3,-6E0,2.7109696E-2,-1.320643E-2,-1.3596602E-2,2.3780761E-2,-2.3187218E-2,2.4859412E-2],"split_indices":[4,0,5,0,0,6,1,0,0,0,0,0,0],"split_type":[0,0,0,0,0,0,0,0,0,0,0,0,0],"sum_hessian":[1.4104735E2,6.3395805E1,7.7651535E1,3.672349E1,2.6672312E1,4.3268272E1,3.4383263E1,9.290003E0,1.7382307E1,2.9316183E1,1.3952091E1,1.298819E0,3.3084446E1],"tree_param":{"num_deleted":"0","num_feature":"9","num_nodes":"13","size_leaf_vector":"1"}},{"base_weights":[-2.4625383E-2,-1.03719994E-1,2.5553852E-2,-3.005412E-1,6.171623E-2,-7.981875E-3,-3.631104E-2,-1.1061212E-2,1.623871E-2],"categories":[],"categories_nodes":[],"categories_segments":[],"categories_sizes":[],"default_left":[0,0,0,0,0,0,0,0,0],"id":65,"left_children":[1,3,-1,5,7,-1,-1,-1,-1],"loss_changes":[6.4137855E0,4.3251157E0,0E0,3.2744784E0,5.7031946E0,0E0,0E0,0E0,0E0],"parents":[2147483647,0,0,1,1,3,3,4,4],"right_children":[2,4,-1,6,8,-1,-1,-1,-1],"split_conditions":[7E0,1E0,2.5553852E-2,1.432E3,1E0,-7.981875E-3,-3.631104E-2,-1.1061212E-2,1.623871E-2],"split_indices":[1,8,0,0,5,0,0,0,0],"split_type":[0,0,0,0,0,0,0,0,0],"sum_hessian":[1.4461823E2,1.2812079E2,1.6497437E1,5.7391525E1,7.072927E1,4.621801E1,1.1173512E1,3.430669E1,3.642258E1],"tree_param":{"num_deleted":"0","num_feature":"9","num_nodes":"9","size_leaf_vector":"1"}},{"base_weights":[2.699588E-2,-1.7826853E-2,1.3785924E-1,6.8246394E-2,2.9658318E-2,5.6730337E-3,-2.991435E-2],"categories":[],"categories_nodes":[],"categories_segments":[],"categories_sizes":[],"default_left":[0,0,0,0,0,0,0],"id":66,"left_children":[1,-1,3,5,-1,-1,-1],"loss_changes":[6.3955216E0,0E0,3.5601952E0,3.3421922E0,0E0,0E0,0E0],"parents":[2147483647,0,0,2,2,3,3],"right_children":[2,-1,4,6,-1,-1,-1],"split_conditions":[-1.84505E3,-1.7826853E-2,3.292E3,3.92885E3,2.9658318E-2,5.6730337E-3,-2.991435E-2],"split_indices":[7,0,6,7,0,0,0],"split_type":[0,0,0,0,0,0,0],"sum_hessian":[1.4394502E2,3.0787468E1,1.1315756E2,1.01143234E2,1.2014327E1,9.704923E1,4.0940065E0],"tree_param":{"num_deleted":"0","num_feature":"9","num_nodes":"7","size_leaf_vector":"1"}},{"base_weights":[8.202271E-2,-6.0737528E-2,3.6403835E-1,-2.7291292E-2,8.059823E-3,3.8228992E-2,1.21891946E-1,1.8589815E-2,-9.1281E-3,-1.3553527E-2,1.9552337E-2],"categories":[],"categories_nodes":[],"categories_segments":[],"categories_sizes":[],"default_left":[0,0,0,0,0,0,0,0,0,0,0],"id":67,"left_children":[1,3,5,-1,7,-1,9,-1,-1,-1,-1],"loss_changes":[5.9370384E0,3.3298423E0,4.51518E0,0E0,6.443461E0,0E0,3.9541745E0,0E0,0E0,0E0,0E0],"parents":[2147483647,0,0,1,1,2,2,4,4,6,6],"right_children":[2,4,6,-1,8,-1,10,-1,-1,-1,-1],"split_conditions":[1.229E3,-6.3E1,1.914E3,-2.7291292E-2,-2.1E1,3.8228992E-2,2.761E3,1.8589815E-2,-9.1281E-3,-1.3553527E-2,1.9552337E-2],"split_indices":[6,2,6,0,2,0,6,0,0,0,0],"split_type":[0,0,0,0,0,0,0,0,0,0,0],"sum_hessian":[1.4281758E2,9.638171E1,4.643587E1,9.387715E0,8.699399E1,1.5057042E1,3.1378828E1,2.8933327E1,5.8060665E1,1.2747008E1,1.8631819E1],"tree_param":{"num_deleted":"0","num_feature":"9","num_nodes":"11","size_leaf_vector":"1"}},{"base_weights":[2.9616237E-2,-1.686637E-1,1.995699E-1,-4.9545523E-2,-4.9477214E-1,2.7275583E-1,-2.7447447E-1,-1.5906556E-2,1.3855343E-2,-3.5242725E-2,2.3098104E-2,-1.773539E-2,1.6781176E-2,-3.781492E-2,2.351588E-2],"categories":[],"categories_nodes":[],"categories_segments":[],"categories_sizes":[],"default_left":[0,0,0,0,0,0,0,0,0,0,0,0,0,0,0],"id":68,"left_children":[1,3,5,7,9,11,13,-1,-1,-1,-1,-1,-1,-1,-1],"loss_changes":[5.0386753E0,2.6166298E0,3.0095325E0,5.007261E0,4.633816E0,3.1595502E0,5.456262E0,0E0,0E0,0E0,0E0,0E0,0E0,0E0,0E0],"parents":[2147483647,0,0,1,1,2,2,3,3,4,4,5,5,6,6],"right_children":[2,4,6,8,10,12,14,-1,-1,-1,-1,-1,-1,-1,-1],"split_conditions":[1E0,1.432E3,5.6E1,0E0,3.87955E3,-2.984E3,1E0,-1.5906556E-2,1.3855343E-2,-3.5242725E-2,2.3098104E-2,-1.773539E-2,1.6781176E-2,-3.781492E-2,2.351588E-2],"split_indices":[5,0,2,3,7,6,4,0,0,0,0,0,0,0,0],"split_type":[0,0,0,0,0,0,0,0,0,0,0,0,0,0,0],"sum_hessian":[1.4352608E2,6.62532E1,7.727289E1,5.1058693E1,1.5194505E1,6.804199E1,9.230891E0,2.8062737E1,2.2995955E1,1.310638E1,2.0881245E0,4.928242E0,6.3113754E1,5.576787E0,3.6541045E0],"tree_param":{"num_deleted":"0","num_feature":"9","num_nodes":"15","size_leaf_vector":"1"}},{"base_weights":[1.6412413E-2,-1.221802E-1,3.5264343E-1,2.0371346E-1,-2.0356454E-1,-7.066874E-2,2.5871927E-2,-3.0643363E-2,3.162628E-2,-2.968735E-2,-2.2488832E-3,-2.1053066E-2,2.5312847E-2],"categories":[],"categories_nodes":[],"categories_segments":[],"categories_sizes":[],"default_left":[0,0,0,0,0,0,0,0,0,0,0,0,0],"id":69,"left_children":[1,3,5,7,9,11,-1,-1,-1,-1,-1,-1,-1],"loss_changes":[6.7735615E0,2.8613963E0,3.066801E0,8.908597E0,5.1222115E0,3.5742478E0,0E0,0E0,0E0,0E0,0E0,0E0,0E0],"parents":[2147483647,0,0,1,1,2,2,3,3,4,4,5,5],"right_children":[2,4,6,8,10,12,-1,-1,-1,-1,-1,-1,-1],"split_conditions":[1E0,-2.493E3,0E0,-4.63315E3,-7.27E2,1E0,2.5871927E-2,-3.0643363E-2,3.162628E-2,-2.968735E-2,-2.2488832E-3,-2.1053066E-2,2.5312847E-2],"split_indices":[4,0,1,7,6,5,0,0,0,0,0,0,0],"split_type":[0,0,0,0,0,0,0,0,0,0,0,0,0],"sum_hessian":[1.3958424E2,1.0019448E2,3.9389767E1,1.912029E1,8.107419E1,1.1517661E1,2.7872107E1,6.140108E0,1.2980183E1,2.1050413E1,6.0023777E1,7.669888E0,3.847773E0],"tree_param":{"num_deleted":"0","num_feature":"9","num_nodes":"13","size_leaf_vector":"1"}},{"base_weights":[6.591688E-3,-2.4210422E-1,2.1100183E-1,-3.1130132E-1,2.4797551E-2,5.5534646E-2,2.7906505E-2,-1.1735748E-2,-4.3999065E-2,1.1469164E-2,-1.36468625E-2],"categories":[],"categories_nodes":[],"categories_segments":[],"categories_sizes":[],"default_left":[0,0,0,0,0,0,0,0,0,0,0],"id":70,"left_children":[1,3,5,7,-1,9,-1,-1,-1,-1,-1],"loss_changes":[7.3690267E0,3.8048458E0,4.1979713E0,2.066111E0,0E0,3.5139952E0,0E0,0E0,0E0,0E0,0E0],"parents":[2147483647,0,0,1,1,2,2,3,3,5,5],"right_children":[2,4,6,8,-1,10,-1,-1,-1,-1,-1],"split_conditions":[1E0,3.66045E3,1E0,2.38745E3,2.4797551E-2,1.432E3,2.7906505E-2,-1.1735748E-2,-4.3999065E-2,1.1469164E-2,-1.36468625E-2],"split_indices":[5,7,4,7,0,0,0,0,0,0,0],"split_type":[0,0,0,0,0,0,0,0,0,0,0],"sum_hessian":[1.3894229E2,6.243159E1,7.6510704E1,5.8665947E1,3.7656422E0,5.5247246E1,2.1263454E1,5.543809E1,3.2278569E0,3.6718456E1,1.8528791E1],"tree_param":{"num_deleted":"0","num_feature":"9","num_nodes":"11","size_leaf_vector":"1"}},{"base_weights":[-7.527658E-2,-2.9612858E-2,-2.5989754E-2,3.9851405E-2,-6.969679E-2,-5.234836E-3,2.3520738E-2],"categories":[],"categories_nodes":[],"categories_segments":[],"categories_sizes":[],"default_left":[0,0,0,0,0,0,0],"id":71,"left_children":[1,-1,3,-1,5,-1,-1],"loss_changes":[3.6398835E0,0E0,5.0303626E0,0E0,2.6269932E0,0E0,0E0],"parents":[2147483647,0,0,2,2,4,4],"right_children":[2,-1,4,-1,6,-1,-1],"split_conditions":[-6.3E1,-2.9612858E-2,-5.6E1,3.9851405E-2,5.47615E3,-5.234836E-3,2.3520738E-2],"split_indices":[2,0,2,0,7,0,0],"split_type":[0,0,0,0,0,0,0],"sum_hessian":[1.41663E2,9.453502E0,1.322095E2,4.0595613E0,1.2814993E2,1.2262232E2,5.5276136E0],"tree_param":{"num_deleted":"0","num_feature":"9","num_nodes":"7","size_leaf_vector":"1"}},{"base_weights":[-6.117306E-2,-1.2212664E-1,2.5544688E-2,-2.2985311E-1,2.0292021E-1,-7.6393285E-3,-2.585209E-2,1.997946E-2,-4.4991937E-3],"categories":[],"categories_nodes":[],"categories_segments":[],"categories_sizes":[],"default_left":[0,0,0,0,0,0,0,0,0],"id":72,"left_children":[1,3,-1,5,7,-1,-1,-1,-1],"loss_changes":[5.33187E0,4.8935637E0,0E0,2.0508556E0,2.1462746E0,0E0,0E0,0E0,0E0],"parents":[2147483647,0,0,1,1,3,3,4,4],"right_children":[2,4,-1,6,8,-1,-1,-1,-1],"split_conditions":[8E0,2.7E1,2.5544688E-2,8E0,2E0,-7.6393285E-3,-2.585209E-2,1.997946E-2,-4.4991937E-3],"split_indices":[1,2,0,2,1,0,0,0,0],"split_type":[0,0,0,0,0,0,0,0,0],"sum_hessian":[1.4454114E2,1.3275562E2,1.1785527E1,1.0036981E2,3.2385807E1,8.275791E1,1.7611902E1,1.8722187E1,1.3663618E1],"tree_param":{"num_deleted":"0","num_feature":"9","num_nodes":"9","size_leaf_vector":"1"}},{"base_weights":[-2.7502364E-2,-6.905398E-1,3.5336565E-2,-4.3377664E-2,7.89389E-3,4.225436E-2,-1.1025216E-2,-4.347434E-3,2.1928241E-2],"categories":[],"categories_nodes":[],"categories_segments":[],"categories_sizes":[],"default_left":[0,0,0,0,0,0,0,0,0],"id":73,"left_children":[1,3,5,-1,-1,-1,7,-1,-1],"loss_changes":[6.330742E0,2.3854609E0,5.285287E0,0E0,0E0,0E0,4.736826E0,0E0,0E0],"parents":[2147483647,0,0,1,1,2,2,6,6],"right_children":[2,4,6,-1,-1,-1,8,-1,-1],"split_conditions":[-6.2E1,-1.016E3,-5.5E1,-4.3377664E-2,7.89389E-3,4.225436E-2,5.1E1,-4.347434E-3,2.1928241E-2],"split_indices":[2,0,2,0,0,0,2,0,0],"split_type":[0,0,0,0,0,0,0,0,0],"sum_hessian":[1.4718852E2,1.0147826E1,1.370407E2,8.340089E0,1.8077369E0,4.6223774E0,1.3241832E2,1.1535742E2,1.70609E1],"tree_param":{"num_deleted":"0","num_feature":"9","num_nodes":"9","size_leaf_vector":"1"}},{"base_weights":[-2.3377411E-2,-9.680142E-2,3.1355426E-2,-2.0228595E-1,1.1906895E-2,1.8422356E-3,-1.7537378E-2],"categories":[],"categories_nodes":[],"categories_segments":[],"categories_sizes":[],"default_left":[0,0,0,0,0,0,0],"id":74,"left_children":[1,3,-1,5,-1,-1,-1],"loss_changes":[6.959697E0,4.7414618E0,0E0,3.6092038E0,0E0,0E0,0E0],"parents":[2147483647,0,0,1,1,3,3],"right_children":[2,4,-1,6,-1,-1,-1],"split_conditions":[8E0,2.7E1,3.1355426E-2,-2.6E1,1.1906895E-2,1.8422356E-3,-1.7537378E-2],"split_indices":[1,2,0,2,0,0,0],"split_type":[0,0,0,0,0,0,0],"sum_hessian":[1.3890535E2,1.2711115E2,1.1794193E1,9.757074E1,2.9540407E1,3.8236988E1,5.9333755E1],"tree_param":{"num_deleted":"0","num_feature":"9","num_nodes":"7","size_leaf_vector":"1"}},{"base_weights":[-5.9889983E-3,-5.504227E-2,1.9701129E-2,-1.0986123E-3,-4.414954E-2,-7.5716833E-3,1.1270161E-2],"categories":[],"categories_nodes":[],"categories_segments":[],"categories_sizes":[],"default_left":[0,0,0,0,0,0,0],"id":75,"left_children":[1,3,-1,5,-1,-1,-1],"loss_changes":[2.8410077E0,5.7429557E0,0E0,4.317425E0,0E0,0E0,0E0],"parents":[2147483647,0,0,1,1,3,3],"right_children":[2,4,-1,6,-1,-1,-1],"split_conditions":[3.043E3,2.672E3,1.9701129E-2,3E0,-4.414954E-2,-7.5716833E-3,1.1270161E-2],"split_indices":[6,6,0,5,0,0,0],"split_type":[0,0,0,0,0,0,0],"sum_hessian":[1.384719E2,1.256506E2,1.2821292E1,1.2078503E2,4.8655744E0,7.319675E1,4.758828E1],"tree_param":{"num_deleted":"0","num_feature":"9","num_nodes":"7","size_leaf_vector":"1"}},{"base_weights":[2.9977236E-2,-6.41526E-1,8.7128945E-2,-4.0250026E-2,1.1930632E-2,3.435651E-2,4.3651484E-2,7.61339E-3,-5.7474384E-3],"categories":[],"categories_nodes":[],"categories_segments":[],"categories_sizes":[],"default_left":[0,0,0,0,0,0,0,0,0],"id":76,"left_children":[1,3,5,-1,-1,-1,7,-1,-1],"loss_changes":[5.695756E0,2.2534285E0,3.4418087E0,0E0,0E0,0E0,2.2823763E0,0E0,0E0],"parents":[2147483647,0,0,1,1,2,2,6,6],"right_children":[2,4,6,-1,-1,-1,8,-1,-1],"split_conditions":[-6.5E1,-1.2E2,-5.5E1,-4.0250026E-2,1.1930632E-2,3.435651E-2,9.72E2,7.61339E-3,-5.7474384E-3],"split_indices":[2,0,2,0,0,0,0,0,0],"split_type":[0,0,0,0,0,0,0,0,0],"sum_hessian":[1.4104434E2,8.656775E0,1.3238757E2,7.516748E0,1.1400275E0,5.9441233E0,1.2644344E2,7.511869E1,5.1324753E1],"tree_param":{"num_deleted":"0","num_feature":"9","num_nodes":"9","size_leaf_vector":"1"}}]},"name":"gbtree"},"learner_model_param":{"base_score":"[4.9228707E-1]","boost_from_average":"1","num_class":"0","num_feature":"9","num_target":"1"},"objective":{"name":"binary:logistic","reg_loss_param":{"scale_pos_weight":"1"}}},"version":[3,1,2]}