{"learner":{"attributes":{"best_iteration":"241","best_score":"0.4907052936166418"},"feature_names":["gold_diff_15","kill_diff_15","cs_diff_15","tower_diff_15","dragon_diff_15","grub_diff_15","experience_diff_15","early_impact_score","is_soloq"],"feature_types":["int","int","int","int","int","int","int","float","int"],"gradient_booster":{"model":{"cats":{"enc":[],"feature_segments":[],"sorted_idx":[]},"gbtree_model_param":{"num_parallel_tree":"1","num_trees":"272"},"iteration_indptr":[0,1,2,3,4,5,6,7,8,9,10,11,12,13,14,15,16,17,18,19,20,21,22,23,24,25,26,27,28,29,30,31,32,33,34,35,36,37,38,39,40,41,42,43,44,45,46,47,48,49,50,51,52,53,54,55,56,57,58,59,60,61,62,63,64,65,66,67,68,69,70,71,72,73,74,75,76,77,78,79,80,81,82,83,84,85,86,87,88,89,90,91,92,93,94,95,96,97,98,99,100,101,102,103,104,105,106,107,108,109,110,111,112,113,114,115,116,117,118,119,120,121,122,123,124,125,126,127,128,129,130,131,132,133,134,135,136,137,138,139,140,141,142,143,144,145,146,147,148,149,150,151,152,153,154,155,156,157,158,159,160,161,162,163,164,165,166,167,168,169,170,171,172,173,174,175,176,177,178,179,180,181,182,183,184,185,186,187,188,189,190,191,192,193,194,195,196,197,198,199,200,201,202,203,204,205,206,207,208,209,210,211,212,213,214,215,216,217,218,219,220,221,222,223,224,225,226,227,228,229,230,231,232,233,234,235,236,237,238,239,240,241,242,243,244,245,246,247,248,249,250,251,252,253,254,255,256,257,258,259,260,261,262,263,264,265,266,267,268,269,270,271,272],"tree_info":[0,0,0,0,0,0,0,0,0,0,0,0,0,0,0,0,0,0,0,0,0,0,0,0,0,0,0,0,0,0,0,0,0,0,0,0,0,0,0,0,0,0,0,0,0,0,0,0,0,0,0,0,0,0,0,0,0,0,0,0,0,0,0,0,0,0,0,0,0,0,0,0,0,0,0,0,0,0,0,0,0,0,0,0,0,0,0,0,0,0,0,0,0,0,0,0,0,0,0,0,0,0,0,0,0,0,0,0,0,0,0,0,0,0,0,0,0,0,0,0,0,0,0,0,0,0,0,0,0,0,0,0,0,0,0,0,0,0,0,0,0,0,0,0,0,0,0,0,0,0,0,0,0,0,0,0,0,0,0,0,0,0,0,0,0,0,0,0,0,0,0,0,0,0,0,0,0,0,0,0,0,0,0,0,0,0,0,0,0,0,0,0,0,0,0,0,0,0,0,0,0,0,0,0,0,0,0,0,0,0,0,0,0,0,0,0,0,0,0,0,0,0,0,0,0,0,0,0,0,0,0,0,0,0,0,0,0,0,0,0,0,0,0,0,0,0,0,0,0,0,0,0,0,0,0,0,0,0,0,0,0,0,0,0,0,0,0,0,0,0,0,0],"trees":[{"base_weights":[-2.0016382E-2,-1.0666716E0,8.460106E-1,-4.535547E-2,-1.5678557E-2,1.1369153E-2,4.3987785E-2],"categories":[],"categories_nodes":[],"categories_segments":[],"categories_sizes":[],"default_left":[0,0,0,0,0,0,0],"id":0,"left_children":[1,3,5,-1,-1,-1,-1],"loss_changes":[3.9769135E2,4.6529953E1,6.84451E1,0E0,0E0,0E0,0E0],"parents":[2147483647,0,0,1,1,2,2],"right_children":[2,4,6,-1,-1,-1,-1],"split_conditions":[-2.3985E2,-2.34075E3,2.83035E3,-4.535547E-2,-1.5678557E-2,1.1369153E-2,4.3987785E-2],"split_indices":[7,7,7,0,0,0,0],"split_type":[0,0,0,0,0,0,0],"sum_hessian":[4.3475272E2,1.9663815E2,2.3811456E2,1.06189606E2,9.0448555E1,1.3767169E2,1.0044287E2],"tree_param":{"num_deleted":"0","num_feature":"9","num_nodes":"7","size_leaf_vector":"1"}},{"base_weights":[-3.336632E-2,-8.978238E-1,9.58462E-1,-4.158116E-2,-8.861652E-3,1.4863905E-2,4.28434E-2],"categories":[],"categories_nodes":[],"categories_segments":[],"categories_sizes":[],"default_left":[0,0,0,0,0,0,0],"id":1,"left_children":[1,3,5,-1,-1,-1,-1],"loss_changes":[3.8509634E2,6.975284E1,4.407431E1,0E0,0E0,0E0,0E0],"parents":[2147483647,0,0,1,1,2,2],"right_children":[2,4,6,-1,-1,-1,-1],"split_conditions":[4.6655E2,-1.75785E3,2.76745E3,-4.158116E-2,-8.861652E-3,1.4863905E-2,4.28434E-2],"split_indices":[7,7,7,0,0,0,0],"split_type":[0,0,0,0,0,0,0],"sum_hessian":[4.4514047E2,2.3794339E2,2.0719708E2,1.2999428E2,1.07949104E2,1.0640718E2,1.007899E2],"tree_param":{"num_deleted":"0","num_feature":"9","num_nodes":"7","size_leaf_vector":"1"}},{"base_weights":[1.4217925E-2,-9.575092E-1,8.2044417E-1,-3.9166283E-2,-9.609717E-3,1.1902044E-2,4.13376E-2],"categories":[],"categories_nodes":[],"categories_segments":[],"categories_sizes":[],"default_left":[0,0,0,0,0,0,0],"id":2,"left_children":[1,3,5,-1,-1,-1,-1],"loss_changes":[3.4888083E2,4.394818E1,5.6392395E1,0E0,0E0,0E0,0E0],"parents":[2147483647,0,0,1,1,2,2],"right_children":[2,4,6,-1,-1,-1,-1],"split_conditions":[-1.9775E2,-1.75785E3,2.83035E3,-3.9166283E-2,-9.609717E-3,1.1902044E-2,4.13376E-2],"split_indices":[7,7,7,0,0,0,0],"split_type":[0,0,0,0,0,0,0],"sum_hessian":[4.4131827E2,1.9994888E2,2.4136938E2,1.2795915E2,7.198973E1,1.3908284E2,1.02286545E2],"tree_param":{"num_deleted":"0","num_feature":"9","num_nodes":"7","size_leaf_vector":"1"}},{"base_weights":[-3.6291633E-2,-9.3690735E-1,8.35107E-1,-3.903001E-2,-9.847843E-3,1.2978267E-2,3.918927E-2],"categories":[],"categories_nodes":[],"categories_segments":[],"categories_sizes":[],"default_left":[0,0,0,0,0,0,0],"id":3,"left_children":[1,3,5,-1,-1,-1,-1],"loss_changes":[3.520259E2,4.8019012E1,4.2115707E1,0E0,0E0,0E0,0E0],"parents":[2147483647,0,0,1,1,2,2],"right_children":[2,4,6,-1,-1,-1,-1],"split_conditions":[-9.7E1,-1.727E3,2.258E3,-3.903001E-2,-9.847843E-3,1.2978267E-2,3.918927E-2],"split_indices":[0,0,6,0,0,0,0],"split_type":[0,0,0,0,0,0,0],"sum_hessian":[4.445637E2,2.1854291E2,2.2602077E2,1.3531947E2,8.3223434E1,1.2396595E2,1.0205482E2],"tree_param":{"num_deleted":"0","num_feature":"9","num_nodes":"7","size_leaf_vector":"1"}},{"base_weights":[-1.5134215E-2,-7.867517E-1,9.6779E-1,-3.7504546E-2,-7.6775677E-3,1.769906E-2,4.160843E-2],"categories":[],"categories_nodes":[],"categories_segments":[],"categories_sizes":[],"default_left":[0,0,0,0,0,0,0],"id":4,"left_children":[1,3,5,-1,-1,-1,-1],"loss_changes":[3.381875E2,6.0802505E1,2.9421127E1,0E0,0E0,0E0,0E0],"parents":[2147483647,0,0,1,1,2,2],"right_children":[2,4,6,-1,-1,-1,-1],"split_conditions":[6.9495E2,-1.75785E3,3.16955E3,-3.7504546E-2,-7.6775677E-3,1.769906E-2,4.160843E-2],"split_indices":[7,7,7,0,0,0,0],"split_type":[0,0,0,0,0,0,0],"sum_hessian":[4.4189017E2,2.4777805E2,1.9411214E2,1.3084468E2,1.1693336E2,1.0462238E2,8.9489746E1],"tree_param":{"num_deleted":"0","num_feature":"9","num_nodes":"7","size_leaf_vector":"1"}},{"base_weights":[-1.046171E-2,-8.8652605E-1,7.521279E-1,-3.8907517E-2,-1.1802775E-2,1.0589347E-2,3.839596E-2],"categories":[],"categories_nodes":[],"categories_segments":[],"categories_sizes":[],"default_left":[0,0,0,0,0,0,0],"id":5,"left_children":[1,3,5,-1,-1,-1,-1],"loss_changes":[2.9650906E2,4.0774567E1,4.9081604E1,0E0,0E0,0E0,0E0],"parents":[2147483647,0,0,1,1,2,2],"right_children":[2,4,6,-1,-1,-1,-1],"split_conditions":[-1.9775E2,-2.25745E3,2.83035E3,-3.8907517E-2,-1.1802775E-2,1.0589347E-2,3.839596E-2],"split_indices":[7,7,7,0,0,0,0],"split_type":[0,0,0,0,0,0,0],"sum_hessian":[4.3982825E2,2.0453407E2,2.3529416E2,1.098496E2,9.468448E1,1.3586874E2,9.942542E1],"tree_param":{"num_deleted":"0","num_feature":"9","num_nodes":"7","size_leaf_vector":"1"}},{"base_weights":[-1.930704E-2,-7.2762364E-1,9.028564E-1,-3.6914878E-2,-8.547694E-3,1.4482408E-2,3.8122617E-2],"categories":[],"categories_nodes":[],"categories_segments":[],"categories_sizes":[],"default_left":[0,0,0,0,0,0,0],"id":6,"left_children":[1,3,5,-1,-1,-1,-1],"loss_changes":[2.894156E2,5.5080826E1,2.8526047E1,0E0,0E0,0E0,0E0],"parents":[2147483647,0,0,1,1,2,2],"right_children":[2,4,6,-1,-1,-1,-1],"split_conditions":[6.9495E2,-2.12545E3,2.83035E3,-3.6914878E-2,-8.547694E-3,1.4482408E-2,3.8122617E-2],"split_indices":[7,7,7,0,0,0,0],"split_type":[0,0,0,0,0,0,0],"sum_hessian":[4.39073E2,2.485686E2,1.905044E2,1.1470915E2,1.3385945E2,9.109994E1,9.940446E1],"tree_param":{"num_deleted":"0","num_feature":"9","num_nodes":"7","size_leaf_vector":"1"}},{"base_weights":[1.13424575E-2,-8.2197636E-1,7.498817E-1,-3.805236E-2,-1.1768218E-2,1.2588482E-2,3.8192175E-2],"categories":[],"categories_nodes":[],"categories_segments":[],"categories_sizes":[],"default_left":[0,0,0,0,0,0,0],"id":7,"left_children":[1,3,5,-1,-1,-1,-1],"loss_changes":[2.7332053E2,3.903633E1,3.961145E1,0E0,0E0,0E0,0E0],"parents":[2147483647,0,0,1,1,2,2],"right_children":[2,4,6,-1,-1,-1,-1],"split_conditions":[-1.7E2,-2.56E3,3.287E3,-3.805236E-2,-1.1768218E-2,1.2588482E-2,3.8192175E-2],"split_indices":[0,0,0,0,0,0,0],"split_type":[0,0,0,0,0,0,0],"sum_hessian":[4.4010382E2,2.066771E2,2.3342673E2,9.9450325E1,1.07226776E2,1.45306E2,8.812073E1],"tree_param":{"num_deleted":"0","num_feature":"9","num_nodes":"7","size_leaf_vector":"1"}},{"base_weights":[3.0788956E-2,-8.0501294E-1,7.4875903E-1,-3.6835525E-2,-1.1365933E-2,1.1952901E-2,3.6250725E-2],"categories":[],"categories_nodes":[],"categories_segments":[],"categories_sizes":[],"default_left":[0,0,0,0,0,0,0],"id":8,"left_children":[1,3,5,-1,-1,-1,-1],"loss_changes":[2.6862912E2,3.6349274E1,3.780159E1,0E0,0E0,0E0,0E0],"parents":[2147483647,0,0,1,1,2,2],"right_children":[2,4,6,-1,-1,-1,-1],"split_conditions":[-1.9775E2,-2.56E3,2.83035E3,-3.6835525E-2,-1.1365933E-2,1.1952901E-2,3.6250725E-2],"split_indices":[7,0,7,0,0,0,0],"split_type":[0,0,0,0,0,0,0],"sum_hessian":[4.43646E2,2.048888E2,2.3875719E2,1.0095525E2,1.0393354E2,1.3760307E2,1.0115412E2],"tree_param":{"num_deleted":"0","num_feature":"9","num_nodes":"7","size_leaf_vector":"1"}},{"base_weights":[3.171919E-2,-7.7827674E-1,6.9238293E-1,-3.2712787E-2,-6.5449434E-3,1.0705307E-2,3.4704793E-2],"categories":[],"categories_nodes":[],"categories_segments":[],"categories_sizes":[],"default_left":[0,0,0,0,0,0,0],"id":9,"left_children":[1,3,5,-1,-1,-1,-1],"loss_changes":[2.3282205E2,3.370237E1,3.650936E1,0E0,0E0,0E0,0E0],"parents":[2147483647,0,0,1,1,2,2],"right_children":[2,4,6,-1,-1,-1,-1],"split_conditions":[-1.9775E2,-1.75785E3,2.83035E3,-3.2712787E-2,-6.5449434E-3,1.0705307E-2,3.4704793E-2],"split_indices":[7,7,7,0,0,0,0],"split_type":[0,0,0,0,0,0,0],"sum_hessian":[4.3105774E2,1.9348392E2,2.3757384E2,1.2302734E2,7.045657E1,1.3998076E2,9.759308E1],"tree_param":{"num_deleted":"0","num_feature":"9","num_nodes":"7","size_leaf_vector":"1"}},{"base_weights":[2.7172986E-2,-7.9436404E-1,7.2883946E-1,-3.5807766E-2,-9.148317E-3,1.1146316E-2,3.569345E-2],"categories":[],"categories_nodes":[],"categories_segments":[],"categories_sizes":[],"default_left":[0,0,0,0,0,0,0],"id":10,"left_children":[1,3,5,-1,-1,-1,-1],"loss_changes":[2.5425485E2,3.8977905E1,3.828836E1,0E0,0E0,0E0,0E0],"parents":[2147483647,0,0,1,1,2,2],"right_children":[2,4,6,-1,-1,-1,-1],"split_conditions":[-1.9775E2,-2.25745E3,2.83035E3,-3.5807766E-2,-9.148317E-3,1.1146316E-2,3.569345E-2],"split_indices":[7,7,7,0,0,0,0],"split_type":[0,0,0,0,0,0,0],"sum_hessian":[4.370652E2,2.0121317E2,2.3585202E2,1.09232666E2,9.19805E1,1.348986E2,1.00953415E2],"tree_param":{"num_deleted":"0","num_feature":"9","num_nodes":"7","size_leaf_vector":"1"}},{"base_weights":[-4.9843392E-3,-7.6670814E-1,6.3729906E-1,-3.3732105E-2,-1.0840843E-2,8.855864E-3,3.183366E-2],"categories":[],"categories_nodes":[],"categories_segments":[],"categories_sizes":[],"default_left":[0,0,0,0,0,0,0],"id":11,"left_children":[1,3,5,-1,-1,-1,-1],"loss_changes":[2.1756326E2,2.8682198E1,3.435572E1,0E0,0E0,0E0,0E0],"parents":[2147483647,0,0,1,1,2,2],"right_children":[2,4,6,-1,-1,-1,-1],"split_conditions":[-1.9775E2,0E0,2.258E3,-3.3732105E-2,-1.0840843E-2,8.855864E-3,3.183366E-2],"split_indices":[7,4,6,0,0,0,0],"split_type":[0,0,0,0,0,0,0],"sum_hessian":[4.4069662E2,2.0142581E2,2.3927083E2,1.0511764E2,9.630817E1,1.3427727E2,1.0499356E2],"tree_param":{"num_deleted":"0","num_feature":"9","num_nodes":"7","size_leaf_vector":"1"}},{"base_weights":[2.3854398E-3,-7.729307E-1,6.7418873E-1,-2.9102039E-2,-3.4100744E-3,9.842037E-3,3.428408E-2],"categories":[],"categories_nodes":[],"categories_segments":[],"categories_sizes":[],"default_left":[0,0,0,0,0,0,0],"id":12,"left_children":[1,3,5,-1,-1,-1,-1],"loss_changes":[2.2870155E2,2.6271683E1,3.7405792E1,0E0,0E0,0E0,0E0],"parents":[2147483647,0,0,1,1,2,2],"right_children":[2,4,6,-1,-1,-1,-1],"split_conditions":[-1.9775E2,1E0,2.83035E3,-2.9102039E-2,-3.4100744E-3,9.842037E-3,3.428408E-2],"split_indices":[7,4,7,0,0,0,0],"split_type":[0,0,0,0,0,0,0],"sum_hessian":[4.3508365E2,2.0184125E2,2.332424E2,1.546529E2,4.718836E1,1.3611057E2,9.7131836E1],"tree_param":{"num_deleted":"0","num_feature":"9","num_nodes":"7","size_leaf_vector":"1"}},{"base_weights":[-2.464102E-2,-5.906163E-1,7.213011E-1,-3.820017E-2,-1.0223672E-2,8.531768E-4,2.7385963E-2],"categories":[],"categories_nodes":[],"categories_segments":[],"categories_sizes":[],"default_left":[0,0,0,0,0,0,0],"id":13,"left_children":[1,3,5,-1,-1,-1,-1],"loss_changes":[1.8345161E2,4.126464E1,2.4833221E1,0E0,0E0,0E0,0E0],"parents":[2147483647,0,0,1,1,2,2],"right_children":[2,4,6,-1,-1,-1,-1],"split_conditions":[6.09E2,-3.142E3,0E0,-3.820017E-2,-1.0223672E-2,8.531768E-4,2.7385963E-2],"split_indices":[6,6,4,0,0,0,0],"split_type":[0,0,0,0,0,0,0],"sum_hessian":[4.3051108E2,2.4502075E2,1.8549031E2,6.34452E1,1.8157556E2,4.067422E1,1.448161E2],"tree_param":{"num_deleted":"0","num_feature":"9","num_nodes":"7","size_leaf_vector":"1"}},{"base_weights":[5.905344E-3,-9.9788237E-1,4.625512E-1,-4.260616E-2,-2.5161283E-2,1.8321561E-3,2.6250374E-2],"categories":[],"categories_nodes":[],"categories_segments":[],"categories_sizes":[],"default_left":[0,0,0,0,0,0,0],"id":14,"left_children":[1,3,5,-1,-1,-1,-1],"loss_changes":[2.0133623E2,6.8503113E0,4.9882935E1,0E0,0E0,0E0,0E0],"parents":[2147483647,0,0,1,1,2,2],"right_children":[2,4,6,-1,-1,-1,-1],"split_conditions":[-1.56415E3,-5.268E3,1.48945E3,-4.260616E-2,-2.5161283E-2,1.8321561E-3,2.6250374E-2],"split_indices":[7,0,7,0,0,0,0],"split_type":[0,0,0,0,0,0,0],"sum_hessian":[4.352247E2,1.3534412E2,2.9988058E2,3.2710545E1,1.0263357E2,1.5312688E2,1.4675371E2],"tree_param":{"num_deleted":"0","num_feature":"9","num_nodes":"7","size_leaf_vector":"1"}},{"base_weights":[1.3271041E-2,-6.9772863E-1,6.313795E-1,-3.0228695E-2,-9.405872E-3,9.132224E-3,3.286799E-2],"categories":[],"categories_nodes":[],"categories_segments":[],"categories_sizes":[],"default_left":[0,0,0,0,0,0,0],"id":15,"left_children":[1,3,5,-1,-1,-1,-1],"loss_changes":[1.9030025E2,2.3346481E1,3.4489563E1,0E0,0E0,0E0,0E0],"parents":[2147483647,0,0,1,1,2,2],"right_children":[2,4,6,-1,-1,-1,-1],"split_conditions":[-1.9775E2,-2.25745E3,2.83035E3,-3.0228695E-2,-9.405872E-3,9.132224E-3,3.286799E-2],"split_indices":[7,7,7,0,0,0,0],"split_type":[0,0,0,0,0,0,0],"sum_hessian":[4.290125E2,1.9939464E2,2.2961789E2,1.0857385E2,9.082078E1,1.3666783E2,9.2950066E1],"tree_param":{"num_deleted":"0","num_feature":"9","num_nodes":"7","size_leaf_vector":"1"}},{"base_weights":[2.65012E-2,-5.297564E-1,7.759579E-1,-2.9577829E-2,-3.1444333E-3,1.400385E-2,3.289056E-2],"categories":[],"categories_nodes":[],"categories_segments":[],"categories_sizes":[],"default_left":[0,0,0,0,0,0,0],"id":16,"left_children":[1,3,5,-1,-1,-1,-1],"loss_changes":[1.8335194E2,4.873922E1,1.7532959E1,0E0,0E0,0E0,0E0],"parents":[2147483647,0,0,1,1,2,2],"right_children":[2,4,6,-1,-1,-1,-1],"split_conditions":[6.9495E2,-2.06195E3,3.16955E3,-2.9577829E-2,-3.1444333E-3,1.400385E-2,3.289056E-2],"split_indices":[7,7,7,0,0,0,0],"split_type":[0,0,0,0,0,0,0],"sum_hessian":[4.358358E2,2.5049847E2,1.8533733E2,1.1953668E2,1.3096179E2,9.682263E1,8.851469E1],"tree_param":{"num_deleted":"0","num_feature":"9","num_nodes":"7","size_leaf_vector":"1"}},{"base_weights":[-2.7827442E-2,-7.018017E-1,5.8091354E-1,-3.2220017E-2,-8.6133825E-3,8.1050685E-3,3.0661218E-2],"categories":[],"categories_nodes":[],"categories_segments":[],"categories_sizes":[],"default_left":[0,0,0,0,0,0,0],"id":17,"left_children":[1,3,5,-1,-1,-1,-1],"loss_changes":[1.7782774E2,3.1126022E1,3.0672531E1,0E0,0E0,0E0,0E0],"parents":[2147483647,0,0,1,1,2,2],"right_children":[2,4,6,-1,-1,-1,-1],"split_conditions":[-1.6425E2,0E0,2.83035E3,-3.2220017E-2,-8.6133825E-3,8.1050685E-3,3.0661218E-2],"split_indices":[7,4,7,0,0,0,0],"split_type":[0,0,0,0,0,0,0],"sum_hessian":[4.2944733E2,2.0365866E2,2.2578867E2,1.0565212E2,9.800654E1,1.3436346E2,9.142519E1],"tree_param":{"num_deleted":"0","num_feature":"9","num_nodes":"7","size_leaf_vector":"1"}},{"base_weights":[-1.3924218E-2,-7.210698E-1,5.2860314E-1,-3.1173162E-2,-1.2190346E-2,6.300799E-3,2.960873E-2],"categories":[],"categories_nodes":[],"categories_segments":[],"categories_sizes":[],"default_left":[0,0,0,0,0,0,0],"id":18,"left_children":[1,3,5,-1,-1,-1,-1],"loss_changes":[1.6280447E2,1.7594162E1,3.4653923E1,0E0,0E0,0E0,0E0],"parents":[2147483647,0,0,1,1,2,2],"right_children":[2,4,6,-1,-1,-1,-1],"split_conditions":[-4.34E2,-2.732E3,2.258E3,-3.1173162E-2,-1.2190346E-2,6.300799E-3,2.960873E-2],"split_indices":[0,0,6,0,0,0,0],"split_type":[0,0,0,0,0,0,0],"sum_hessian":[4.2037436E2,1.8221367E2,2.3816069E2,8.834058E1,9.3873085E1,1.4222473E2,9.593597E1],"tree_param":{"num_deleted":"0","num_feature":"9","num_nodes":"7","size_leaf_vector":"1"}},{"base_weights":[-1.0396468E-2,-9.081755E-1,3.8308677E-1,-3.7672617E-2,-2.0301374E-2,-7.972089E-3,1.9456252E-2],"categories":[],"categories_nodes":[],"categories_segments":[],"categories_sizes":[],"default_left":[0,0,0,0,0,0,0],"id":19,"left_children":[1,3,5,-1,-1,-1,-1],"loss_changes":[1.4938776E2,8.667168E0,5.099082E1,0E0,0E0,0E0,0E0],"parents":[2147483647,0,0,1,1,2,2],"right_children":[2,4,6,-1,-1,-1,-1],"split_conditions":[-1.56415E3,-4.39725E3,0E0,-3.7672617E-2,-2.0301374E-2,-7.972089E-3,1.9456252E-2],"split_indices":[7,7,4,0,0,0,0],"split_type":[0,0,0,0,0,0,0],"sum_hessian":[4.189124E2,1.2685697E2,2.9205545E2,4.7171276E1,7.968569E1,8.479588E1,2.0725957E2],"tree_param":{"num_deleted":"0","num_feature":"9","num_nodes":"7","size_leaf_vector":"1"}},{"base_weights":[-2.792206E-2,-6.1132926E-1,5.434548E-1,-3.871835E-2,-1.3513295E-2,-3.5595323E-3,2.309051E-2],"categories":[],"categories_nodes":[],"categories_segments":[],"categories_sizes":[],"default_left":[0,0,0,0,0,0,0],"id":20,"left_children":[1,3,5,-1,-1,-1,-1],"loss_changes":[1.4225719E2,2.190892E1,3.2484722E1,0E0,0E0,0E0,0E0],"parents":[2147483647,0,0,1,1,2,2],"right_children":[2,4,6,-1,-1,-1,-1],"split_conditions":[3E1,-4.903E3,0E0,-3.871835E-2,-1.3513295E-2,-3.5595323E-3,2.309051E-2],"split_indices":[0,0,4,0,0,0,0],"split_type":[0,0,0,0,0,0,0],"sum_hessian":[4.2276285E2,2.091101E2,2.1365276E2,3.735375E1,1.7175635E2,5.4652336E1,1.5900041E2],"tree_param":{"num_deleted":"0","num_feature":"9","num_nodes":"7","size_leaf_vector":"1"}},{"base_weights":[1.8126265E-3,-5.5169386E-1,5.82022E-1,-2.6359526E-2,-5.350019E-3,5.015029E-4,2.2911357E-2],"categories":[],"categories_nodes":[],"categories_segments":[],"categories_sizes":[],"default_left":[0,0,0,0,0,0,0],"id":21,"left_children":[1,3,5,-1,-1,-1,-1],"loss_changes":[1.3319756E2,2.5598228E1,2.077214E1,0E0,0E0,0E0,0E0],"parents":[2147483647,0,0,1,1,2,2],"right_children":[2,4,6,-1,-1,-1,-1],"split_conditions":[1.59E2,-1.896E3,0E0,-2.6359526E-2,-5.350019E-3,5.015029E-4,2.2911357E-2],"split_indices":[0,0,4,0,0,0,0],"split_type":[0,0,0,0,0,0,0],"sum_hessian":[4.107526E2,2.1026392E2,2.0048868E2,1.1065495E2,9.960897E1,4.9295616E1,1.5119305E2],"tree_param":{"num_deleted":"0","num_feature":"9","num_nodes":"7","size_leaf_vector":"1"}},{"base_weights":[1.6645301E-2,-5.365534E-1,5.4918593E-1,-2.8456964E-2,-6.834533E-3,6.98123E-3,2.8767975E-2],"categories":[],"categories_nodes":[],"categories_segments":[],"categories_sizes":[],"default_left":[0,0,0,0,0,0,0],"id":22,"left_children":[1,3,5,-1,-1,-1,-1],"loss_changes":[1.203344E2,2.5056377E1,2.6537685E1,0E0,0E0,0E0,0E0],"parents":[2147483647,0,0,1,1,2,2],"right_children":[2,4,6,-1,-1,-1,-1],"split_conditions":[3E1,-2.763E3,2.258E3,-2.8456964E-2,-6.834533E-3,6.98123E-3,2.8767975E-2],"split_indices":[0,0,6,0,0,0,0],"split_type":[0,0,0,0,0,0,0],"sum_hessian":[4.044655E2,1.9837755E2,2.0608797E2,8.320048E1,1.1517708E2,1.1804711E2,8.8040855E1],"tree_param":{"num_deleted":"0","num_feature":"9","num_nodes":"7","size_leaf_vector":"1"}},{"base_weights":[-4.9984753E-3,-5.754919E-1,4.954984E-1,-2.6617585E-2,-8.583742E-3,5.8029965E-3,2.7455904E-2],"categories":[],"categories_nodes":[],"categories_segments":[],"categories_sizes":[],"default_left":[0,0,0,0,0,0,0],"id":23,"left_children":[1,3,5,-1,-1,-1,-1],"loss_changes":[1.1900833E2,1.7063179E1,2.7794064E1,0E0,0E0,0E0,0E0],"parents":[2147483647,0,0,1,1,2,2],"right_children":[2,4,6,-1,-1,-1,-1],"split_conditions":[-1.91E2,-2.56E3,2.258E3,-2.6617585E-2,-8.583742E-3,5.8029965E-3,2.7455904E-2],"split_indices":[0,0,6,0,0,0,0],"split_type":[0,0,0,0,0,0,0],"sum_hessian":[4.1280038E2,1.9277048E2,2.2002989E2,9.080539E1,1.0196508E2,1.2964421E2,9.03857E1],"tree_param":{"num_deleted":"0","num_feature":"9","num_nodes":"7","size_leaf_vector":"1"}},{"base_weights":[1.45447375E-2,-5.734941E-1,5.1806974E-1,-3.462857E-2,-1.1325613E-2,7.5166402E-3,2.7531378E-2],"categories":[],"categories_nodes":[],"categories_segments":[],"categories_sizes":[],"default_left":[0,0,0,0,0,0,0],"id":24,"left_children":[1,3,5,-1,-1,-1,-1],"loss_changes":[1.244143E2,2.1192543E1,2.373716E1,0E0,0E0,0E0,0E0],"parents":[2147483647,0,0,1,1,2,2],"right_children":[2,4,6,-1,-1,-1,-1],"split_conditions":[-1.9775E2,-4.39725E3,2.83035E3,-3.462857E-2,-1.1325613E-2,7.5166402E-3,2.7531378E-2],"split_indices":[7,7,7,0,0,0,0],"split_type":[0,0,0,0,0,0,0],"sum_hessian":[4.1618073E2,1.9185086E2,2.2432986E2,4.5935486E1,1.4591537E2,1.3632788E2,8.800198E1],"tree_param":{"num_deleted":"0","num_feature":"9","num_nodes":"7","size_leaf_vector":"1"}},{"base_weights":[-3.8906135E-2,-4.7571293E-1,5.334362E-1,-2.6332349E-2,-2.7908178E-3,6.7199524E-3,2.5590036E-2],"categories":[],"categories_nodes":[],"categories_segments":[],"categories_sizes":[],"default_left":[0,0,0,0,0,0,0],"id":25,"left_children":[1,3,5,-1,-1,-1,-1],"loss_changes":[1.030475E2,3.5788494E1,1.7266647E1,0E0,0E0,0E0,0E0],"parents":[2147483647,0,0,1,1,2,2],"right_children":[2,4,6,-1,-1,-1,-1],"split_conditions":[5.7E2,0E0,2.258E3,-2.6332349E-2,-2.7908178E-3,6.7199524E-3,2.5590036E-2],"split_indices":[0,4,6,0,0,0,0],"split_type":[0,0,0,0,0,0,0],"sum_hessian":[4.08155E2,2.31678E2,1.7647702E2,1.1172135E2,1.1995664E2,9.138754E1,8.508948E1],"tree_param":{"num_deleted":"0","num_feature":"9","num_nodes":"7","size_leaf_vector":"1"}},{"base_weights":[-1.546635E-2,-5.3877705E-1,4.5938113E-1,-2.7921356E-2,-7.296742E-3,-4.5989766E-3,2.0089611E-2],"categories":[],"categories_nodes":[],"categories_segments":[],"categories_sizes":[],"default_left":[0,0,0,0,0,0,0],"id":26,"left_children":[1,3,5,-1,-1,-1,-1],"loss_changes":[1.0056297E2,2.1845264E1,2.7543724E1,0E0,0E0,0E0,0E0],"parents":[2147483647,0,0,1,1,2,2],"right_children":[2,4,6,-1,-1,-1,-1],"split_conditions":[-9.7E1,-2.732E3,0E0,-2.7921356E-2,-7.296742E-3,-4.5989766E-3,2.0089611E-2],"split_indices":[0,0,4,0,0,0,0],"split_type":[0,0,0,0,0,0,0],"sum_hessian":[4.0069974E2,1.9049426E2,2.1020549E2,8.004615E1,1.10448105E2,5.3848034E1,1.5635745E2],"tree_param":{"num_deleted":"0","num_feature":"9","num_nodes":"7","size_leaf_vector":"1"}},{"base_weights":[3.4963724E-3,-4.422498E-1,5.904076E-1,-1.9390536E-2,3.6717106E-3,8.796703E-3,2.6939161E-2],"categories":[],"categories_nodes":[],"categories_segments":[],"categories_sizes":[],"default_left":[0,0,0,0,0,0,0],"id":27,"left_children":[1,3,5,-1,-1,-1,-1],"loss_changes":[1.068108E2,2.6900948E1,1.5581165E1,0E0,0E0,0E0,0E0],"parents":[2147483647,0,0,1,1,2,2],"right_children":[2,4,6,-1,-1,-1,-1],"split_conditions":[6.9495E2,1E0,2.83035E3,-1.9390536E-2,3.6717106E-3,8.796703E-3,2.6939161E-2],"split_indices":[7,4,7,0,0,0,0],"split_type":[0,0,0,0,0,0,0],"sum_hessian":[4.0428107E2,2.3005347E2,1.742276E2,1.6876154E2,6.1291927E1,9.059598E1,8.363162E1],"tree_param":{"num_deleted":"0","num_feature":"9","num_nodes":"7","size_leaf_vector":"1"}},{"base_weights":[6.648654E-4,-7.398713E-1,3.2997745E-1,-3.5585433E-2,-1.76708E-2,-8.240734E-3,1.760676E-2],"categories":[],"categories_nodes":[],"categories_segments":[],"categories_sizes":[],"default_left":[0,0,0,0,0,0,0],"id":28,"left_children":[1,3,5,-1,-1,-1,-1],"loss_changes":[9.9016266E1,7.016693E0,4.3981804E1,0E0,0E0,0E0,0E0],"parents":[2147483647,0,0,1,1,2,2],"right_children":[2,4,6,-1,-1,-1,-1],"split_conditions":[-1.56415E3,-5.268E3,0E0,-3.5585433E-2,-1.76708E-2,-8.240734E-3,1.760676E-2],"split_indices":[7,0,4,0,0,0,0],"split_type":[0,0,0,0,0,0,0],"sum_hessian":[4.0202194E2,1.22979774E2,2.7904214E2,2.7597834E1,9.538194E1,8.316601E1,1.9587614E2],"tree_param":{"num_deleted":"0","num_feature":"9","num_nodes":"7","size_leaf_vector":"1"}},{"base_weights":[9.309829E-3,-7.235951E-1,3.4680638E-1,-3.0450925E-2,-1.5703592E-2,-7.086993E-3,1.7803695E-2],"categories":[],"categories_nodes":[],"categories_segments":[],"categories_sizes":[],"default_left":[0,0,0,0,0,0,0],"id":29,"left_children":[1,3,5,-1,-1,-1,-1],"loss_changes":[1.0064479E2,6.4208755E0,4.0339035E1,0E0,0E0,0E0,0E0],"parents":[2147483647,0,0,1,1,2,2],"right_children":[2,4,6,-1,-1,-1,-1],"split_conditions":[-1.45015E3,-5.6E1,0E0,-3.0450925E-2,-1.5703592E-2,-7.086993E-3,1.7803695E-2],"split_indices":[7,2,4,0,0,0,0],"split_type":[0,0,0,0,0,0,0],"sum_hessian":[4.028584E2,1.2629945E2,2.7655893E2,4.810642E1,7.819303E1,8.224055E1,1.9431839E2],"tree_param":{"num_deleted":"0","num_feature":"9","num_nodes":"7","size_leaf_vector":"1"}},{"base_weights":[2.38245E-2,-5.402118E-1,5.0806177E-1,-2.5113087E-2,-6.529327E-3,8.400232E-3,2.6868403E-2],"categories":[],"categories_nodes":[],"categories_segments":[],"categories_sizes":[],"default_left":[0,0,0,0,0,0,0],"id":30,"left_children":[1,3,5,-1,-1,-1,-1],"loss_changes":[1.1045313E2,1.7529701E1,1.8725437E1,0E0,0E0,0E0,0E0],"parents":[2147483647,0,0,1,1,2,2],"right_children":[2,4,6,-1,-1,-1,-1],"split_conditions":[-1.9775E2,0E0,3.16955E3,-2.5113087E-2,-6.529327E-3,8.400232E-3,2.6868403E-2],"split_indices":[7,4,7,0,0,0,0],"split_type":[0,0,0,0,0,0,0],"sum_hessian":[4.0039172E2,1.8484932E2,2.1554242E2,9.45944E1,9.025492E1,1.3786249E2,7.767993E1],"tree_param":{"num_deleted":"0","num_feature":"9","num_nodes":"7","size_leaf_vector":"1"}},{"base_weights":[-2.135226E-2,-7.283344E-1,2.6994845E-1,-3.4152493E-2,-1.6119184E-2,1.4460152E-3,2.4055578E-2],"categories":[],"categories_nodes":[],"categories_segments":[],"categories_sizes":[],"default_left":[0,0,0,0,0,0,0],"id":31,"left_children":[1,3,5,-1,-1,-1,-1],"loss_changes":[8.209738E1,7.887829E0,3.323401E1,0E0,0E0,0E0,0E0],"parents":[2147483647,0,0,1,1,2,2],"right_children":[2,4,6,-1,-1,-1,-1],"split_conditions":[-1.75785E3,-4.903E3,2.83035E3,-3.4152493E-2,-1.6119184E-2,1.4460152E-3,2.4055578E-2],"split_indices":[7,0,7,0,0,0,0],"split_type":[0,0,0,0,0,0,0],"sum_hessian":[3.9472922E2,1.1430712E2,2.8042212E2,3.3173805E1,8.113331E1,1.9945262E2,8.096948E1],"tree_param":{"num_deleted":"0","num_feature":"9","num_nodes":"7","size_leaf_vector":"1"}},{"base_weights":[1.6268557E-2,-4.718367E-1,4.0255448E-1,-2.2931714E-2,-5.5534425E-3,-4.4843103E-3,1.8209362E-2],"categories":[],"categories_nodes":[],"categories_segments":[],"categories_sizes":[],"default_left":[0,0,0,0,0,0,0],"id":32,"left_children":[1,3,5,-1,-1,-1,-1],"loss_changes":[7.695499E1,1.4844181E1,2.5887302E1,0E0,0E0,0E0,0E0],"parents":[2147483647,0,0,1,1,2,2],"right_children":[2,4,6,-1,-1,-1,-1],"split_conditions":[-4.21E2,0E0,0E0,-2.2931714E-2,-5.5534425E-3,-4.4843103E-3,1.8209362E-2],"split_indices":[0,4,4,0,0,0,0],"split_type":[0,0,0,0,0,0,0],"sum_hessian":[4.041302E2,1.7833975E2,2.2579044E2,8.662296E1,9.171678E1,6.116278E1,1.6462766E2],"tree_param":{"num_deleted":"0","num_feature":"9","num_nodes":"7","size_leaf_vector":"1"}},{"base_weights":[-1.2360586E-2,-4.295361E-1,4.7553247E-1,-2.277857E-2,-3.4766735E-3,7.2146044E-3,2.431829E-2],"categories":[],"categories_nodes":[],"categories_segments":[],"categories_sizes":[],"default_left":[0,0,0,0,0,0,0],"id":33,"left_children":[1,3,5,-1,-1,-1,-1],"loss_changes":[8.0825714E1,2.1960644E1,1.4027874E1,0E0,0E0,0E0,0E0],"parents":[2147483647,0,0,1,1,2,2],"right_children":[2,4,6,-1,-1,-1,-1],"split_conditions":[4.2135E2,0E0,3.16955E3,-2.277857E-2,-3.4766735E-3,7.2146044E-3,2.431829E-2],"split_indices":[7,4,7,0,0,0,0],"split_type":[0,0,0,0,0,0,0],"sum_hessian":[3.930986E2,2.1203564E2,1.8106296E2,1.0197919E2,1.1005645E2,1.0843487E2,7.262809E1],"tree_param":{"num_deleted":"0","num_feature":"9","num_nodes":"7","size_leaf_vector":"1"}},{"base_weights":[6.937004E-3,-4.9551764E-1,4.4204903E-1,-2.0572195E-2,1.8993126E-3,6.3523334E-3,2.390166E-2],"categories":[],"categories_nodes":[],"categories_segments":[],"categories_sizes":[],"default_left":[0,0,0,0,0,0,0],"id":34,"left_children":[1,3,5,-1,-1,-1,-1],"loss_changes":[8.721394E1,1.9768265E1,1.712399E1,0E0,0E0,0E0,0E0],"parents":[2147483647,0,0,1,1,2,2],"right_children":[2,4,6,-1,-1,-1,-1],"split_conditions":[-2.3985E2,1E0,2.83035E3,-2.0572195E-2,1.8993126E-3,6.3523334E-3,2.390166E-2],"split_indices":[7,4,7,0,0,0,0],"split_type":[0,0,0,0,0,0,0],"sum_hessian":[3.949181E2,1.831473E2,2.117708E2,1.3629797E2,4.6849327E1,1.3033357E2,8.143723E1],"tree_param":{"num_deleted":"0","num_feature":"9","num_nodes":"7","size_leaf_vector":"1"}},{"base_weights":[-8.220263E-3,-2.725239E-1,6.963809E-1,-1.8986138E-2,1.14383525E-4,1.6521262E-2,3.1117283E-2],"categories":[],"categories_nodes":[],"categories_segments":[],"categories_sizes":[],"default_left":[0,0,0,0,0,0,0],"id":35,"left_children":[1,3,5,-1,-1,-1,-1],"loss_changes":[7.309152E1,2.8421587E1,4.1740456E0,0E0,0E0,0E0,0E0],"parents":[2147483647,0,0,1,1,2,2],"right_children":[2,4,6,-1,-1,-1,-1],"split_conditions":[1.90595E3,-1.53695E3,6.7E1,-1.8986138E-2,1.14383525E-4,1.6521262E-2,3.1117283E-2],"split_indices":[7,7,2,0,0,0,0],"split_type":[0,0,0,0,0,0,0],"sum_hessian":[3.8844452E2,2.833742E2,1.05070335E2,1.21871475E2,1.6150272E2,7.727643E1,2.7793905E1],"tree_param":{"num_deleted":"0","num_feature":"9","num_nodes":"7","size_leaf_vector":"1"}},{"base_weights":[-1.0564667E-3,-3.076248E-1,5.9007967E-1,-2.0865196E-2,-2.0756011E-3,9.058089E-3,2.4359146E-2],"categories":[],"categories_nodes":[],"categories_segments":[],"categories_sizes":[],"default_left":[0,0,0,0,0,0,0],"id":36,"left_children":[1,3,5,-1,-1,-1,-1],"loss_changes":[7.098544E1,2.375857E1,8.062351E0,0E0,0E0,0E0,0E0],"parents":[2147483647,0,0,1,1,2,2],"right_children":[2,4,6,-1,-1,-1,-1],"split_conditions":[1.42215E3,-2.00935E3,3.16955E3,-2.0865196E-2,-2.0756011E-3,9.058089E-3,2.4359146E-2],"split_indices":[7,7,7,0,0,0,0],"split_type":[0,0,0,0,0,0,0],"sum_hessian":[3.8769757E2,2.559295E2,1.3176805E2,9.5972046E1,1.5995746E2,5.938005E1,7.2388E1],"tree_param":{"num_deleted":"0","num_feature":"9","num_nodes":"7","size_leaf_vector":"1"}},{"base_weights":[5.4577156E-3,-5.239741E-1,3.93535E-1,-3.3828642E-2,-1.1392302E-2,1.9779194E-3,2.1723742E-2],"categories":[],"categories_nodes":[],"categories_segments":[],"categories_sizes":[],"default_left":[0,0,0,0,0,0,0],"id":37,"left_children":[1,3,5,-1,-1,-1,-1],"loss_changes":[8.102298E1,1.3666439E1,2.45472E1,0E0,0E0,0E0,0E0],"parents":[2147483647,0,0,1,1,2,2],"right_children":[2,4,6,-1,-1,-1,-1],"split_conditions":[-8E0,-4.903E3,1.438E3,-3.3828642E-2,-1.1392302E-2,1.9779194E-3,2.1723742E-2],"split_indices":[2,0,0,0,0,0,0],"split_type":[0,0,0,0,0,0,0],"sum_hessian":[3.9034103E2,1.6480566E2,2.2553539E2,2.9153498E1,1.3565216E2,1.1448405E2,1.1105134E2],"tree_param":{"num_deleted":"0","num_feature":"9","num_nodes":"7","size_leaf_vector":"1"}},{"base_weights":[-3.3819748E-3,-6.516212E-1,2.788039E-1,-2.471471E-2,-9.072183E-3,1.2451657E-3,1.9280715E-2],"categories":[],"categories_nodes":[],"categories_segments":[],"categories_sizes":[],"default_left":[0,0,0,0,0,0,0],"id":38,"left_children":[1,3,5,-1,-1,-1,-1],"loss_changes":[7.192259E1,6.672577E0,2.3602365E1,0E0,0E0,0E0,0E0],"parents":[2147483647,0,0,1,1,2,2],"right_children":[2,4,6,-1,-1,-1,-1],"split_conditions":[-1.53695E3,-2.6E1,1.611E3,-2.471471E-2,-9.072183E-3,1.2451657E-3,1.9280715E-2],"split_indices":[7,2,6,0,0,0,0],"split_type":[0,0,0,0,0,0,0],"sum_hessian":[3.8919662E2,1.1724418E2,2.7195245E2,7.6702866E1,4.054131E1,1.6595665E2,1.0599582E2],"tree_param":{"num_deleted":"0","num_feature":"9","num_nodes":"7","size_leaf_vector":"1"}},{"base_weights":[4.5504714E-3,-3.4779596E-1,4.6003312E-1,-2.0221494E-2,-1.4809767E-3,8.974683E-4,1.8176684E-2],"categories":[],"categories_nodes":[],"categories_segments":[],"categories_sizes":[],"default_left":[0,0,0,0,0,0,0],"id":39,"left_children":[1,3,5,-1,-1,-1,-1],"loss_changes":[6.1750626E1,2.1057623E1,1.0491615E1,0E0,0E0,0E0,0E0],"parents":[2147483647,0,0,1,1,2,2],"right_children":[2,4,6,-1,-1,-1,-1],"split_conditions":[5.7E2,0E0,0E0,-2.0221494E-2,-1.4809767E-3,8.974683E-4,1.8176684E-2],"split_indices":[0,4,4,0,0,0,0],"split_type":[0,0,0,0,0,0,0],"sum_hessian":[3.8077475E2,2.1496089E2,1.6581386E2,1.01490616E2,1.1347028E2,4.2600117E1,1.2321374E2],"tree_param":{"num_deleted":"0","num_feature":"9","num_nodes":"7","size_leaf_vector":"1"}},{"base_weights":[3.2923552E-3,-5.200262E-1,3.172346E-1,-2.9788168E-2,-8.713447E-3,-8.667528E-3,1.4457271E-2],"categories":[],"categories_nodes":[],"categories_segments":[],"categories_sizes":[],"default_left":[0,0,0,0,0,0,0],"id":40,"left_children":[1,3,5,-1,-1,-1,-1],"loss_changes":[6.3684982E1,1.52042465E1,2.4461512E1,0E0,0E0,0E0,0E0],"parents":[2147483647,0,0,1,1,2,2],"right_children":[2,4,6,-1,-1,-1,-1],"split_conditions":[0E0,-2.816E3,-1.67195E3,-2.9788168E-2,-8.713447E-3,-8.667528E-3,1.4457271E-2],"split_indices":[4,0,7,0,0,0,0],"split_type":[0,0,0,0,0,0,0],"sum_hessian":[3.836251E2,1.4335312E2,2.4027196E2,4.467532E1,9.86778E1,5.1007793E1,1.8926416E2],"tree_param":{"num_deleted":"0","num_feature":"9","num_nodes":"7","size_leaf_vector":"1"}},{"base_weights":[3.3790667E-2,-4.237966E-1,3.049844E-1,-2.7856996E-2,-6.6394475E-3,1.3738322E-3,1.9963646E-2],"categories":[],"categories_nodes":[],"categories_segments":[],"categories_sizes":[],"default_left":[0,0,0,0,0,0,0],"id":41,"left_children":[1,3,5,-1,-1,-1,-1],"loss_changes":[4.8024216E1,1.431398E1,2.2627897E1,0E0,0E0,0E0,0E0],"parents":[2147483647,0,0,1,1,2,2],"right_children":[2,4,6,-1,-1,-1,-1],"split_conditions":[0E0,-4.6E1,4E0,-2.7856996E-2,-6.6394475E-3,1.3738322E-3,1.9963646E-2],"split_indices":[4,2,1,0,0,0,0],"split_type":[0,0,0,0,0,0,0],"sum_hessian":[3.8291312E2,1.4207071E2,2.408424E2,3.8620686E1,1.0345002E2,1.414147E2,9.94277E1],"tree_param":{"num_deleted":"0","num_feature":"9","num_nodes":"7","size_leaf_vector":"1"}},{"base_weights":[8.112997E-3,-2.7593735E-1,5.2226615E-1,-1.871007E-2,-1.5372214E-3,2.9006777E-3,2.0500978E-2],"categories":[],"categories_nodes":[],"categories_segments":[],"categories_sizes":[],"default_left":[0,0,0,0,0,0,0],"id":42,"left_children":[1,3,5,-1,-1,-1,-1],"loss_changes":[5.6435062E1,1.938727E1,9.295025E0,0E0,0E0,0E0,0E0],"parents":[2147483647,0,0,1,1,2,2],"right_children":[2,4,6,-1,-1,-1,-1],"split_conditions":[1.076E3,-1.896E3,-1E0,-1.871007E-2,-1.5372214E-3,2.9006777E-3,2.0500978E-2],"split_indices":[6,0,5,0,0,0,0],"split_type":[0,0,0,0,0,0,0],"sum_hessian":[3.824479E2,2.4694609E2,1.3550182E2,9.5540375E1,1.5140572E2,3.808723E1,9.741458E1],"tree_param":{"num_deleted":"0","num_feature":"9","num_nodes":"7","size_leaf_vector":"1"}},{"base_weights":[-1.5075302E-2,-3.2853267E-1,4.285556E-1,-1.8370828E-2,-2.2269464E-3,5.9292517E-3,2.2005774E-2],"categories":[],"categories_nodes":[],"categories_segments":[],"categories_sizes":[],"default_left":[0,0,0,0,0,0,0],"id":43,"left_children":[1,3,5,-1,-1,-1,-1],"loss_changes":[5.3025803E1,1.6032629E1,1.0830122E1,0E0,0E0,0E0,0E0],"parents":[2147483647,0,0,1,1,2,2],"right_children":[2,4,6,-1,-1,-1,-1],"split_conditions":[6.9495E2,0E0,3.16955E3,-1.8370828E-2,-2.2269464E-3,5.9292517E-3,2.2005774E-2],"split_indices":[7,4,7,0,0,0,0],"split_type":[0,0,0,0,0,0,0],"sum_hessian":[3.772928E2,2.2138625E2,1.5590652E2,1.0328863E2,1.18097626E2,9.0601814E1,6.530471E1],"tree_param":{"num_deleted":"0","num_feature":"9","num_nodes":"7","size_leaf_vector":"1"}},{"base_weights":[-2.0793498E-2,-4.7104707E-1,3.0863583E-1,-1.7644722E-2,4.499046E-3,-6.058711E-3,1.6013706E-2],"categories":[],"categories_nodes":[],"categories_segments":[],"categories_sizes":[],"default_left":[0,0,0,0,0,0,0],"id":44,"left_children":[1,3,5,-1,-1,-1,-1],"loss_changes":[5.5329163E1,1.1636173E1,2.4988846E1,0E0,0E0,0E0,0E0],"parents":[2147483647,0,0,1,1,2,2],"right_children":[2,4,6,-1,-1,-1,-1],"split_conditions":[-9E0,5.64E2,0E0,-1.7644722E-2,4.499046E-3,-6.058711E-3,1.6013706E-2],"split_indices":[2,6,4,0,0,0,0],"split_type":[0,0,0,0,0,0,0],"sum_hessian":[3.690619E2,1.5557167E2,2.134902E2,1.3097784E2,2.4593826E1,6.539563E1,1.4809457E2],"tree_param":{"num_deleted":"0","num_feature":"9","num_nodes":"7","size_leaf_vector":"1"}},{"base_weights":[7.6186745E-3,-1.6719325E-1,7.07048E-1,-1.5178289E-2,2.4082132E-3,6.4242505E-3,2.6951456E-2],"categories":[],"categories_nodes":[],"categories_segments":[],"categories_sizes":[],"default_left":[0,0,0,0,0,0,0],"id":45,"left_children":[1,3,5,-1,-1,-1,-1],"loss_changes":[4.557438E1,2.5085682E1,6.643978E0,0E0,0E0,0E0,0E0],"parents":[2147483647,0,0,1,1,2,2],"right_children":[2,4,6,-1,-1,-1,-1],"split_conditions":[2.83035E3,0E0,1E0,-1.5178289E-2,2.4082132E-3,6.4242505E-3,2.6951456E-2],"split_indices":[7,4,5,0,0,0,0],"split_type":[0,0,0,0,0,0,0],"sum_hessian":[3.6880618E2,2.9627786E2,7.252831E1,1.2418964E2,1.7208823E2,2.1466259E1,5.1062057E1],"tree_param":{"num_deleted":"0","num_feature":"9","num_nodes":"7","size_leaf_vector":"1"}},{"base_weights":[2.0276114E-2,-2.6575267E-1,5.119121E-1,-1.3038537E-2,7.3402436E-3,9.755309E-3,2.8652722E-2],"categories":[],"categories_nodes":[],"categories_segments":[],"categories_sizes":[],"default_left":[0,0,0,0,0,0,0],"id":46,"left_children":[1,3,5,-1,-1,-1,-1],"loss_changes":[5.2734898E1,2.0655521E1,1.0791286E1,0E0,0E0,0E0,0E0],"parents":[2147483647,0,0,1,1,2,2],"right_children":[2,4,6,-1,-1,-1,-1],"split_conditions":[1.7E1,3E0,7E0,-1.3038537E-2,7.3402436E-3,9.755309E-3,2.8652722E-2],"split_indices":[2,1,1,0,0,0,0],"split_type":[0,0,0,0,0,0,0],"sum_hessian":[3.7107675E2,2.3517389E2,1.3590285E2,1.7693526E2,5.8238636E1,9.805461E1,3.784824E1],"tree_param":{"num_deleted":"0","num_feature":"9","num_nodes":"7","size_leaf_vector":"1"}},{"base_weights":[4.631657E-3,-4.6562815E-1,2.8799385E-1,-2.1851815E-2,-4.219026E-3,-4.354822E-3,1.4837888E-2],"categories":[],"categories_nodes":[],"categories_segments":[],"categories_sizes":[],"default_left":[0,0,0,0,0,0,0],"id":47,"left_children":[1,3,5,-1,-1,-1,-1],"loss_changes":[5.083629E1,1.2045492E1,2.144556E1,0E0,0E0,0E0,0E0],"parents":[2147483647,0,0,1,1,2,2],"right_children":[2,4,6,-1,-1,-1,-1],"split_conditions":[-1.5E1,0E0,0E0,-2.1851815E-2,-4.219026E-3,-4.354822E-3,1.4837888E-2],"split_indices":[2,3,4,0,0,0,0],"split_type":[0,0,0,0,0,0,0],"sum_hessian":[3.7748688E2,1.4145152E2,2.3603535E2,7.684109E1,6.4610435E1,7.641708E1,1.5961829E2],"tree_param":{"num_deleted":"0","num_feature":"9","num_nodes":"7","size_leaf_vector":"1"}},{"base_weights":[-1.1998817E-2,-4.643793E-1,2.5764838E-1,-2.7083337E-2,-8.370776E-3,-8.481227E-3,1.1909855E-2],"categories":[],"categories_nodes":[],"categories_segments":[],"categories_sizes":[],"default_left":[0,0,0,0,0,0,0],"id":48,"left_children":[1,3,5,-1,-1,-1,-1],"loss_changes":[4.5908913E1,1.0915792E1,1.7983917E1,0E0,0E0,0E0,0E0],"parents":[2147483647,0,0,1,1,2,2],"right_children":[2,4,6,-1,-1,-1,-1],"split_conditions":[0E0,-2.816E3,-1.666E3,-2.7083337E-2,-8.370776E-3,-8.481227E-3,1.1909855E-2],"split_indices":[4,0,0,0,0,0,0],"split_type":[0,0,0,0,0,0,0],"sum_hessian":[3.7239288E2,1.3853378E2,2.338591E2,3.8866196E1,9.9667595E1,4.7521942E1,1.8633716E2],"tree_param":{"num_deleted":"0","num_feature":"9","num_nodes":"7","size_leaf_vector":"1"}},{"base_weights":[-4.9145807E-2,-5.8115727E-1,1.6055031E-1,-2.1339756E-2,-3.8032238E-3,-8.175044E-3,1.085753E-2],"categories":[],"categories_nodes":[],"categories_segments":[],"categories_sizes":[],"default_left":[0,0,0,0,0,0,0],"id":49,"left_children":[1,3,5,-1,-1,-1,-1],"loss_changes":[4.2121517E1,6.130871E0,2.3845459E1,0E0,0E0,0E0,0E0],"parents":[2147483647,0,0,1,1,2,2],"right_children":[2,4,6,-1,-1,-1,-1],"split_conditions":[-1.61E3,1E0,0E0,-2.1339756E-2,-3.8032238E-3,-8.175044E-3,1.085753E-2],"split_indices":[0,4,4,0,0,0,0],"split_type":[0,0,0,0,0,0,0],"sum_hessian":[3.7389307E2,1.0470568E2,2.6918738E2,8.05107E1,2.4194983E1,8.521698E1,1.839704E2],"tree_param":{"num_deleted":"0","num_feature":"9","num_nodes":"7","size_leaf_vector":"1"}},{"base_weights":[4.3077305E-2,-2.244817E-1,4.233526E-1,-2.7313389E-2,-3.8727517E-3,9.240789E-3,2.8369077E-2],"categories":[],"categories_nodes":[],"categories_segments":[],"categories_sizes":[],"default_left":[0,0,0,0,0,0,0],"id":50,"left_children":[1,3,5,-1,-1,-1,-1],"loss_changes":[3.7663605E1,1.3996849E1,8.621326E0,0E0,0E0,0E0,0E0],"parents":[2147483647,0,0,1,1,2,2],"right_children":[2,4,6,-1,-1,-1,-1],"split_conditions":[7.7845E2,-4.903E3,4.254E3,-2.7313389E-2,-3.8727517E-3,9.240789E-3,2.8369077E-2],"split_indices":[7,0,6,0,0,0,0],"split_type":[0,0,0,0,0,0,0],"sum_hessian":[3.6630447E2,2.1549976E2,1.5080473E2,2.4222555E1,1.912772E2,1.2613268E2,2.467204E1],"tree_param":{"num_deleted":"0","num_feature":"9","num_nodes":"7","size_leaf_vector":"1"}},{"base_weights":[-1.1541049E-2,-2.4831127E-1,5.131017E-1,-1.6894076E-2,9.4631636E-5,8.049264E-3,2.1583077E-2],"categories":[],"categories_nodes":[],"categories_segments":[],"categories_sizes":[],"default_left":[0,0,0,0,0,0,0],"id":51,"left_children":[1,3,5,-1,-1,-1,-1],"loss_changes":[4.647683E1,2.0408047E1,5.4912148E0,0E0,0E0,0E0,0E0],"parents":[2147483647,0,0,1,1,2,2],"right_children":[2,4,6,-1,-1,-1,-1],"split_conditions":[1.48945E3,0E0,3.16955E3,-1.6894076E-2,9.4631636E-5,8.049264E-3,2.1583077E-2],"split_indices":[7,4,7,0,0,0,0],"split_type":[0,0,0,0,0,0,0],"sum_hessian":[3.7009863E2,2.55738E2,1.1436064E2,1.1246173E2,1.4327628E2,5.440994E1,5.9950703E1],"tree_param":{"num_deleted":"0","num_feature":"9","num_nodes":"7","size_leaf_vector":"1"}},{"base_weights":[-5.6079016E-3,-5.228505E-1,2.0571229E-1,-2.1833867E-2,-2.0616797E-3,9.709552E-4,1.8221907E-2],"categories":[],"categories_nodes":[],"categories_segments":[],"categories_sizes":[],"default_left":[0,0,0,0,0,0,0],"id":52,"left_children":[1,3,5,-1,-1,-1,-1],"loss_changes":[4.035221E1,9.8654175E0,1.8213264E1,0E0,0E0,0E0,0E0],"parents":[2147483647,0,0,1,1,2,2],"right_children":[2,4,6,-1,-1,-1,-1],"split_conditions":[-1.56415E3,-2.5E1,2.21E3,-2.1833867E-2,-2.0616797E-3,9.709552E-4,1.8221907E-2],"split_indices":[7,2,6,0,0,0,0],"split_type":[0,0,0,0,0,0,0],"sum_hessian":[3.6520676E2,1.0507331E2,2.6013345E2,7.156928E1,3.3504025E1,1.8322415E2,7.6909294E1],"tree_param":{"num_deleted":"0","num_feature":"9","num_nodes":"7","size_leaf_vector":"1"}},{"base_weights":[-3.006072E-2,-3.3497304E-1,3.3205315E-1,-1.9274196E-2,-1.8257349E-3,6.6900374E-3,2.9189905E-2],"categories":[],"categories_nodes":[],"categories_segments":[],"categories_sizes":[],"default_left":[0,0,0,0,0,0,0],"id":53,"left_children":[1,3,5,-1,-1,-1,-1],"loss_changes":[4.0564007E1,1.6724836E1,1.131019E1,0E0,0E0,0E0,0E0],"parents":[2147483647,0,0,1,1,2,2],"right_children":[2,4,6,-1,-1,-1,-1],"split_conditions":[6E0,0E0,4.254E3,-1.9274196E-2,-1.8257349E-3,6.6900374E-3,2.9189905E-2],"split_indices":[2,3,6,0,0,0,0],"split_type":[0,0,0,0,0,0,0],"sum_hessian":[3.6336966E2,1.973468E2,1.6602287E2,9.174283E1,1.05603966E2,1.4418645E2,2.1836422E1],"tree_param":{"num_deleted":"0","num_feature":"9","num_nodes":"7","size_leaf_vector":"1"}},{"base_weights":[-4.6743806E-3,-2.5239348E-1,3.4090185E-1,-2.4995891E-2,-3.972973E-3,7.0537385E-3,2.583721E-2],"categories":[],"categories_nodes":[],"categories_segments":[],"categories_sizes":[],"default_left":[0,0,0,0,0,0,0],"id":54,"left_children":[1,3,5,-1,-1,-1,-1],"loss_changes":[3.1317524E1,1.4624369E1,8.002827E0,0E0,0E0,0E0,0E0],"parents":[2147483647,0,0,1,1,2,2],"right_children":[2,4,6,-1,-1,-1,-1],"split_conditions":[6.9495E2,-4.39725E3,4.254E3,-2.4995891E-2,-3.972973E-3,7.0537385E-3,2.583721E-2],"split_indices":[7,7,6,0,0,0,0],"split_type":[0,0,0,0,0,0,0],"sum_hessian":[3.6182382E2,2.1106534E2,1.5075848E2,3.4095856E1,1.7696948E2,1.2770221E2,2.3056265E1],"tree_param":{"num_deleted":"0","num_feature":"9","num_nodes":"7","size_leaf_vector":"1"}},{"base_weights":[-8.366386E-4,-5.182406E-1,1.6874397E-1,-2.2376401E-2,-6.633692E-3,-5.7359943E-3,1.0619279E-2],"categories":[],"categories_nodes":[],"categories_segments":[],"categories_sizes":[],"default_left":[0,0,0,0,0,0,0],"id":55,"left_children":[1,3,5,-1,-1,-1,-1],"loss_changes":[3.2502754E1,5.8547935E0,1.8737349E1,0E0,0E0,0E0,0E0],"parents":[2147483647,0,0,1,1,2,2],"right_children":[2,4,6,-1,-1,-1,-1],"split_conditions":[-3.2E1,-2.34075E3,0E0,-2.2376401E-2,-6.633692E-3,-5.7359943E-3,1.0619279E-2],"split_indices":[2,7,4,0,0,0,0],"split_type":[0,0,0,0,0,0,0],"sum_hessian":[3.6644357E2,8.9440735E1,2.7700284E2,4.8931E1,4.0509735E1,9.4094154E1,1.8290868E2],"tree_param":{"num_deleted":"0","num_feature":"9","num_nodes":"7","size_leaf_vector":"1"}},{"base_weights":[-1.1016844E-2,-2.954677E-1,3.412288E-1,-3.0407634E-2,-5.2379775E-3,-1.7169807E-3,1.5302473E-2],"categories":[],"categories_nodes":[],"categories_segments":[],"categories_sizes":[],"default_left":[0,0,0,0,0,0,0],"id":56,"left_children":[1,3,5,-1,-1,-1,-1],"loss_changes":[3.6803493E1,1.7280863E1,1.110132E1,0E0,0E0,0E0,0E0],"parents":[2147483647,0,0,1,1,2,2],"right_children":[2,4,6,-1,-1,-1,-1],"split_conditions":[7E0,-7.2E1,0E0,-3.0407634E-2,-5.2379775E-3,-1.7169807E-3,1.5302473E-2],"split_indices":[2,2,4,0,0,0,0],"split_type":[0,0,0,0,0,0,0],"sum_hessian":[3.633004E2,2.0117049E2,1.6212993E2,2.6853434E1,1.7431706E2,4.864927E1,1.1348066E2],"tree_param":{"num_deleted":"0","num_feature":"9","num_nodes":"7","size_leaf_vector":"1"}},{"base_weights":[3.9996807E-2,-1.1982366E-1,2.151582E-2,-6.6969916E-3,1.5836025E-2],"categories":[],"categories_nodes":[],"categories_segments":[],"categories_sizes":[],"default_left":[0,0,0,0,0],"id":57,"left_children":[1,3,-1,-1,-1],"loss_changes":[3.891494E1,1.9748363E1,0E0,0E0,0E0],"parents":[2147483647,0,0,1,1],"right_children":[2,4,-1,-1,-1],"split_conditions":[2.83035E3,2E0,2.151582E-2,-6.6969916E-3,1.5836025E-2],"split_indices":[7,4,0,0,0],"split_type":[0,0,0,0,0],"sum_hessian":[3.5596982E2,2.8933264E2,6.66372E1,2.5062837E2,3.870427E1],"tree_param":{"num_deleted":"0","num_feature":"9","num_nodes":"5","size_leaf_vector":"1"}},{"base_weights":[-2.9668866E-3,-2.2300027E-1,4.780532E-1,-9.912561E-3,1.5377375E-2,-6.4750616E-3,1.7012773E-2],"categories":[],"categories_nodes":[],"categories_segments":[],"categories_sizes":[],"default_left":[0,0,0,0,0,0,0],"id":58,"left_children":[1,3,5,-1,-1,-1,-1],"loss_changes":[3.8824055E1,2.0224293E1,7.358116E0,0E0,0E0,0E0,0E0],"parents":[2147483647,0,0,1,1,2,2],"right_children":[2,4,6,-1,-1,-1,-1],"split_conditions":[1.48945E3,2E0,-9E0,-9.912561E-3,1.5377375E-2,-6.4750616E-3,1.7012773E-2],"split_indices":[7,4,2,0,0,0,0],"split_type":[0,0,0,0,0,0,0],"sum_hessian":[3.6280222E2,2.4966881E2,1.1313339E2,2.1881618E2,3.0852642E1,1.2542301E1,1.00591095E2],"tree_param":{"num_deleted":"0","num_feature":"9","num_nodes":"7","size_leaf_vector":"1"}},{"base_weights":[1.2927685E-2,-2.2356191E-1,4.091026E-1,-1.5791794E-2,-2.1655564E-4,7.959116E-3,2.299556E-2],"categories":[],"categories_nodes":[],"categories_segments":[],"categories_sizes":[],"default_left":[0,0,0,0,0,0,0],"id":59,"left_children":[1,3,5,-1,-1,-1,-1],"loss_changes":[3.4707626E1,1.519494E1,6.709036E0,0E0,0E0,0E0,0E0],"parents":[2147483647,0,0,1,1,2,2],"right_children":[2,4,6,-1,-1,-1,-1],"split_conditions":[1.7E1,0E0,7E0,-1.5791794E-2,-2.1655564E-4,7.959116E-3,2.299556E-2],"split_indices":[2,3,1,0,0,0,0],"split_type":[0,0,0,0,0,0,0],"sum_hessian":[3.6649448E2,2.3004475E2,1.3644974E2,9.466671E1,1.3537804E2,9.97871E1,3.6662636E1],"tree_param":{"num_deleted":"0","num_feature":"9","num_nodes":"7","size_leaf_vector":"1"}},{"base_weights":[-2.8299104E-2,-1.5771306E-1,6.21131E-1,-2.4241459E-2,-2.1156836E-3,1.4456023E-2,2.947567E-2],"categories":[],"categories_nodes":[],"categories_segments":[],"categories_sizes":[],"default_left":[0,0,0,0,0,0,0],"id":60,"left_children":[1,3,5,-1,-1,-1,-1],"loss_changes":[3.0424871E1,1.698227E1,2.081337E0,0E0,0E0,0E0,0E0],"parents":[2147483647,0,0,1,1,2,2],"right_children":[2,4,6,-1,-1,-1,-1],"split_conditions":[3.16955E3,-4.39725E3,6.19165E3,-2.4241459E-2,-2.1156836E-3,1.4456023E-2,2.947567E-2],"split_indices":[7,7,7,0,0,0,0],"split_type":[0,0,0,0,0,0,0],"sum_hessian":[3.5767444E2,2.9950537E2,5.8169064E1,3.3452705E1,2.6605267E2,4.5357216E1,1.2811844E1],"tree_param":{"num_deleted":"0","num_feature":"9","num_nodes":"7","size_leaf_vector":"1"}},{"base_weights":[4.450273E-3,-2.6795316E-1,3.4928197E-1,-1.3028561E-2,4.7844592E-3,-2.4160026E-3,1.6129816E-2],"categories":[],"categories_nodes":[],"categories_segments":[],"categories_sizes":[],"default_left":[0,0,0,0,0,0,0],"id":61,"left_children":[1,3,5,-1,-1,-1,-1],"loss_changes":[3.366089E1,1.4373245E1,1.2890741E1,0E0,0E0,0E0,0E0],"parents":[2147483647,0,0,1,1,2,2],"right_children":[2,4,6,-1,-1,-1,-1],"split_conditions":[8E0,1E0,0E0,-1.3028561E-2,4.7844592E-3,-2.4160026E-3,1.6129816E-2],"split_indices":[2,4,4,0,0,0,0],"split_type":[0,0,0,0,0,0,0],"sum_hessian":[3.5435596E2,1.982177E2,1.5613826E2,1.4266783E2,5.554986E1,4.7927994E1,1.08210266E2],"tree_param":{"num_deleted":"0","num_feature":"9","num_nodes":"7","size_leaf_vector":"1"}},{"base_weights":[2.8261796E-2,-4.5026034E-1,1.8843937E-1,-2.779483E-2,-8.722302E-3,-3.7231587E-3,1.0093215E-2],"categories":[],"categories_nodes":[],"categories_segments":[],"categories_sizes":[],"default_left":[0,0,0,0,0,0,0],"id":62,"left_children":[1,3,5,-1,-1,-1,-1],"loss_changes":[2.7493092E1,6.2975464E0,1.2502894E1,0E0,0E0,0E0,0E0],"parents":[2147483647,0,0,1,1,2,2],"right_children":[2,4,6,-1,-1,-1,-1],"split_conditions":[-1.896E3,-5.268E3,0E0,-2.779483E-2,-8.722302E-3,-3.7231587E-3,1.0093215E-2],"split_indices":[0,0,4,0,0,0,0],"split_type":[0,0,0,0,0,0,0],"sum_hessian":[3.544766E2,8.798976E1,2.6648685E2,1.9664785E1,6.8324974E1,8.5742065E1,1.8074478E2],"tree_param":{"num_deleted":"0","num_feature":"9","num_nodes":"7","size_leaf_vector":"1"}},{"base_weights":[-8.166916E-3,-4.8369452E-1,1.6362154E-1,-2.0222977E-2,-2.2408155E-4,1.2091226E-3,1.7673781E-2],"categories":[],"categories_nodes":[],"categories_segments":[],"categories_sizes":[],"default_left":[0,0,0,0,0,0,0],"id":63,"left_children":[1,3,5,-1,-1,-1,-1],"loss_changes":[2.8712534E1,8.447178E0,1.3504696E1,0E0,0E0,0E0,0E0],"parents":[2147483647,0,0,1,1,2,2],"right_children":[2,4,6,-1,-1,-1,-1],"split_conditions":[-1.532E3,3E0,3.16955E3,-2.0222977E-2,-2.2408155E-4,1.2091226E-3,1.7673781E-2],"split_indices":[6,5,7,0,0,0,0],"split_type":[0,0,0,0,0,0,0],"sum_hessian":[3.475433E2,9.126935E1,2.5627396E2,6.460708E1,2.6662271E1,2.00388E2,5.5885952E1],"tree_param":{"num_deleted":"0","num_feature":"9","num_nodes":"7","size_leaf_vector":"1"}},{"base_weights":[1.5954547E-2,-9.6385576E-2,5.844901E-1,-2.188636E-2,-4.7255258E-4,6.7089815E-3,2.1464216E-2],"categories":[],"categories_nodes":[],"categories_segments":[],"categories_sizes":[],"default_left":[0,0,0,0,0,0,0],"id":64,"left_children":[1,3,5,-1,-1,-1,-1],"loss_changes":[2.2414513E1,1.4950344E1,2.416504E0,0E0,0E0,0E0,0E0],"parents":[2147483647,0,0,1,1,2,2],"right_children":[2,4,6,-1,-1,-1,-1],"split_conditions":[3.16955E3,-4.39725E3,1E0,-2.188636E-2,-4.7255258E-4,6.7089815E-3,2.1464216E-2],"split_indices":[7,7,5,0,0,0,0],"split_type":[0,0,0,0,0,0,0],"sum_hessian":[3.4717902E2,2.912836E2,5.5895416E1,3.1086699E1,2.601969E2,1.6327677E1,3.956774E1],"tree_param":{"num_deleted":"0","num_feature":"9","num_nodes":"7","size_leaf_vector":"1"}},{"base_weights":[2.5821531E-2,-4.6303755E-1,1.8729815E-1,-2.5820851E-2,-6.9620935E-3,1.5742149E-3,1.5498696E-2],"categories":[],"categories_nodes":[],"categories_segments":[],"categories_sizes":[],"default_left":[0,0,0,0,0,0,0],"id":65,"left_children":[1,3,5,-1,-1,-1,-1],"loss_changes":[2.8058199E1,7.7091694E0,1.1798971E1,0E0,0E0,0E0,0E0],"parents":[2147483647,0,0,1,1,2,2],"right_children":[2,4,6,-1,-1,-1,-1],"split_conditions":[-1.896E3,-5.8E1,3.7E1,-2.5820851E-2,-6.9620935E-3,1.5742149E-3,1.5498696E-2],"split_indices":[0,2,2,0,0,0,0],"split_type":[0,0,0,0,0,0,0],"sum_hessian":[3.5124283E2,8.6285255E1,2.6495758E2,2.9699183E1,5.6586075E1,1.8963887E2,7.53187E1],"tree_param":{"num_deleted":"0","num_feature":"9","num_nodes":"7","size_leaf_vector":"1"}},{"base_weights":[4.5131114E-3,-1.0932623E-1,5.411222E-1,-1.8715296E-2,-5.308788E-4,9.937491E-3,2.7167832E-2],"categories":[],"categories_nodes":[],"categories_segments":[],"categories_sizes":[],"default_left":[0,0,0,0,0,0,0],"id":66,"left_children":[1,3,5,-1,-1,-1,-1],"loss_changes":[2.186352E1,1.3901488E1,4.1913033E0,0E0,0E0,0E0,0E0],"parents":[2147483647,0,0,1,1,2,2],"right_children":[2,4,6,-1,-1,-1,-1],"split_conditions":[2.83035E3,-3.099E3,4.254E3,-1.8715296E-2,-5.308788E-4,9.937491E-3,2.7167832E-2],"split_indices":[7,6,6,0,0,0,0],"split_type":[0,0,0,0,0,0,0],"sum_hessian":[3.5396973E2,2.9333292E2,6.0636806E1,4.2586597E1,2.5074634E2,4.090205E1,1.9734755E1],"tree_param":{"num_deleted":"0","num_feature":"9","num_nodes":"7","size_leaf_vector":"1"}},{"base_weights":[2.6834464E-2,-7.332882E-2,1.6533295E-2,-2.6007611E-2,-5.206845E-4],"categories":[],"categories_nodes":[],"categories_segments":[],"categories_sizes":[],"default_left":[0,0,0,0,0],"id":67,"left_children":[1,3,-1,-1,-1],"loss_changes":[1.821881E1,1.2929734E1,0E0,0E0,0E0],"parents":[2147483647,0,0,1,1],"right_children":[2,4,-1,-1,-1],"split_conditions":[3.16955E3,-5.268E3,1.6533295E-2,-2.6007611E-2,-5.206845E-4],"split_indices":[7,0,0,0,0],"split_type":[0,0,0,0,0],"sum_hessian":[3.4339893E2,2.8976022E2,5.3638687E1,1.7181465E1,2.7257877E2],"tree_param":{"num_deleted":"0","num_feature":"9","num_nodes":"5","size_leaf_vector":"1"}},{"base_weights":[1.29404E-2,-1.9462161E-1,3.8456923E-1,-1.0613525E-2,4.7569126E-3,5.6753084E-3,2.0931674E-2],"categories":[],"categories_nodes":[],"categories_segments":[],"categories_sizes":[],"default_left":[0,0,0,0,0,0,0],"id":68,"left_children":[1,3,5,-1,-1,-1,-1],"loss_changes":[2.67341E1,1.2617702E1,7.334322E0,0E0,0E0,0E0,0E0],"parents":[2147483647,0,0,1,1,2,2],"right_children":[2,4,6,-1,-1,-1,-1],"split_conditions":[1E0,9.0965E2,1E0,-1.0613525E-2,4.7569126E-3,5.6753084E-3,2.0931674E-2],"split_indices":[4,7,3,0,0,0,0],"split_type":[0,0,0,0,0,0,0],"sum_hessian":[3.4264322E2,2.2046294E2,1.2218028E2,1.5197307E2,6.848987E1,7.721198E1,4.4968296E1],"tree_param":{"num_deleted":"0","num_feature":"9","num_nodes":"7","size_leaf_vector":"1"}},{"base_weights":[3.054257E-2,-1.7270832E-1,3.9325386E-1,-1.920167E-2,-1.2121729E-3,-1.6017439E-3,1.4867441E-2],"categories":[],"categories_nodes":[],"categories_segments":[],"categories_sizes":[],"default_left":[0,0,0,0,0,0,0],"id":69,"left_children":[1,3,5,-1,-1,-1,-1],"loss_changes":[2.5844912E1,1.3853136E1,5.8047276E0,0E0,0E0,0E0,0E0],"parents":[2147483647,0,0,1,1,2,2],"right_children":[2,4,6,-1,-1,-1,-1],"split_conditions":[1E0,-2.876E3,-1.56415E3,-1.920167E-2,-1.2121729E-3,-1.6017439E-3,1.4867441E-2],"split_indices":[4,0,7,0,0,0,0],"split_type":[0,0,0,0,0,0,0],"sum_hessian":[3.4673288E2,2.2288405E2,1.2384884E2,4.7482082E1,1.7540196E2,2.326347E1,1.0058537E2],"tree_param":{"num_deleted":"0","num_feature":"9","num_nodes":"7","size_leaf_vector":"1"}},{"base_weights":[-1.695212E-2,-2.1349142E-1,3.3797467E-1,-1.1408087E-2,6.606038E-3,2.9833084E-3,1.6705677E-2],"categories":[],"categories_nodes":[],"categories_segments":[],"categories_sizes":[],"default_left":[0,0,0,0,0,0,0],"id":70,"left_children":[1,3,5,-1,-1,-1,-1],"loss_changes":[2.3981598E1,1.6163921E1,6.288144E0,0E0,0E0,0E0,0E0],"parents":[2147483647,0,0,1,1,2,2],"right_children":[2,4,6,-1,-1,-1,-1],"split_conditions":[1E0,1.234E3,1E0,-1.1408087E-2,6.606038E-3,2.9833084E-3,1.6705677E-2],"split_indices":[4,0,5,0,0,0,0],"split_type":[0,0,0,0,0,0,0],"sum_hessian":[3.3971866E2,2.1915785E2,1.20560814E2,1.5846567E2,6.0692196E1,5.908269E1,6.147812E1],"tree_param":{"num_deleted":"0","num_feature":"9","num_nodes":"7","size_leaf_vector":"1"}},{"base_weights":[2.272892E-2,-4.3557099E-1,1.6506736E-1,-2.6820136E-2,-7.6739974E-3,-7.1002316E-4,1.3394834E-2],"categories":[],"categories_nodes":[],"categories_segments":[],"categories_sizes":[],"default_left":[0,0,0,0,0,0,0],"id":71,"left_children":[1,3,5,-1,-1,-1,-1],"loss_changes":[2.2740753E1,6.3531713E0,1.4137056E1,0E0,0E0,0E0,0E0],"parents":[2147483647,0,0,1,1,2,2],"right_children":[2,4,6,-1,-1,-1,-1],"split_conditions":[-3.3E1,-7.2E1,1E0,-2.6820136E-2,-7.6739974E-3,-7.1002316E-4,1.3394834E-2],"split_indices":[2,2,4,0,0,0,0],"split_type":[0,0,0,0,0,0,0],"sum_hessian":[3.444001E2,8.063905E1,2.6376105E2,2.047635E1,6.0162697E1,1.5897722E2,1.0478384E2],"tree_param":{"num_deleted":"0","num_feature":"9","num_nodes":"7","size_leaf_vector":"1"}},{"base_weights":[-3.203517E-2,-2.1817418E-2,3.5981692E-2,-5.264988E-4,2.172576E-2],"categories":[],"categories_nodes":[],"categories_segments":[],"categories_sizes":[],"default_left":[0,0,0,0,0],"id":72,"left_children":[1,-1,3,-1,-1],"loss_changes":[1.6136106E1,0E0,1.15099E1,0E0,0E0],"parents":[2147483647,0,0,2,2],"right_children":[2,-1,4,-1,-1],"split_conditions":[-4.46045E3,-2.1817418E-2,4.97285E3,-5.264988E-4,2.172576E-2],"split_indices":[7,0,7,0,0],"split_type":[0,0,0,0,0],"sum_hessian":[3.3813702E2,2.8406363E1,3.0973068E2,2.891857E2,2.0544981E1],"tree_param":{"num_deleted":"0","num_feature":"9","num_nodes":"5","size_leaf_vector":"1"}},{"base_weights":[-2.441106E-2,-1.6741021E-1,2.8572217E-1,-2.5099732E-2,-3.3080666E-3,5.5292095E-3,2.5516452E-2],"categories":[],"categories_nodes":[],"categories_segments":[],"categories_sizes":[],"default_left":[0,0,0,0,0,0,0],"id":73,"left_children":[1,3,5,-1,-1,-1,-1],"loss_changes":[1.5380407E1,8.884336E0,5.959009E0,0E0,0E0,0E0,0E0],"parents":[2147483647,0,0,1,1,2,2],"right_children":[2,4,6,-1,-1,-1,-1],"split_conditions":[1.438E3,-5.268E3,5.787E3,-2.5099732E-2,-3.3080666E-3,5.5292095E-3,2.5516452E-2],"split_indices":[0,0,0,0,0,0,0],"split_type":[0,0,0,0,0,0,0],"sum_hessian":[3.426485E2,2.3514569E2,1.0750279E2,1.6351437E1,2.1879425E2,9.3387566E1,1.4115223E1],"tree_param":{"num_deleted":"0","num_feature":"9","num_nodes":"7","size_leaf_vector":"1"}},{"base_weights":[1.0947153E-2,-3.3200487E-1,1.4441323E-1,-1.544476E-2,-6.105406E-4,2.351904E-3,2.1211104E-2],"categories":[],"categories_nodes":[],"categories_segments":[],"categories_sizes":[],"default_left":[0,0,0,0,0,0,0],"id":74,"left_children":[1,3,5,-1,-1,-1,-1],"loss_changes":[1.5827076E1,5.499346E0,9.129993E0,0E0,0E0,0E0,0E0],"parents":[2147483647,0,0,1,1,2,2],"right_children":[2,4,6,-1,-1,-1,-1],"split_conditions":[-1.53695E3,-2.6E1,6.7E1,-1.544476E-2,-6.105406E-4,2.351904E-3,2.1211104E-2],"split_indices":[7,2,2,0,0,0,0],"split_type":[0,0,0,0,0,0,0],"sum_hessian":[3.416823E2,9.488707E1,2.4679523E2,5.8982975E1,3.59041E1,2.229175E2,2.3877731E1],"tree_param":{"num_deleted":"0","num_feature":"9","num_nodes":"7","size_leaf_vector":"1"}},{"base_weights":[1.7277012E-3,-1.8561952E-1,2.7440718E-1,-2.5305357E-2,-3.505651E-3,5.357334E-3,2.121388E-2],"categories":[],"categories_nodes":[],"categories_segments":[],"categories_sizes":[],"default_left":[0,0,0,0,0,0,0],"id":75,"left_children":[1,3,5,-1,-1,-1,-1],"loss_changes":[1.774451E1,9.117716E0,5.6131563E0,0E0,0E0,0E0,0E0],"parents":[2147483647,0,0,1,1,2,2],"right_children":[2,4,6,-1,-1,-1,-1],"split_conditions":[6.9495E2,-5.268E3,6.7E1,-2.5305357E-2,-3.505651E-3,5.357334E-3,2.121388E-2],"split_indices":[7,0,2,0,0,0,0],"split_type":[0,0,0,0,0,0,0],"sum_hessian":[3.4335352E2,2.0390028E2,1.3945323E2,1.7162989E1,1.867373E2,1.1648269E2,2.2970543E1],"tree_param":{"num_deleted":"0","num_feature":"9","num_nodes":"7","size_leaf_vector":"1"}},{"base_weights":[-2.3633742E-3,-2.6645258E-1,1.5320268E-1,-1.896904E-2,-4.494827E-3,2.0862902E-3,1.996962E-2],"categories":[],"categories_nodes":[],"categories_segments":[],"categories_sizes":[],"default_left":[0,0,0,0,0,0,0],"id":76,"left_children":[1,3,5,-1,-1,-1,-1],"loss_changes":[1.4325003E1,5.32524E0,9.315351E0,0E0,0E0,0E0,0E0],"parents":[2147483647,0,0,1,1,2,2],"right_children":[2,4,6,-1,-1,-1,-1],"split_conditions":[0E0,-4.6E1,5.7E1,-1.896904E-2,-4.494827E-3,2.0862902E-3,1.996962E-2],"split_indices":[4,2,2,0,0,0,0],"split_type":[0,0,0,0,0,0,0],"sum_hessian":[3.4469452E2,1.2724968E2,2.1744484E2,2.8621538E1,9.8628136E1,1.8888074E2,2.8564108E1],"tree_param":{"num_deleted":"0","num_feature":"9","num_nodes":"7","size_leaf_vector":"1"}},{"base_weights":[4.046181E-2,-5.1274514E-1,1.15218446E-1,-2.2504825E-2,-5.9468574E-3,1.0177449E-3,1.2067073E-2],"categories":[],"categories_nodes":[],"categories_segments":[],"categories_sizes":[],"default_left":[0,0,0,0,0,0,0],"id":77,"left_children":[1,3,5,-1,-1,-1,-1],"loss_changes":[1.4423399E1,2.804861E0,7.1209087E0,0E0,0E0,0E0,0E0],"parents":[2147483647,0,0,1,1,2,2],"right_children":[2,4,6,-1,-1,-1,-1],"split_conditions":[-3.142E3,-5.3E1,2.258E3,-2.2504825E-2,-5.9468574E-3,1.0177449E-3,1.2067073E-2],"split_indices":[6,2,6,0,0,0,0],"split_type":[0,0,0,0,0,0,0],"sum_hessian":[3.4390582E2,3.9545708E1,3.043601E2,2.0956358E1,1.858935E1,2.3892451E2,6.543561E1],"tree_param":{"num_deleted":"0","num_feature":"9","num_nodes":"7","size_leaf_vector":"1"}},{"base_weights":[-8.744329E-3,-1.6613092E-1,2.5909898E-1,-2.1276994E-2,-2.891305E-3,3.5218936E-3,2.1435834E-2],"categories":[],"categories_nodes":[],"categories_segments":[],"categories_sizes":[],"default_left":[0,0,0,0,0,0,0],"id":78,"left_children":[1,3,5,-1,-1,-1,-1],"loss_changes":[1.4401197E1,8.012619E0,7.9939175E0,0E0,0E0,0E0,0E0],"parents":[2147483647,0,0,1,1,2,2],"right_children":[2,4,6,-1,-1,-1,-1],"split_conditions":[1.7E1,-7.2E1,7E0,-2.1276994E-2,-2.891305E-3,3.5218936E-3,2.1435834E-2],"split_indices":[2,2,1,0,0,0,0],"split_type":[0,0,0,0,0,0,0],"sum_hessian":[3.3758316E2,2.1311488E2,1.24468285E2,2.2169428E1,1.9094545E2,9.684987E1,2.7618412E1],"tree_param":{"num_deleted":"0","num_feature":"9","num_nodes":"7","size_leaf_vector":"1"}},{"base_weights":[2.159005E-2,-2.6738933E-1,1.9081739E-1,-2.0759773E-2,-3.368534E-3,-1.4944512E-3,1.0341449E-2],"categories":[],"categories_nodes":[],"categories_segments":[],"categories_sizes":[],"default_left":[0,0,0,0,0,0,0],"id":79,"left_children":[1,3,5,-1,-1,-1,-1],"loss_changes":[1.6349142E1,7.980283E0,7.836994E0,0E0,0E0,0E0,0E0],"parents":[2147483647,0,0,1,1,2,2],"right_children":[2,4,6,-1,-1,-1,-1],"split_conditions":[0E0,-2.816E3,-8E0,-2.0759773E-2,-3.368534E-3,-1.4944512E-3,1.0341449E-2],"split_indices":[4,0,2,0,0,0,0],"split_type":[0,0,0,0,0,0,0],"sum_hessian":[3.3022964E2,1.2153371E2,2.0869594E2,3.0664911E1,9.08688E1,8.193537E1,1.2676056E2],"tree_param":{"num_deleted":"0","num_feature":"9","num_nodes":"7","size_leaf_vector":"1"}},{"base_weights":[2.0775115E-2,-3.4488517E-1,1.3839875E-1,-1.6702808E-2,-7.328549E-4,1.0742843E-3,1.7247098E-2],"categories":[],"categories_nodes":[],"categories_segments":[],"categories_sizes":[],"default_left":[0,0,0,0,0,0,0],"id":80,"left_children":[1,3,5,-1,-1,-1,-1],"loss_changes":[1.47837515E1,5.65508E0,1.1593581E1,0E0,0E0,0E0,0E0],"parents":[2147483647,0,0,1,1,2,2],"right_children":[2,4,6,-1,-1,-1,-1],"split_conditions":[-3.3E1,-1.558E3,2E0,-1.6702808E-2,-7.328549E-4,1.0742843E-3,1.7247098E-2],"split_indices":[2,6,4,0,0,0,0],"split_type":[0,0,0,0,0,0,0],"sum_hessian":[3.3950638E2,8.168998E1,2.578164E2,4.8288475E1,3.34015E1,2.1050632E2,4.7310078E1],"tree_param":{"num_deleted":"0","num_feature":"9","num_nodes":"7","size_leaf_vector":"1"}},{"base_weights":[6.49476E-3,-3.3067125E-1,1.1790079E-1,-1.2975032E-2,4.109553E-3,-4.1449443E-3,7.416103E-3],"categories":[],"categories_nodes":[],"categories_segments":[],"categories_sizes":[],"default_left":[0,0,0,0,0,0,0],"id":81,"left_children":[1,3,5,-1,-1,-1,-1],"loss_changes":[1.2768909E1,4.139472E0,8.525488E0,0E0,0E0,0E0,0E0],"parents":[2147483647,0,0,1,1,2,2],"right_children":[2,4,6,-1,-1,-1,-1],"split_conditions":[-3.3E1,3E0,0E0,-1.2975032E-2,4.109553E-3,-4.1449443E-3,7.416103E-3],"split_indices":[2,1,4,0,0,0,0],"split_type":[0,0,0,0,0,0,0],"sum_hessian":[3.3586346E2,8.243645E1,2.5342702E2,6.781944E1,1.4616998E1,8.49864E1,1.6844061E2],"tree_param":{"num_deleted":"0","num_feature":"9","num_nodes":"7","size_leaf_vector":"1"}},{"base_weights":[-2.5172785E-2,-1.12247646E-1,4.0191582E-1,-5.295111E-3,1.480533E-2,-1.9643735E-2,1.3887404E-2],"categories":[],"categories_nodes":[],"categories_segments":[],"categories_sizes":[],"default_left":[0,0,0,0,0,0,0],"id":82,"left_children":[1,3,5,-1,-1,-1,-1],"loss_changes":[1.2567597E1,1.1082891E1,4.296815E0,0E0,0E0,0E0,0E0],"parents":[2147483647,0,0,1,1,2,2],"right_children":[2,4,6,-1,-1,-1,-1],"split_conditions":[2E0,3.176E3,-1E0,-5.295111E-3,1.480533E-2,-1.9643735E-2,1.3887404E-2],"split_indices":[4,6,3,0,0,0,0],"split_type":[0,0,0,0,0,0,0],"sum_hessian":[3.3351526E2,2.782583E2,5.525696E1,2.5285396E2,2.5404324E1,1.9530727E0,5.330389E1],"tree_param":{"num_deleted":"0","num_feature":"9","num_nodes":"7","size_leaf_vector":"1"}},{"base_weights":[-3.9742988E-2,-1.0459486E-1,2.1504516E-2,-7.3576164E-3,4.965328E-3],"categories":[],"categories_nodes":[],"categories_segments":[],"categories_sizes":[],"default_left":[0,0,0,0,0],"id":83,"left_children":[1,3,-1,-1,-1],"loss_changes":[1.6645575E1,1.1912355E1,0E0,0E0,0E0],"parents":[2147483647,0,0,1,1],"right_children":[2,4,-1,-1,-1],"split_conditions":[3.804E3,1E0,2.1504516E-2,-7.3576164E-3,4.965328E-3],"split_indices":[6,4,0,0,0],"split_type":[0,0,0,0,0],"sum_hessian":[3.3420395E2,3.094054E2,2.4798538E1,2.0357608E2,1.0582932E2],"tree_param":{"num_deleted":"0","num_feature":"9","num_nodes":"5","size_leaf_vector":"1"}},{"base_weights":[-1.4940043E-2,-2.536233E-2,2.9565785E-2,-1.5467738E-3,1.2164743E-2],"categories":[],"categories_nodes":[],"categories_segments":[],"categories_sizes":[],"default_left":[0,0,0,0,0],"id":84,"left_children":[1,-1,3,-1,-1],"loss_changes":[1.2409169E1,0E0,9.779789E0,0E0,0E0],"parents":[2147483647,0,0,2,2],"right_children":[2,-1,4,-1,-1],"split_conditions":[-5.268E3,-2.536233E-2,2E0,-1.5467738E-3,1.2164743E-2],"split_indices":[0,0,4,0,0],"split_type":[0,0,0,0,0],"sum_hessian":[3.3238614E2,1.5076181E1,3.1730994E2,2.624079E2,5.490204E1],"tree_param":{"num_deleted":"0","num_feature":"9","num_nodes":"5","size_leaf_vector":"1"}},{"base_weights":[3.1311423E-2,-3.6805725E-1,1.2486252E-1,-2.153274E-2,-7.015006E-3,2.887298E-3,2.3123885E-2],"categories":[],"categories_nodes":[],"categories_segments":[],"categories_sizes":[],"default_left":[0,0,0,0,0,0,0],"id":85,"left_children":[1,3,5,-1,-1,-1,-1],"loss_changes":[1.2592941E1,2.668829E0,4.8907285E0,0E0,0E0,0E0,0E0],"parents":[2147483647,0,0,1,1,2,2],"right_children":[2,4,6,-1,-1,-1,-1],"split_conditions":[-2.476E3,-5.268E3,6.367E3,-2.153274E-2,-7.015006E-3,2.887298E-3,2.3123885E-2],"split_indices":[0,0,0,0,0,0,0],"split_type":[0,0,0,0,0,0,0],"sum_hessian":[3.325976E2,6.2009804E1,2.705878E2,1.4787677E1,4.7222126E1,2.6130807E2,9.27973E0],"tree_param":{"num_deleted":"0","num_feature":"9","num_nodes":"7","size_leaf_vector":"1"}},{"base_weights":[1.9554153E-2,-3.6453635E-1,1.3426504E-1,-1.7022608E-2,-9.956268E-4,5.9732364E-4,1.0464938E-2],"categories":[],"categories_nodes":[],"categories_segments":[],"categories_sizes":[],"default_left":[0,0,0,0,0,0,0],"id":86,"left_children":[1,3,5,-1,-1,-1,-1],"loss_changes":[1.4739038E1,5.135971E0,6.3004837E0,0E0,0E0,0E0,0E0],"parents":[2147483647,0,0,1,1,2,2],"right_children":[2,4,6,-1,-1,-1,-1],"split_conditions":[-3.2E1,-1.558E3,4E0,-1.7022608E-2,-9.956268E-4,5.9732364E-4,1.0464938E-2],"split_indices":[2,6,1,0,0,0,0],"split_type":[0,0,0,0,0,0,0],"sum_hessian":[3.3030505E2,7.4959564E1,2.5534549E2,4.560862E1,2.9350948E1,1.6799646E2,8.734903E1],"tree_param":{"num_deleted":"0","num_feature":"9","num_nodes":"7","size_leaf_vector":"1"}},{"base_weights":[1.0637992E-2,-2.751317E-1,1.8958081E-1,-2.0785715E-2,-4.1324045E-3,-1.4827227E-3,1.2393627E-2],"categories":[],"categories_nodes":[],"categories_segments":[],"categories_sizes":[],"default_left":[0,0,0,0,0,0,0],"id":87,"left_children":[1,3,5,-1,-1,-1,-1],"loss_changes":[1.7276382E1,7.276767E0,1.11369095E1,0E0,0E0,0E0,0E0],"parents":[2147483647,0,0,1,1,2,2],"right_children":[2,4,6,-1,-1,-1,-1],"split_conditions":[0E0,-2.816E3,1E0,-2.0785715E-2,-4.1324045E-3,-1.4827227E-3,1.2393627E-2],"split_indices":[4,0,5,0,0,0,0],"split_type":[0,0,0,0,0,0,0],"sum_hessian":[3.3380878E2,1.2812288E2,2.056859E2,2.9707972E1,9.84149E1,1.0015734E2,1.0552855E2],"tree_param":{"num_deleted":"0","num_feature":"9","num_nodes":"7","size_leaf_vector":"1"}},{"base_weights":[8.300952E-3,-3.297971E-1,1.13630764E-1,-1.8164862E-2,-3.3878637E-3,2.0713427E-3,2.0881865E-2],"categories":[],"categories_nodes":[],"categories_segments":[],"categories_sizes":[],"default_left":[0,0,0,0,0,0,0],"id":88,"left_children":[1,3,5,-1,-1,-1,-1],"loss_changes":[1.2106497E1,4.692172E0,6.63196E0,0E0,0E0,0E0,0E0],"parents":[2147483647,0,0,1,1,2,2],"right_children":[2,4,6,-1,-1,-1,-1],"split_conditions":[-3.2E1,-2.61E3,4.254E3,-1.8164862E-2,-3.3878637E-3,2.0713427E-3,2.0881865E-2],"split_indices":[2,6,6,0,0,0,0],"split_type":[0,0,0,0,0,0,0],"sum_hessian":[3.3585275E2,7.8764496E1,2.5708826E2,3.3100636E1,4.566386E1,2.4088521E2,1.6203037E1],"tree_param":{"num_deleted":"0","num_feature":"9","num_nodes":"7","size_leaf_vector":"1"}},{"base_weights":[-1.78959E-2,-3.382533E-1,1.0613096E-1,-1.420858E-2,1.0849513E-3,-4.2757005E-3,6.7199036E-3],"categories":[],"categories_nodes":[],"categories_segments":[],"categories_sizes":[],"default_left":[0,0,0,0,0,0,0],"id":89,"left_children":[1,3,5,-1,-1,-1,-1],"loss_changes":[1.3368773E1,4.792447E0,7.1791654E0,0E0,0E0,0E0,0E0],"parents":[2147483647,0,0,1,1,2,2],"right_children":[2,4,6,-1,-1,-1,-1],"split_conditions":[-1.45015E3,3E0,0E0,-1.420858E-2,1.0849513E-3,-4.2757005E-3,6.7199036E-3],"split_indices":[7,5,4,0,0,0,0],"split_type":[0,0,0,0,0,0,0],"sum_hessian":[3.3265894E2,9.188037E1,2.4077855E2,6.709364E1,2.4786726E1,7.7295204E1,1.6348335E2],"tree_param":{"num_deleted":"0","num_feature":"9","num_nodes":"7","size_leaf_vector":"1"}},{"base_weights":[-5.352582E-2,-2.14704E-1,2.3531324E-1,-1.0222657E-2,6.386267E-4,9.023223E-4,1.8186584E-2],"categories":[],"categories_nodes":[],"categories_segments":[],"categories_sizes":[],"default_left":[0,0,0,0,0,0,0],"id":90,"left_children":[1,3,5,-1,-1,-1,-1],"loss_changes":[1.5214589E1,6.2439423E0,8.887296E0,0E0,0E0,0E0,0E0],"parents":[2147483647,0,0,1,1,2,2],"right_children":[2,4,6,-1,-1,-1,-1],"split_conditions":[1E0,6.9495E2,1E0,-1.0222657E-2,6.386267E-4,9.023223E-4,1.8186584E-2],"split_indices":[4,7,3,0,0,0,0],"split_type":[0,0,0,0,0,0,0],"sum_hessian":[3.2264154E2,2.0741373E2,1.1522783E2,1.3462045E2,7.2793274E1,7.557283E1,3.9654995E1],"tree_param":{"num_deleted":"0","num_feature":"9","num_nodes":"7","size_leaf_vector":"1"}},{"base_weights":[-8.447115E-3,-2.8247014E-1,1.5037555E-1,-1.9011766E-2,-4.752054E-3,-2.2495082E-2,5.836079E-3],"categories":[],"categories_nodes":[],"categories_segments":[],"categories_sizes":[],"default_left":[0,0,0,0,0,0,0],"id":91,"left_children":[1,3,5,-1,-1,-1,-1],"loss_changes":[1.4185468E1,5.010336E0,8.497559E0,0E0,0E0,0E0,0E0],"parents":[2147483647,0,0,1,1,2,2],"right_children":[2,4,6,-1,-1,-1,-1],"split_conditions":[0E0,-2.816E3,-7.2E1,-1.9011766E-2,-4.752054E-3,-2.2495082E-2,5.836079E-3],"split_indices":[4,0,2,0,0,0,0],"split_type":[0,0,0,0,0,0,0],"sum_hessian":[3.2199283E2,1.1757646E2,2.0441637E2,2.8545181E1,8.903128E1,8.064364E0,1.96352E2],"tree_param":{"num_deleted":"0","num_feature":"9","num_nodes":"7","size_leaf_vector":"1"}},{"base_weights":[4.586758E-2,-2.1871977E-1,2.0011137E-1,-1.837864E-2,-2.194385E-3,-4.8993095E-3,8.75912E-3],"categories":[],"categories_nodes":[],"categories_segments":[],"categories_sizes":[],"default_left":[0,0,0,0,0,0,0],"id":92,"left_children":[1,3,5,-1,-1,-1,-1],"loss_changes":[1.3495106E1,6.90282E0,7.0587006E0,0E0,0E0,0E0,0E0],"parents":[2147483647,0,0,1,1,2,2],"right_children":[2,4,6,-1,-1,-1,-1],"split_conditions":[0E0,-2.58215E3,-3.3E1,-1.837864E-2,-2.194385E-3,-4.8993095E-3,8.75912E-3],"split_indices":[4,7,2,0,0,0,0],"split_type":[0,0,0,0,0,0,0],"sum_hessian":[3.2652866E2,1.1994348E2,2.0658517E2,3.063442E1,8.930906E1,4.1367573E1,1.652176E2],"tree_param":{"num_deleted":"0","num_feature":"9","num_nodes":"7","size_leaf_vector":"1"}},{"base_weights":[-1.558777E-2,-8.0991454E-2,1.412258E-2,-2.2160258E-2,-1.3136852E-3],"categories":[],"categories_nodes":[],"categories_segments":[],"categories_sizes":[],"default_left":[0,0,0,0,0],"id":93,"left_children":[1,3,-1,-1,-1],"loss_changes":[1.05893545E1,7.1051574E0,0E0,0E0,0E0],"parents":[2147483647,0,0,1,1],"right_children":[2,4,-1,-1,-1],"split_conditions":[3.052E3,-5.268E3,1.412258E-2,-2.2160258E-2,-1.3136852E-3],"split_indices":[6,0,0,0,0],"split_type":[0,0,0,0,0],"sum_hessian":[3.285128E2,2.9104025E2,3.7472527E1,1.3562396E1,2.7747784E2],"tree_param":{"num_deleted":"0","num_feature":"9","num_nodes":"5","size_leaf_vector":"1"}},{"base_weights":[-8.333755E-3,-2.6247782E-1,1.4480655E-1,-1.1557265E-2,-2.8158218E-4,2.002132E-3,1.4110863E-2],"categories":[],"categories_nodes":[],"categories_segments":[],"categories_sizes":[],"default_left":[0,0,0,0,0,0,0],"id":94,"left_children":[1,3,5,-1,-1,-1,-1],"loss_changes":[1.2970193E1,3.885354E0,5.2242055E0,0E0,0E0,0E0,0E0],"parents":[2147483647,0,0,1,1,2,2],"right_children":[2,4,6,-1,-1,-1,-1],"split_conditions":[-1.3E1,3E0,2E0,-1.1557265E-2,-2.8158218E-4,2.002132E-3,1.4110863E-2],"split_indices":[2,5,4,0,0,0,0],"split_type":[0,0,0,0,0,0,0],"sum_hessian":[3.2930203E2,1.2328177E2,2.0602026E2,8.231155E1,4.0970226E1,1.6811578E2,3.7904476E1],"tree_param":{"num_deleted":"0","num_feature":"9","num_nodes":"7","size_leaf_vector":"1"}},{"base_weights":[-6.576996E-3,-1.6107987E-1,2.632099E-1,-2.3036674E-2,-2.9334682E-3,1.1494958E-3,1.458837E-2],"categories":[],"categories_nodes":[],"categories_segments":[],"categories_sizes":[],"default_left":[0,0,0,0,0,0,0],"id":95,"left_children":[1,3,5,-1,-1,-1,-1],"loss_changes":[1.3564847E1,7.795752E0,5.9086065E0,0E0,0E0,0E0,0E0],"parents":[2147483647,0,0,1,1,2,2],"right_children":[2,4,6,-1,-1,-1,-1],"split_conditions":[1.7E1,-4.903E3,3E0,-2.3036674E-2,-2.9334682E-3,1.1494958E-3,1.458837E-2],"split_indices":[2,0,5,0,0,0,0],"split_type":[0,0,0,0,0,0,0],"sum_hessian":[3.2139563E2,2.0487354E2,1.16522095E2,1.7249216E1,1.8762433E2,5.919078E1,5.733131E1],"tree_param":{"num_deleted":"0","num_feature":"9","num_nodes":"7","size_leaf_vector":"1"}},{"base_weights":[2.1145659E-2,-2.8704742E-1,1.0036412E-1,-9.673905E-3,1.6217435E-2,1.6635145E-3,1.5928445E-2],"categories":[],"categories_nodes":[],"categories_segments":[],"categories_sizes":[],"default_left":[0,0,0,0,0,0,0],"id":96,"left_children":[1,3,5,-1,-1,-1,-1],"loss_changes":[8.076757E0,2.332468E0,5.022958E0,0E0,0E0,0E0,0E0],"parents":[2147483647,0,0,1,1,2,2],"right_children":[2,4,6,-1,-1,-1,-1],"split_conditions":[-2.14925E3,2.9E1,6.7E1,-9.673905E-3,1.6217435E-2,1.6635145E-3,1.5928445E-2],"split_indices":[7,2,2,0,0,0,0],"split_type":[0,0,0,0,0,0,0],"sum_hessian":[3.264569E2,6.568146E1,2.6077545E2,6.415681E1,1.5246572E0,2.3818796E2,2.2587498E1],"tree_param":{"num_deleted":"0","num_feature":"9","num_nodes":"7","size_leaf_vector":"1"}},{"base_weights":[-1.5664069E-2,-2.3793097E-1,1.1851164E-1,-1.8804414E-2,-2.985429E-3,-1.3557106E-2,4.883094E-3],"categories":[],"categories_nodes":[],"categories_segments":[],"categories_sizes":[],"default_left":[0,0,0,0,0,0,0],"id":97,"left_children":[1,3,5,-1,-1,-1,-1],"loss_changes":[9.7249E0,6.4800825E0,5.28446E0,0E0,0E0,0E0,0E0],"parents":[2147483647,0,0,1,1,2,2],"right_children":[2,4,6,-1,-1,-1,-1],"split_conditions":[0E0,-2.58215E3,-1E0,-1.8804414E-2,-2.985429E-3,-1.3557106E-2,4.883094E-3],"split_indices":[4,7,3,0,0,0,0],"split_type":[0,0,0,0,0,0,0],"sum_hessian":[3.221982E2,1.2070292E2,2.014953E2,2.9832191E1,9.087073E1,1.3181836E1,1.8831346E2],"tree_param":{"num_deleted":"0","num_feature":"9","num_nodes":"7","size_leaf_vector":"1"}},{"base_weights":[3.9180066E-3,-7.7629715E-2,4.174692E-1,-1.8130084E-2,-2.1636028E-4,3.734822E-2,9.631913E-3],"categories":[],"categories_nodes":[],"categories_segments":[],"categories_sizes":[],"default_left":[0,0,0,0,0,0,0],"id":98,"left_children":[1,3,5,-1,-1,-1,-1],"loss_changes":[1.0976903E1,1.007814E1,3.4770937E0,0E0,0E0,0E0,0E0],"parents":[2147483647,0,0,1,1,2,2],"right_children":[2,4,6,-1,-1,-1,-1],"split_conditions":[2E0,-3.142E3,-3.425E3,-1.8130084E-2,-2.1636028E-4,3.734822E-2,9.631913E-3],"split_indices":[4,6,0,0,0,0,0],"split_type":[0,0,0,0,0,0,0],"sum_hessian":[3.2156882E2,2.699602E2,5.16086E1,3.0047594E1,2.3991263E2,2.8989565E0,4.8709644E1],"tree_param":{"num_deleted":"0","num_feature":"9","num_nodes":"7","size_leaf_vector":"1"}},{"base_weights":[-2.305201E-2,-6.897275E-2,5.6339955E-1,-4.019504E-3,8.549468E-3,-5.769609E-3,2.0023597E-2],"categories":[],"categories_nodes":[],"categories_segments":[],"categories_sizes":[],"default_left":[0,0,0,0,0,0,0],"id":99,"left_children":[1,3,5,-1,-1,-1,-1],"loss_changes":[9.026681E0,7.2086353E0,2.1714025E0,0E0,0E0,0E0,0E0],"parents":[2147483647,0,0,1,1,2,2],"right_children":[2,4,6,-1,-1,-1,-1],"split_conditions":[6.7E1,2E0,-1E0,-4.019504E-3,8.549468E-3,-5.769609E-3,2.0023597E-2],"split_indices":[2,4,4,0,0,0,0],"split_type":[0,0,0,0,0,0,0],"sum_hessian":[3.30301E2,3.0795227E2,2.2348717E1,2.6121753E2,4.6734737E1,2.4994185E0,1.9849298E1],"tree_param":{"num_deleted":"0","num_feature":"9","num_nodes":"7","size_leaf_vector":"1"}},{"base_weights":[4.8757056E-3,-1.9874739E-2,5.05163E-2,-1.4654336E-3,6.6511696E-3],"categories":[],"categories_nodes":[],"categories_segments":[],"categories_sizes":[],"default_left":[0,0,0,0,0],"id":100,"left_children":[1,-1,3,-1,-1],"loss_changes":[1.0061006E1,0E0,5.2772703E0,0E0,0E0],"parents":[2147483647,0,0,2,2],"right_children":[2,-1,4,-1,-1],"split_conditions":[-7.2E1,-1.9874739E-2,3E0,-1.4654336E-3,6.6511696E-3],"split_indices":[2,0,1,0,0],"split_type":[0,0,0,0,0],"sum_hessian":[3.2611526E2,1.9144808E1,3.0697046E2,1.9513615E2,1.1183431E2],"tree_param":{"num_deleted":"0","num_feature":"9","num_nodes":"5","size_leaf_vector":"1"}},{"base_weights":[-2.464235E-2,-6.2929295E-2,6.6245943E-1,-5.0510173E-3,4.391062E-3,-1.1658376E-2,2.4165863E-2],"categories":[],"categories_nodes":[],"categories_segments":[],"categories_sizes":[],"default_left":[0,0,0,0,0,0,0],"id":101,"left_children":[1,3,5,-1,-1,-1,-1],"loss_changes":[8.579234E0,6.8402796E0,3.215438E0,0E0,0E0,0E0,0E0],"parents":[2147483647,0,0,1,1,2,2],"right_children":[2,4,6,-1,-1,-1,-1],"split_conditions":[4.254E3,1E0,8E0,-5.0510173E-3,4.391062E-3,-1.1658376E-2,2.4165863E-2],"split_indices":[6,4,2,0,0,0,0],"split_type":[0,0,0,0,0,0,0],"sum_hessian":[3.209501E2,3.0573087E2,1.5219224E1,2.0356976E2,1.0216111E2,1.4121587E0,1.3807065E1],"tree_param":{"num_deleted":"0","num_feature":"9","num_nodes":"7","size_leaf_vector":"1"}},{"base_weights":[1.058177E-2,-2.4622066E-1,1.6102107E-1,-1.8385211E-2,-3.8787378E-3,3.1497714E-3,2.1411723E-2],"categories":[],"categories_nodes":[],"categories_segments":[],"categories_sizes":[],"default_left":[0,0,0,0,0,0,0],"id":102,"left_children":[1,3,5,-1,-1,-1,-1],"loss_changes":[1.2461731E1,4.9511094E0,6.14643E0,0E0,0E0,0E0,0E0],"parents":[2147483647,0,0,1,1,2,2],"right_children":[2,4,6,-1,-1,-1,-1],"split_conditions":[0E0,-2.816E3,6.7E1,-1.8385211E-2,-3.8787378E-3,3.1497714E-3,2.1411723E-2],"split_indices":[4,0,2,0,0,0,0],"split_type":[0,0,0,0,0,0,0],"sum_hessian":[3.1851306E2,1.1719161E2,2.0132144E2,2.6287558E1,9.090405E1,1.8495235E2,1.6369091E1],"tree_param":{"num_deleted":"0","num_feature":"9","num_nodes":"7","size_leaf_vector":"1"}},{"base_weights":[1.4870243E-2,-2.699727E-1,1.01676755E-1,-1.22076385E-2,-1.6525195E-3,2.3244377E-3,2.0702431E-2],"categories":[],"categories_nodes":[],"categories_segments":[],"categories_sizes":[],"default_left":[0,0,0,0,0,0,0],"id":103,"left_children":[1,3,5,-1,-1,-1,-1],"loss_changes":[8.092753E0,2.2057314E0,3.4607744E0,0E0,0E0,0E0,0E0],"parents":[2147483647,0,0,1,1,2,2],"right_children":[2,4,6,-1,-1,-1,-1],"split_conditions":[-3.3E1,-1.53695E3,6.367E3,-1.22076385E-2,-1.6525195E-3,2.3244377E-3,2.0702431E-2],"split_indices":[2,7,0,0,0,0,0],"split_type":[0,0,0,0,0,0,0],"sum_hessian":[3.2307404E2,7.447501E1,2.4859903E2,4.439488E1,3.0080135E1,2.4095422E2,7.644801E0],"tree_param":{"num_deleted":"0","num_feature":"9","num_nodes":"7","size_leaf_vector":"1"}},{"base_weights":[-5.434611E-3,-1.2266929E-1,2.0548593E-1,-1.055499E-2,2.631681E-5,7.9967047E-4,1.1154105E-2],"categories":[],"categories_nodes":[],"categories_segments":[],"categories_sizes":[],"default_left":[0,0,0,0,0,0,0],"id":104,"left_children":[1,3,5,-1,-1,-1,-1],"loss_changes":[7.966292E0,5.8616667E0,3.4039912E0,0E0,0E0,0E0,0E0],"parents":[2147483647,0,0,1,1,2,2],"right_children":[2,4,6,-1,-1,-1,-1],"split_conditions":[1E0,-1E0,1E0,-1.055499E-2,2.631681E-5,7.9967047E-4,1.1154105E-2],"split_indices":[4,5,5,0,0,0,0],"split_type":[0,0,0,0,0,0,0],"sum_hessian":[3.181284E2,2.050137E2,1.1311469E2,7.051725E1,1.3449644E2,5.5625183E1,5.7489513E1],"tree_param":{"num_deleted":"0","num_feature":"9","num_nodes":"7","size_leaf_vector":"1"}},{"base_weights":[1.188654E-2,-1.2598881E-1,2.6073307E-1,-7.578469E-3,4.367317E-3,3.4149194E-3,2.173554E-2],"categories":[],"categories_nodes":[],"categories_segments":[],"categories_sizes":[],"default_left":[0,0,0,0,0,0,0],"id":105,"left_children":[1,3,5,-1,-1,-1,-1],"loss_changes":[1.1296911E1,7.3633184E0,7.830816E0,0E0,0E0,0E0,0E0],"parents":[2147483647,0,0,1,1,2,2],"right_children":[2,4,6,-1,-1,-1,-1],"split_conditions":[1.7E1,1E0,7E0,-7.578469E-3,4.367317E-3,3.4149194E-3,2.173554E-2],"split_indices":[2,4,1,0,0,0,0],"split_type":[0,0,0,0,0,0,0],"sum_hessian":[3.2534705E2,2.0998863E2,1.1535841E2,1.4330664E2,6.668199E1,8.950034E1,2.5858072E1],"tree_param":{"num_deleted":"0","num_feature":"9","num_nodes":"7","size_leaf_vector":"1"}},{"base_weights":[-3.4282256E-3,-1.1589954E-2,4.0300783E-2,2.6009569E-2,6.284423E-4],"categories":[],"categories_nodes":[],"categories_segments":[],"categories_sizes":[],"default_left":[0,0,0,0,0],"id":106,"left_children":[1,-1,3,-1,-1],"loss_changes":[5.4322495E0,0E0,4.6243587E0,0E0,0E0],"parents":[2147483647,0,0,2,2],"right_children":[2,-1,4,-1,-1],"split_conditions":[-3.142E3,-1.1589954E-2,-2.957E3,2.6009569E-2,6.284423E-4],"split_indices":[6,0,6,0,0],"split_type":[0,0,0,0,0],"sum_hessian":[3.2057004E2,3.1251726E1,2.893183E2,4.614246E0,2.8470407E2],"tree_param":{"num_deleted":"0","num_feature":"9","num_nodes":"5","size_leaf_vector":"1"}},{"base_weights":[7.4641383E-3,-3.7481196E-2,6.2182236E-1,-4.629235E-3,4.6086977E-3,-8.985227E-3,2.229592E-2],"categories":[],"categories_nodes":[],"categories_segments":[],"categories_sizes":[],"default_left":[0,0,0,0,0,0,0],"id":107,"left_children":[1,3,5,-1,-1,-1,-1],"loss_changes":[8.771368E0,6.6630135E0,2.8666458E0,0E0,0E0,0E0,0E0],"parents":[2147483647,0,0,1,1,2,2],"right_children":[2,4,6,-1,-1,-1,-1],"split_conditions":[6.7E1,3E0,-1E0,-4.629235E-3,4.6086977E-3,-8.985227E-3,2.229592E-2],"split_indices":[2,5,4,0,0,0,0],"split_type":[0,0,0,0,0,0,0],"sum_hessian":[3.1397086E2,2.943171E2,1.9653725E1,1.8289452E2,1.114226E2,1.9460983E0,1.7707626E1],"tree_param":{"num_deleted":"0","num_feature":"9","num_nodes":"7","size_leaf_vector":"1"}},{"base_weights":[1.24428375E-2,-1.4990491E-2,5.2553125E-2,2.6607258E-2,1.0314899E-3],"categories":[],"categories_nodes":[],"categories_segments":[],"categories_sizes":[],"default_left":[0,0,0,0,0],"id":108,"left_children":[1,-1,3,-1,-1],"loss_changes":[6.6703963E0,0E0,4.4959135E0,0E0,0E0],"parents":[2147483647,0,0,2,2],"right_children":[2,-1,4,-1,-1],"split_conditions":[-4.39725E3,-1.4990491E-2,-4.15625E3,2.6607258E-2,1.0314899E-3],"split_indices":[7,0,7,0,0],"split_type":[0,0,0,0,0],"sum_hessian":[3.2017084E2,2.1590395E1,2.9858044E2,4.325696E0,2.9425473E2],"tree_param":{"num_deleted":"0","num_feature":"9","num_nodes":"5","size_leaf_vector":"1"}},{"base_weights":[-2.3444396E-2,-3.0093372E-1,5.8153734E-2,-1.2177882E-2,6.1159505E-4,4.5357252E-4,1.50426775E-2],"categories":[],"categories_nodes":[],"categories_segments":[],"categories_sizes":[],"default_left":[0,0,0,0,0,0,0],"id":109,"left_children":[1,3,5,-1,-1,-1,-1],"loss_changes":[7.209115E0,2.456499E0,4.687418E0,0E0,0E0,0E0,0E0],"parents":[2147483647,0,0,1,1,2,2],"right_children":[2,4,6,-1,-1,-1,-1],"split_conditions":[-1.896E3,3E0,6.7E1,-1.2177882E-2,6.1159505E-4,4.5357252E-4,1.50426775E-2],"split_indices":[0,5,2,0,0,0,0],"split_type":[0,0,0,0,0,0,0],"sum_hessian":[3.148413E2,7.032212E1,2.445192E2,5.2605827E1,1.7716297E1,2.2476605E2,1.9753141E1],"tree_param":{"num_deleted":"0","num_feature":"9","num_nodes":"7","size_leaf_vector":"1"}},{"base_weights":[-3.6334936E-2,-2.2599738E-2,2.715163E-3,-3.1931365E-3,4.984298E-3],"categories":[],"categories_nodes":[],"categories_segments":[],"categories_sizes":[],"default_left":[0,0,0,0,0],"id":110,"left_children":[1,-1,3,-1,-1],"loss_changes":[8.953037E0,0E0,5.4780583E0,0E0,0E0],"parents":[2147483647,0,0,2,2],"right_children":[2,-1,4,-1,-1],"split_conditions":[-4.903E3,-2.2599738E-2,3E0,-3.1931365E-3,4.984298E-3],"split_indices":[0,0,5,0,0],"split_type":[0,0,0,0,0],"sum_hessian":[3.1762216E2,1.4515938E1,3.031062E2,1.821478E2,1.2095842E2],"tree_param":{"num_deleted":"0","num_feature":"9","num_nodes":"5","size_leaf_vector":"1"}},{"base_weights":[-4.7523376E-2,-1.1660065E-1,3.2306683E-1,-2.095504E-2,-2.312365E-3,-3.3185564E-3,1.5931109E-2],"categories":[],"categories_nodes":[],"categories_segments":[],"categories_sizes":[],"default_left":[0,0,0,0,0,0,0],"id":111,"left_children":[1,3,5,-1,-1,-1,-1],"loss_changes":[8.155119E0,6.0443463E0,4.6378922E0,0E0,0E0,0E0,0E0],"parents":[2147483647,0,0,1,1,2,2],"right_children":[2,4,6,-1,-1,-1,-1],"split_conditions":[2.83035E3,-4.903E3,1E0,-2.095504E-2,-2.312365E-3,-3.3185564E-3,1.5931109E-2],"split_indices":[7,0,5,0,0,0,0],"split_type":[0,0,0,0,0,0,0],"sum_hessian":[3.1362424E2,2.655053E2,4.8118927E1,1.4764984E1,2.5074034E2,1.5899504E1,3.2219425E1],"tree_param":{"num_deleted":"0","num_feature":"9","num_nodes":"7","size_leaf_vector":"1"}},{"base_weights":[1.4597558E-2,-2.2125522E-2,6.2187634E-2,-2.8527684E-3,4.485643E-3],"categories":[],"categories_nodes":[],"categories_segments":[],"categories_sizes":[],"default_left":[0,0,0,0,0],"id":112,"left_children":[1,-1,3,-1,-1],"loss_changes":[1.159058E1,0E0,4.203923E0,0E0,0E0],"parents":[2147483647,0,0,2,2],"right_children":[2,-1,4,-1,-1],"split_conditions":[-7.2E1,-2.2125522E-2,0E0,-2.8527684E-3,4.485643E-3],"split_indices":[2,0,4,0,0],"split_type":[0,0,0,0,0],"sum_hessian":[3.1925787E2,1.7273436E1,3.0198447E2,1.0775329E2,1.9423116E2],"tree_param":{"num_deleted":"0","num_feature":"9","num_nodes":"5","size_leaf_vector":"1"}},{"base_weights":[-2.6994577E-2,-1.9887755E-2,1.4654324E-2,-8.4054034E-4,1.6494479E-2],"categories":[],"categories_nodes":[],"categories_segments":[],"categories_sizes":[],"default_left":[0,0,0,0,0],"id":113,"left_children":[1,-1,3,-1,-1],"loss_changes":[8.631561E0,0E0,7.0446205E0,0E0,0E0],"parents":[2147483647,0,0,2,2],"right_children":[2,-1,4,-1,-1],"split_conditions":[-7.2E1,-1.9887755E-2,6.7E1,-8.4054034E-4,1.6494479E-2],"split_indices":[2,0,2,0,0],"split_type":[0,0,0,0,0],"sum_hessian":[3.2316022E2,1.8029936E1,3.0513028E2,2.843521E2,2.0778173E1],"tree_param":{"num_deleted":"0","num_feature":"9","num_nodes":"5","size_leaf_vector":"1"}},{"base_weights":[-9.262413E-3,-2.514516E-1,9.273386E-2,-2.4457434E-2,-6.0211825E-3,-4.2286827E-3,5.923395E-3],"categories":[],"categories_nodes":[],"categories_segments":[],"categories_sizes":[],"default_left":[0,0,0,0,0,0,0],"id":114,"left_children":[1,3,5,-1,-1,-1,-1],"loss_changes":[7.9270186E0,2.3928719E0,5.5844173E0,0E0,0E0,0E0,0E0],"parents":[2147483647,0,0,1,1,2,2],"right_children":[2,4,6,-1,-1,-1,-1],"split_conditions":[0E0,-1.2E1,-1E0,-2.4457434E-2,-6.0211825E-3,-4.2286827E-3,5.923395E-3],"split_indices":[3,1,5,0,0,0,0],"split_type":[0,0,0,0,0,0,0],"sum_hessian":[3.1701288E2,9.307546E1,2.2393742E2,5.1976275E0,8.787783E1,6.907924E1,1.5485818E2],"tree_param":{"num_deleted":"0","num_feature":"9","num_nodes":"7","size_leaf_vector":"1"}},{"base_weights":[7.3076813E-3,-3.83789E-2,1.851962E-2,-6.087431E-4,-3.5373136E-2],"categories":[],"categories_nodes":[],"categories_segments":[],"categories_sizes":[],"default_left":[0,0,0,0,0],"id":115,"left_children":[1,3,-1,-1,-1],"loss_changes":[9.1304E0,6.2469788E0,0E0,0E0,0E0],"parents":[2147483647,0,0,1,1],"right_children":[2,4,-1,-1,-1],"split_conditions":[3.804E3,1.2E1,1.851962E-2,-6.087431E-4,-3.5373136E-2],"split_indices":[6,1,0,0,0],"split_type":[0,0,0,0,0],"sum_hessian":[3.2391342E2,3.03088E2,2.0825436E1,3.0036102E2,2.726979E0],"tree_param":{"num_deleted":"0","num_feature":"9","num_nodes":"5","size_leaf_vector":"1"}},{"base_weights":[2.084495E-2,-4.9680017E-2,3.7500116E-1,-4.352001E-3,8.090359E-3,-4.009475E-3,1.6189575E-2],"categories":[],"categories_nodes":[],"categories_segments":[],"categories_sizes":[],"default_left":[0,0,0,0,0,0,0],"id":116,"left_children":[1,3,5,-1,-1,-1,-1],"loss_changes":[8.072558E0,8.304684E0,4.6381803E0,0E0,0E0,0E0,0E0],"parents":[2147483647,0,0,1,1,2,2],"right_children":[2,4,6,-1,-1,-1,-1],"split_conditions":[2E0,1.611E3,0E0,-4.352001E-3,8.090359E-3,-4.009475E-3,1.6189575E-2],"split_indices":[4,6,3,0,0,0,0],"split_type":[0,0,0,0,0,0,0],"sum_hessian":[3.1970975E2,2.6805084E2,5.165891E1,2.0724268E2,6.0808147E1,1.2724928E1,3.8933983E1],"tree_param":{"num_deleted":"0","num_feature":"9","num_nodes":"7","size_leaf_vector":"1"}},{"base_weights":[1.6488144E-2,-1.8456712E-2,4.269813E-2,-1.4402404E-2,2.003445E-3],"categories":[],"categories_nodes":[],"categories_segments":[],"categories_sizes":[],"default_left":[0,0,0,0,0],"id":117,"left_children":[1,-1,3,-1,-1],"loss_changes":[5.208351E0,0E0,3.8520246E0,0E0,0E0],"parents":[2147483647,0,0,2,2],"right_children":[2,-1,4,-1,-1],"split_conditions":[-5.268E3,-1.8456712E-2,-7.2E1,-1.4402404E-2,2.003445E-3],"split_indices":[0,0,2,0,0],"split_type":[0,0,0,0,0],"sum_hessian":[3.0939478E2,1.0534997E1,2.9885977E2,1.1493871E1,2.873659E2],"tree_param":{"num_deleted":"0","num_feature":"9","num_nodes":"5","size_leaf_vector":"1"}},{"base_weights":[-4.6635466E-3,-1.5543485E-2,4.8864897E-2,7.49162E-4,2.2893544E-2],"categories":[],"categories_nodes":[],"categories_segments":[],"categories_sizes":[],"default_left":[0,0,0,0,0],"id":118,"left_children":[1,-1,3,-1,-1],"loss_changes":[8.644541E0,0E0,4.825413E0,0E0,0E0],"parents":[2147483647,0,0,2,2],"right_children":[2,-1,4,-1,-1],"split_conditions":[-3.142E3,-1.5543485E-2,6.367E3,7.49162E-4,2.2893544E-2],"split_indices":[6,0,0,0,0],"split_type":[0,0,0,0,0],"sum_hessian":[3.1068393E2,2.7692726E1,2.8299118E2,2.7583405E2,7.157134E0],"tree_param":{"num_deleted":"0","num_feature":"9","num_nodes":"5","size_leaf_vector":"1"}},{"base_weights":[2.0200549E-2,-1.9016425E-1,1.3976729E-1,-1.6349586E-2,-2.3787569E-3,1.9433972E-3,1.0324765E-2],"categories":[],"categories_nodes":[],"categories_segments":[],"categories_sizes":[],"default_left":[0,0,0,0,0,0,0],"id":119,"left_children":[1,3,5,-1,-1,-1,-1],"loss_changes":[7.97668E0,4.4380302E0,3.0515506E0,0E0,0E0,0E0,0E0],"parents":[2147483647,0,0,1,1,2,2],"right_children":[2,4,6,-1,-1,-1,-1],"split_conditions":[0E0,-2.58215E3,2E0,-1.6349586E-2,-2.3787569E-3,1.9433972E-3,1.0324765E-2],"split_indices":[4,7,4,0,0,0,0],"split_type":[0,0,0,0,0,0,0],"sum_hessian":[3.1301758E2,1.1300919E2,2.0000839E2,2.5040823E1,8.7968376E1,1.4825157E2,5.175682E1],"tree_param":{"num_deleted":"0","num_feature":"9","num_nodes":"7","size_leaf_vector":"1"}},{"base_weights":[9.361695E-3,-1.9232662E-2,1.2967911E-2,-1.567965E-2,7.466429E-5],"categories":[],"categories_nodes":[],"categories_segments":[],"categories_sizes":[],"default_left":[0,0,0,0,0],"id":120,"left_children":[1,3,-1,-1,-1],"loss_changes":[3.8466403E0,3.267589E0,0E0,0E0,0E0],"parents":[2147483647,0,0,1,1],"right_children":[2,4,-1,-1,-1],"split_conditions":[6.7E1,-5.268E3,1.2967911E-2,-1.567965E-2,7.466429E-5],"split_indices":[2,0,0,0,0],"split_type":[0,0,0,0,0],"sum_hessian":[3.1472342E2,2.9657935E2,1.8144054E1,1.0359587E1,2.8621976E2],"tree_param":{"num_deleted":"0","num_feature":"9","num_nodes":"5","size_leaf_vector":"1"}},{"base_weights":[-5.519237E-3,-4.5302983E-2,5.5049783E-1,-3.075014E-3,8.3325915E-3,-7.442141E-3,2.0389594E-2],"categories":[],"categories_nodes":[],"categories_segments":[],"categories_sizes":[],"default_left":[0,0,0,0,0,0,0],"id":121,"left_children":[1,3,5,-1,-1,-1,-1],"loss_changes":[7.018294E0,5.523364E0,2.522438E0,0E0,0E0,0E0,0E0],"parents":[2147483647,0,0,1,1,2,2],"right_children":[2,4,6,-1,-1,-1,-1],"split_conditions":[6.7E1,2E0,-1E0,-3.075014E-3,8.3325915E-3,-7.442141E-3,2.0389594E-2],"split_indices":[2,4,4,0,0,0,0],"split_type":[0,0,0,0,0,0,0],"sum_hessian":[3.1302148E2,2.9383432E2,1.9187181E1,2.5079599E2,4.303832E1,2.4148266E0,1.6772356E1],"tree_param":{"num_deleted":"0","num_feature":"9","num_nodes":"7","size_leaf_vector":"1"}},{"base_weights":[5.490376E-2,-2.3794506E-1,1.4215872E-1,-3.736917E-3,-1.6616516E-2,-2.823769E-3,8.15419E-3],"categories":[],"categories_nodes":[],"categories_segments":[],"categories_sizes":[],"default_left":[0,0,0,0,0,0,0],"id":122,"left_children":[1,3,5,-1,-1,-1,-1],"loss_changes":[8.094794E0,2.472012E0,7.5037875E0,0E0,0E0,0E0,0E0],"parents":[2147483647,0,0,1,1,2,2],"right_children":[2,4,6,-1,-1,-1,-1],"split_conditions":[-3.3E1,-3.6E2,0E0,-3.736917E-3,-1.6616516E-2,-2.823769E-3,8.15419E-3],"split_indices":[2,0,4,0,0,0,0],"split_type":[0,0,0,0,0,0,0],"sum_hessian":[3.1214297E2,7.086128E1,2.412817E2,5.4199284E1,1.6662E1,8.567889E1,1.5560281E2],"tree_param":{"num_deleted":"0","num_feature":"9","num_nodes":"7","size_leaf_vector":"1"}},{"base_weights":[2.0453401E-3,-1.6276379E-1,1.5633386E-1,-1.1576908E-2,-1.3767148E-4,4.8737664E-4,1.1711015E-2],"categories":[],"categories_nodes":[],"categories_segments":[],"categories_sizes":[],"default_left":[0,0,0,0,0,0,0],"id":123,"left_children":[1,3,5,-1,-1,-1,-1],"loss_changes":[8.172305E0,5.481436E0,5.428965E0,0E0,0E0,0E0,0E0],"parents":[2147483647,0,0,1,1,2,2],"right_children":[2,4,6,-1,-1,-1,-1],"split_conditions":[1E0,-1.4E1,1.438E3,-1.1576908E-2,-1.3767148E-4,4.8737664E-4,1.1711015E-2],"split_indices":[5,2,0,0,0,0,0],"split_type":[0,0,0,0,0,0,0],"sum_hessian":[3.1738666E2,1.534081E2,1.6397855E2,6.244257E1,9.096554E1,1.03915504E2,6.006304E1],"tree_param":{"num_deleted":"0","num_feature":"9","num_nodes":"7","size_leaf_vector":"1"}},{"base_weights":[-5.272651E-4,-1.9058436E-2,3.8280826E-2,-1.7334705E-2,1.7312116E-3],"categories":[],"categories_nodes":[],"categories_segments":[],"categories_sizes":[],"default_left":[0,0,0,0,0],"id":124,"left_children":[1,-1,3,-1,-1],"loss_changes":[7.8392E0,0E0,3.6563354E0,0E0,0E0],"parents":[2147483647,0,0,2,2],"right_children":[2,-1,4,-1,-1],"split_conditions":[-7.2E1,-1.9058436E-2,-4.903E3,-1.7334705E-2,1.7312116E-3],"split_indices":[2,0,0,0,0],"split_type":[0,0,0,0,0],"sum_hessian":[3.1425766E2,1.6335236E1,2.9792242E2,7.3493137E0,2.9057312E2],"tree_param":{"num_deleted":"0","num_feature":"9","num_nodes":"5","size_leaf_vector":"1"}},{"base_weights":[1.1145087E-2,-1.7499012E-1,1.2348004E-1,-2.509766E-2,-3.5842096E-3,1.0404703E-3,1.2493824E-2],"categories":[],"categories_nodes":[],"categories_segments":[],"categories_sizes":[],"default_left":[0,0,0,0,0,0,0],"id":125,"left_children":[1,3,5,-1,-1,-1,-1],"loss_changes":[6.5539455E0,4.1349297E0,5.0535173E0,0E0,0E0,0E0,0E0],"parents":[2147483647,0,0,1,1,2,2],"right_children":[2,4,6,-1,-1,-1,-1],"split_conditions":[0E0,-5.268E3,3.7E1,-2.509766E-2,-3.5842096E-3,1.0404703E-3,1.2493824E-2],"split_indices":[4,0,2,0,0,0,0],"split_type":[0,0,0,0,0,0,0],"sum_hessian":[3.0937683E2,1.1602004E2,1.9335678E2,6.803479E0,1.0921657E2,1.5010051E2,4.3256264E1],"tree_param":{"num_deleted":"0","num_feature":"9","num_nodes":"7","size_leaf_vector":"1"}},{"base_weights":[2.3130195E-2,-1.0823018E-2,2.1108855E-2,-1.797968E-2,4.3653592E-4],"categories":[],"categories_nodes":[],"categories_segments":[],"categories_sizes":[],"default_left":[0,0,0,0,0],"id":126,"left_children":[1,3,-1,-1,-1],"loss_changes":[7.1948986E0,4.4665217E0,0E0,0E0,0E0],"parents":[2147483647,0,0,1,1],"right_children":[2,4,-1,-1,-1],"split_conditions":[5.218E3,-5.268E3,2.1108855E-2,-1.797968E-2,4.3653592E-4],"split_indices":[0,0,0,0,0],"split_type":[0,0,0,0,0],"sum_hessian":[3.0873947E2,2.9594177E2,1.2797715E1,1.0362704E1,2.8557907E2],"tree_param":{"num_deleted":"0","num_feature":"9","num_nodes":"5","size_leaf_vector":"1"}},{"base_weights":[-1.1296494E-2,-6.7679656E-1,2.6084237E-2,-2.6712015E-2,4.8561595E-4,-8.311029E-4,8.6767385E-3],"categories":[],"categories_nodes":[],"categories_segments":[],"categories_sizes":[],"default_left":[0,0,0,0,0,0,0],"id":127,"left_children":[1,3,5,-1,-1,-1,-1],"loss_changes":[7.763731E0,2.4854584E0,4.2065244E0,0E0,0E0,0E0,0E0],"parents":[2147483647,0,0,1,1,2,2],"right_children":[2,4,6,-1,-1,-1,-1],"split_conditions":[-7.2E1,3E0,2E0,-2.6712015E-2,4.8561595E-4,-8.311029E-4,8.6767385E-3],"split_indices":[2,5,4,0,0,0,0],"split_type":[0,0,0,0,0,0,0],"sum_hessian":[3.0866693E2,1.4596166E1,2.9407077E2,1.07216015E1,3.8745644E0,2.4564809E2,4.8422684E1],"tree_param":{"num_deleted":"0","num_feature":"9","num_nodes":"7","size_leaf_vector":"1"}},{"base_weights":[-1.7850231E-2,-8.085052E-2,3.0093586E-1,-4.628967E-3,4.864909E-3,1.9192372E-2,2.298107E-3],"categories":[],"categories_nodes":[],"categories_segments":[],"categories_sizes":[],"default_left":[0,0,0,0,0,0,0],"id":128,"left_children":[1,3,5,-1,-1,-1,-1],"loss_changes":[6.2680774E0,4.6934876E0,3.8181634E0,0E0,0E0,0E0,0E0],"parents":[2147483647,0,0,1,1,2,2],"right_children":[2,4,6,-1,-1,-1,-1],"split_conditions":[2E0,1.611E3,1E0,-4.628967E-3,4.864909E-3,1.9192372E-2,2.298107E-3],"split_indices":[4,6,1,0,0,0,0],"split_type":[0,0,0,0,0,0,0],"sum_hessian":[3.0767612E2,2.5815152E2,4.9524586E1,1.9879732E2,5.9354202E1,1.8253185E1,3.1271402E1],"tree_param":{"num_deleted":"0","num_feature":"9","num_nodes":"7","size_leaf_vector":"1"}},{"base_weights":[-1.8883616E-2,-1.863853E-2,7.06546E-3,-5.8731966E-4,1.5481059E-2],"categories":[],"categories_nodes":[],"categories_segments":[],"categories_sizes":[],"default_left":[0,0,0,0,0],"id":129,"left_children":[1,-1,3,-1,-1],"loss_changes":[4.955848E0,0E0,4.1613235E0,0E0,0E0],"parents":[2147483647,0,0,2,2],"right_children":[2,-1,4,-1,-1],"split_conditions":[-8.1E1,-1.863853E-2,4.254E3,-5.8731966E-4,1.5481059E-2],"split_indices":[2,0,6,0,0],"split_type":[0,0,0,0,0],"sum_hessian":[3.1447586E2,1.1092049E1,3.033838E2,2.9012012E2,1.3263697E1],"tree_param":{"num_deleted":"0","num_feature":"9","num_nodes":"5","size_leaf_vector":"1"}},{"base_weights":[1.550464E-2,-1.4109041E-2,4.4817913E-2,-2.0102631E-2,1.8661206E-3],"categories":[],"categories_nodes":[],"categories_segments":[],"categories_sizes":[],"default_left":[0,0,0,0,0],"id":130,"left_children":[1,-1,3,-1,-1],"loss_changes":[4.52909E0,0E0,3.7994795E0,0E0,0E0],"parents":[2147483647,0,0,2,2],"right_children":[2,-1,4,-1,-1],"split_conditions":[-7.2E1,-1.4109041E-2,-5.268E3,-2.0102631E-2,1.8661206E-3],"split_indices":[2,0,0,0,0],"split_type":[0,0,0,0,0],"sum_hessian":[3.1308118E2,1.6103956E1,2.9697723E2,5.268222E0,2.91709E2],"tree_param":{"num_deleted":"0","num_feature":"9","num_nodes":"5","size_leaf_vector":"1"}},{"base_weights":[9.363335E-3,-2.854063E-1,1.0105201E-1,-1.3677691E-2,2.9095935E-3,1.9917386E-3,1.7686997E-2],"categories":[],"categories_nodes":[],"categories_segments":[],"categories_sizes":[],"default_left":[0,0,0,0,0,0,0],"id":131,"left_children":[1,3,5,-1,-1,-1,-1],"loss_changes":[8.458014E0,4.9307947E0,3.960872E0,0E0,0E0,0E0,0E0],"parents":[2147483647,0,0,1,1,2,2],"right_children":[2,4,6,-1,-1,-1,-1],"split_conditions":[-1.532E3,3E0,4.254E3,-1.3677691E-2,2.9095935E-3,1.9917386E-3,1.7686997E-2],"split_indices":[6,5,6,0,0,0,0],"split_type":[0,0,0,0,0,0,0],"sum_hessian":[3.0881216E2,7.226431E1,2.3654787E2,4.9712093E1,2.255222E1,2.2299771E2,1.3550156E1],"tree_param":{"num_deleted":"0","num_feature":"9","num_nodes":"7","size_leaf_vector":"1"}},{"base_weights":[-3.3091787E-2,-5.4543592E-2,2.2102159E-2,-5.9190383E-3,8.2515413E-4],"categories":[],"categories_nodes":[],"categories_segments":[],"categories_sizes":[],"default_left":[0,0,0,0,0],"id":132,"left_children":[1,3,-1,-1,-1],"loss_changes":[5.2807894E0,3.6211789E0,0E0,0E0,0E0],"parents":[2147483647,0,0,1,1],"right_children":[2,4,-1,-1,-1],"split_conditions":[6.367E3,-1E0,2.2102159E-2,-5.9190383E-3,8.2515413E-4],"split_indices":[0,5,0,0,0],